{
    "version": "0.5.0",
    "architecture": "WaveNet",
    "config": {
        "layers": [
            {
                "input_size": 1,
                "condition_size": 1,
                "head_size": 8,
                "channels": 16,
                "kernel_size": 3,
                "dilations": [
                    1,
                    2,
                    4,
                    8,
                    16,
                    32,
                    64,
                    128,
                    256,
                    512
                ],
                "activation": "Tanh",
                "gated": false,
                "head_bias": false
            },
            {
                "input_size": 16,
                "condition_size": 1,
                "head_size": 1,
                "channels": 8,
                "kernel_size": 3,
                "dilations": [
                    1,
                    2,
                    4,
                    8,
                    16,
                    32,
                    64,
                    128,
                    256,
                    512
                ],
                "activation": "Tanh",
                "gated": false,
                "head_bias": true
            }
        ],
        "head": null,
        "head_scale": 0.02
    },
    "weights": [
        0.13106369972229004,
        0.14042188227176666,
        -0.95354825258255,
        -0.8312482237815857,
        -0.28258776664733887,
        0.7151257395744324,
        -0.2742444574832916,
        0.8924984931945801,
        -0.19578610360622406,
        0.2591639757156372,
        -0.5371960401535034,
        -0.14865326881408691,
        -1.0194692611694336,
        -0.8129515647888184,
        -0.20548507571220398,
        -0.0018539304146543145,
        0.128343865275383,
        0.18868224322795868,
        0.018198000267148018,
        -0.1866719126701355,
        0.06901437789201736,
        -0.02954171597957611,
        0.09256789088249207,
        0.0729350820183754,
        0.125032439827919,
        0.13852472603321075,
        0.09561549127101898,
        0.013169988989830017,
        0.033815108239650726,
        -0.059635601937770844,
        0.09362485259771347,
        0.0034524386283010244,
        -0.04537574201822281,
        -0.21481803059577942,
        0.011162825860083103,
        -0.1953975111246109,
        0.05737510323524475,
        -0.0015606072265654802,
        0.0980721041560173,
        -0.07795406877994537,
        0.12204356491565704,
        -0.11880302429199219,
        0.17153336107730865,
        -0.26014605164527893,
        -0.07596845924854279,
        -0.2175503522157669,
        0.21159285306930542,
        0.04327619448304176,
        0.08181226253509521,
        0.09284404665231705,
        0.04472993314266205,
        0.27779144048690796,
        0.18169552087783813,
        -0.013245213776826859,
        0.244418203830719,
        0.03998841345310211,
        -0.007040836848318577,
        0.037360694259405136,
        0.026564763858914375,
        -0.10174284130334854,
        0.2061620056629181,
        -0.06114485114812851,
        -0.010958782397210598,
        -0.0740274041891098,
        0.05638070032000542,
        -0.05586349591612816,
        -0.10898548364639282,
        0.03171246871352196,
        0.1676160991191864,
        0.22301504015922546,
        -0.11523093283176422,
        -0.13314595818519592,
        -0.02536933682858944,
        0.11480912566184998,
        0.04569509997963905,
        0.047774072736501694,
        0.030063103884458542,
        -0.20072367787361145,
        -0.06562301516532898,
        -0.0887402892112732,
        -0.062009189277887344,
        0.2035507708787918,
        0.11143144220113754,
        -0.20782887935638428,
        -0.0494566410779953,
        -0.01965123601257801,
        0.054151952266693115,
        0.010664924047887325,
        0.06630328297615051,
        -0.1449025273323059,
        -0.01928931474685669,
        0.07743031531572342,
        0.17631341516971588,
        0.12505941092967987,
        -0.14461855590343475,
        -0.1665455847978592,
        -0.003561235498636961,
        0.0339154414832592,
        -0.1860453188419342,
        -0.16317029297351837,
        0.13210494816303253,
        0.019213518127799034,
        -0.1401481181383133,
        -0.03815612569451332,
        -0.21410760283470154,
        -0.08051879703998566,
        -0.11771374195814133,
        -0.18832539021968842,
        -0.08123073726892471,
        0.0724574401974678,
        -0.023909755051136017,
        0.18233558535575867,
        -0.038316816091537476,
        0.11645087599754333,
        0.1779322326183319,
        -0.15803326666355133,
        0.08063577860593796,
        -0.12405987083911896,
        0.051645055413246155,
        -0.09191980957984924,
        0.20053699612617493,
        0.038355503231287,
        -0.1971946507692337,
        0.2134401649236679,
        -0.09993395209312439,
        -0.20180192589759827,
        0.1206359714269638,
        -0.10199303925037384,
        0.07898305356502533,
        -0.2929818332195282,
        0.007705457508563995,
        -0.1057562604546547,
        0.11478094011545181,
        -0.03813204914331436,
        0.22644765675067902,
        -0.16717077791690826,
        0.05223065987229347,
        -0.12654943764209747,
        0.22678756713867188,
        0.05653497204184532,
        0.25083431601524353,
        -0.07800506800413132,
        0.17169828712940216,
        -0.13185454905033112,
        0.037661220878362656,
        -0.03294247388839722,
        -0.03088325634598732,
        0.1306954026222229,
        -0.04117969423532486,
        -0.23455053567886353,
        0.01472453773021698,
        -0.08984380960464478,
        -0.15356099605560303,
        0.2331642061471939,
        0.10797995328903198,
        -0.25730395317077637,
        0.2461095005273819,
        -0.11315397173166275,
        0.09009810537099838,
        -0.2021927684545517,
        -0.025661062449216843,
        -7.156393257901073e-05,
        -0.15066561102867126,
        -0.06102779507637024,
        -0.22319768369197845,
        0.13231904804706573,
        -0.12723833322525024,
        0.2665521800518036,
        -0.27606087923049927,
        -0.06995943188667297,
        0.3406035900115967,
        -0.20469442009925842,
        0.06341130286455154,
        0.25393983721733093,
        -0.28526946902275085,
        0.1536034792661667,
        -0.23861275613307953,
        0.1081157773733139,
        0.04942483827471733,
        0.11344484984874725,
        -0.18099525570869446,
        0.03113459423184395,
        -0.10706864297389984,
        0.19383209943771362,
        -0.006427207496017218,
        0.25755274295806885,
        -0.2276465743780136,
        0.03336157277226448,
        -0.31748178601264954,
        0.2472541779279709,
        0.049692895263433456,
        0.3088063895702362,
        -0.26869091391563416,
        -0.05845841020345688,
        0.11178038269281387,
        -0.21322283148765564,
        -0.1447347104549408,
        0.2604690194129944,
        -0.2356977015733719,
        -0.06461086124181747,
        0.2193228155374527,
        -0.05927269905805588,
        -0.16633367538452148,
        0.10506284236907959,
        -0.23659397661685944,
        0.12237337231636047,
        -0.2617866098880768,
        0.26887401938438416,
        -0.018308527767658234,
        -0.03955342248082161,
        -0.08097947388887405,
        0.03697545826435089,
        -0.22334179282188416,
        0.12622348964214325,
        -0.06194519251585007,
        0.27584895491600037,
        -0.2845969498157501,
        -0.13517357409000397,
        0.3755043148994446,
        -0.2878393530845642,
        -0.07809649407863617,
        0.38637933135032654,
        -0.12881328165531158,
        0.0625932440161705,
        -0.3939109146595001,
        0.2635137736797333,
        -0.15980717539787292,
        0.2325964719057083,
        -0.24813227355480194,
        0.039787426590919495,
        -0.25336384773254395,
        0.2980177104473114,
        -0.05405357852578163,
        0.3762741684913635,
        -0.11993632465600967,
        -0.025098701938986778,
        -0.17254139482975006,
        0.09042005240917206,
        -0.12439674139022827,
        0.29691606760025024,
        -0.13991881906986237,
        0.04451744258403778,
        0.2061094492673874,
        -0.15469229221343994,
        0.014109992422163486,
        0.11715947091579437,
        -0.07074128836393356,
        -0.17960406839847565,
        0.2613842189311981,
        -0.20126059651374817,
        -0.13588882982730865,
        0.26391008496284485,
        -0.056996773928403854,
        -0.012972448952496052,
        -0.3125000596046448,
        0.11884176731109619,
        -0.14326462149620056,
        -0.05750896781682968,
        -0.04998552426695824,
        -0.04111194238066673,
        -0.18133211135864258,
        0.13863569498062134,
        0.01380074955523014,
        0.23032084107398987,
        0.0012522564502432942,
        -0.11135294288396835,
        0.07927682995796204,
        -0.0065805199556052685,
        0.05924130976200104,
        0.14647077023983002,
        -0.11723905056715012,
        -0.0032622809521853924,
        -0.27604758739471436,
        0.06920318305492401,
        -0.1402662843465805,
        0.013608859851956367,
        0.10596765577793121,
        -0.028717655688524246,
        -0.13512130081653595,
        0.08985784649848938,
        -0.04677905514836311,
        0.034762680530548096,
        -0.1478453278541565,
        0.17976848781108856,
        -0.07991179078817368,
        0.16214820742607117,
        -0.1103212982416153,
        0.16750097274780273,
        -0.07534881681203842,
        -0.04869033396244049,
        0.03871737793087959,
        0.007983521558344364,
        -0.018038351088762283,
        0.11569831520318985,
        -0.08081197738647461,
        -0.15195226669311523,
        0.22131527960300446,
        -0.15453095734119415,
        -0.005088201258331537,
        0.057538922876119614,
        -0.11123181879520416,
        0.10106242448091507,
        -0.19077031314373016,
        0.033926282078027725,
        0.07866072654724121,
        -0.10875862836837769,
        0.03718743473291397,
        0.056196413934230804,
        0.10760731995105743,
        -0.07146813720464706,
        -0.11967314779758453,
        -0.07412294298410416,
        0.11161166429519653,
        -0.054867733269929886,
        0.002754627028480172,
        0.15944290161132812,
        -0.06969782710075378,
        -0.04558919742703438,
        0.13154877722263336,
        0.011816841550171375,
        0.05758623406291008,
        -0.06534669548273087,
        -0.10633254796266556,
        -0.032718390226364136,
        0.21542319655418396,
        0.13139189779758453,
        0.13262499868869781,
        -0.04919737949967384,
        0.0851747989654541,
        -0.10150237381458282,
        -0.01722654141485691,
        -0.12773847579956055,
        0.18425419926643372,
        0.005595344118773937,
        -0.0963795930147171,
        0.015113117173314095,
        0.18973813951015472,
        0.1537148803472519,
        0.07465728372335434,
        0.17048417031764984,
        -0.03430487960577011,
        -0.09957321733236313,
        0.18609847128391266,
        0.08045943826436996,
        -0.13580362498760223,
        0.1992492973804474,
        0.06744804233312607,
        0.03251860290765762,
        -0.014044451527297497,
        0.09029676020145416,
        -0.02219214290380478,
        0.06388695538043976,
        0.01551682036370039,
        0.08463270217180252,
        0.08028700947761536,
        0.07594083994626999,
        -0.1181773841381073,
        0.13266965746879578,
        -0.11669014394283295,
        0.10660047829151154,
        -0.16871556639671326,
        -0.15647685527801514,
        -0.04175003990530968,
        0.04207765311002731,
        0.0602739192545414,
        0.20282907783985138,
        0.04300782456994057,
        -0.10975411534309387,
        -0.1726895570755005,
        0.056043848395347595,
        -0.09634585678577423,
        0.18643231689929962,
        -0.17266936600208282,
        -0.05346441641449928,
        -0.20827311277389526,
        -0.004848417825996876,
        0.09789390861988068,
        0.18239888548851013,
        0.031346071511507034,
        0.12756112217903137,
        0.07095497101545334,
        0.042359575629234314,
        0.047094427049160004,
        0.19673895835876465,
        -0.02730751782655716,
        0.1300026774406433,
        0.15152999758720398,
        0.030998200178146362,
        -0.06734588742256165,
        0.1397850066423416,
        -0.05957135558128357,
        -0.051160722970962524,
        -0.009078187867999077,
        -0.1552632600069046,
        -0.12122328579425812,
        0.15627430379390717,
        0.023503340780735016,
        -0.06754746288061142,
        -0.10650922358036041,
        0.1226407065987587,
        0.1280515491962433,
        0.04034814238548279,
        -0.05264728516340256,
        0.09975345432758331,
        0.13370677828788757,
        -0.09370683878660202,
        0.16549153625965118,
        0.03136851638555527,
        -0.06205736845731735,
        0.10749775171279907,
        -0.16078685224056244,
        -0.030625389888882637,
        0.15413780510425568,
        -0.06956175714731216,
        -0.10749946534633636,
        -0.0742807388305664,
        0.03526827320456505,
        -0.03146101534366608,
        0.0418904609978199,
        0.05696563050150871,
        0.010768325999379158,
        -0.1147686243057251,
        0.08530585467815399,
        0.07398771494626999,
        0.11080615967512131,
        -0.19173485040664673,
        -0.016684139147400856,
        -0.13400205969810486,
        0.01568136177957058,
        0.05208553373813629,
        -0.07454194873571396,
        -0.021320458501577377,
        0.12022482603788376,
        0.04655426740646362,
        -0.16548305749893188,
        -0.059047501534223557,
        0.05741153657436371,
        -0.1889771819114685,
        0.06599176675081253,
        -0.10381920635700226,
        -0.21606679260730743,
        -0.1452050805091858,
        -0.005045363679528236,
        0.02099028415977955,
        -0.13517703115940094,
        0.12873336672782898,
        -0.026147928088903427,
        0.07052260637283325,
        -0.02710910327732563,
        -0.2335837036371231,
        0.08409096300601959,
        0.11741290986537933,
        0.07819297909736633,
        0.19287744164466858,
        -0.130826935172081,
        0.21192976832389832,
        -0.11019899696111679,
        0.03173992410302162,
        -0.023941023275256157,
        -0.15762725472450256,
        -0.18113592267036438,
        0.01896899752318859,
        -0.08790604770183563,
        -0.08357354253530502,
        -0.06861703842878342,
        0.19105938076972961,
        0.0008735806914046407,
        0.03265335038304329,
        -0.21243397891521454,
        -0.004565771669149399,
        -0.02587684616446495,
        0.2597140073776245,
        0.05380001664161682,
        0.08555871248245239,
        -0.06260530650615692,
        -0.09408188611268997,
        -0.1936393529176712,
        0.1823844611644745,
        -0.1181052029132843,
        0.16566967964172363,
        -0.21697087585926056,
        -0.0899636372923851,
        -0.021796178072690964,
        -0.03114640899002552,
        -0.052593547850847244,
        0.2003684788942337,
        -0.027146929875016212,
        0.043633125722408295,
        0.09783927351236343,
        -0.16106446087360382,
        -0.07866702973842621,
        0.09193212538957596,
        -0.04048033058643341,
        -0.04117733985185623,
        0.0302006583660841,
        0.07270437479019165,
        -0.14403922855854034,
        -0.2030598372220993,
        -0.1640971302986145,
        0.29568806290626526,
        0.04399493336677551,
        -0.24809478223323822,
        -0.0993582233786583,
        -0.09096656739711761,
        0.5015378594398499,
        -0.25002220273017883,
        -0.1314285695552826,
        0.4389733374118805,
        -0.20322257280349731,
        -0.1214715763926506,
        0.3352608382701874,
        0.26783043146133423,
        0.13882707059383392,
        -0.46113771200180054,
        -0.13837788999080658,
        -0.12610261142253876,
        0.36456945538520813,
        0.18131163716316223,
        0.2544770836830139,
        -0.40042731165885925,
        -0.11770225316286087,
        -0.20723403990268707,
        0.4630894958972931,
        0.05489266291260719,
        0.07555606216192245,
        -0.46582943201065063,
        -0.032435961067676544,
        -0.20610427856445312,
        0.40112271904945374,
        -0.23389238119125366,
        -0.0399441123008728,
        0.5021945834159851,
        -0.27897512912750244,
        -0.29077038168907166,
        0.27247580885887146,
        -0.17420105636119843,
        -0.21454975008964539,
        0.2896837592124939,
        -0.2157258242368698,
        -0.13878203928470612,
        0.30013179779052734,
        0.24724522233009338,
        0.12762507796287537,
        -0.388363778591156,
        0.0301906056702137,
        0.11041245609521866,
        -0.014389216899871826,
        0.006041385233402252,
        -0.12642832100391388,
        0.11638905107975006,
        -0.12740854918956757,
        -0.06582041829824448,
        0.16170738637447357,
        -0.08192127197980881,
        0.09803071618080139,
        0.004609986674040556,
        -0.02820443920791149,
        0.03823705017566681,
        0.10445783287286758,
        -0.0011768621625378728,
        -0.20085851848125458,
        -0.08737572282552719,
        -0.045568130910396576,
        0.1352321207523346,
        -0.1155620813369751,
        0.12703852355480194,
        -0.09892349690198898,
        -0.039223600178956985,
        0.10389328747987747,
        0.1280534565448761,
        0.11186658591032028,
        0.07675666362047195,
        -0.11272887140512466,
        -0.09654729068279266,
        -0.005182035267353058,
        0.18236276507377625,
        -0.043388497084379196,
        -0.13672274351119995,
        0.13548196852207184,
        0.1612599492073059,
        -0.03261544182896614,
        -0.0519460029900074,
        -0.11661109328269958,
        0.04309071600437164,
        0.05513744801282883,
        -0.06030089408159256,
        0.039696890860795975,
        0.12069635093212128,
        0.12155921757221222,
        0.06237068027257919,
        -0.025753038004040718,
        -0.1369970291852951,
        -0.1137404516339302,
        0.02841097116470337,
        0.044045206159353256,
        0.059486862272024155,
        3.0615079595008865e-05,
        0.0911485105752945,
        0.134385347366333,
        -0.0028880471363663673,
        -0.07206093519926071,
        -0.05846235156059265,
        -0.23378156125545502,
        0.18558362126350403,
        -0.05601384863257408,
        -0.19094713032245636,
        0.13419058918952942,
        -0.06539612263441086,
        0.06589528173208237,
        -0.07625976204872131,
        -0.013419315218925476,
        -0.25997185707092285,
        0.18034295737743378,
        -0.06195620819926262,
        0.18147948384284973,
        0.06890233606100082,
        0.0835583508014679,
        -0.1063726395368576,
        0.19382654130458832,
        0.015489599667489529,
        0.054195426404476166,
        0.06866521388292313,
        0.03492653742432594,
        -0.27082040905952454,
        0.020292600616812706,
        -0.10008587688207626,
        -0.0126644941046834,
        0.011119705624878407,
        -0.1331348717212677,
        -0.1401669979095459,
        0.14495639503002167,
        0.03681497648358345,
        -0.08617149293422699,
        0.06797059625387192,
        0.05097430571913719,
        -0.16262532770633698,
        0.00015081328456290066,
        -0.11566568911075592,
        0.010464577935636044,
        0.02244974859058857,
        -0.12565791606903076,
        0.006555274128913879,
        0.06140929087996483,
        0.06053107604384422,
        -0.12280825525522232,
        0.11887096613645554,
        -0.12528181076049805,
        0.15513329207897186,
        -0.09580936282873154,
        -0.07507681101560593,
        0.11504609137773514,
        -0.04177754744887352,
        0.07609919458627701,
        -0.06428628414869308,
        -0.10246199369430542,
        -0.029509954154491425,
        -0.013662410899996758,
        0.11865290999412537,
        -0.1031225249171257,
        0.08928918838500977,
        -0.017082326114177704,
        0.0073785921558737755,
        0.06828150898218155,
        -0.1290336698293686,
        -0.03345552086830139,
        0.15713252127170563,
        -0.012390276417136192,
        0.15141679346561432,
        -0.08309993892908096,
        0.0978960171341896,
        -0.17960642278194427,
        0.014134450815618038,
        -0.009711644612252712,
        -0.00807941798120737,
        0.07536005228757858,
        0.11434557288885117,
        -0.060889095067977905,
        0.03244258835911751,
        0.11632786691188812,
        -0.0792810469865799,
        0.1632540374994278,
        -0.07890058308839798,
        -0.0547957569360733,
        0.027749452739953995,
        0.07606206834316254,
        0.09608807414770126,
        -0.03201909735798836,
        -0.15519234538078308,
        0.10600322484970093,
        0.0077297077514231205,
        -0.06004500389099121,
        -0.1387992650270462,
        0.08581199496984482,
        0.25514429807662964,
        0.05391981452703476,
        -0.12795878946781158,
        -0.019856955856084824,
        -0.06506291031837463,
        0.04218713194131851,
        -0.09771692007780075,
        -0.023972287774086,
        0.05269157886505127,
        -0.2493870109319687,
        -0.00967391487210989,
        -0.10676509886980057,
        0.10049529373645782,
        0.059061069041490555,
        0.13202360272407532,
        -0.19268469512462616,
        0.05291355773806572,
        -0.025630397722125053,
        0.04994216933846474,
        -0.07482652366161346,
        -0.11807006597518921,
        0.0249591376632452,
        -0.07157488912343979,
        0.006941088475286961,
        0.15498802065849304,
        0.13830702006816864,
        0.13083183765411377,
        -0.0024225718807429075,
        -0.04560619592666626,
        -0.0001308788196183741,
        -0.19569289684295654,
        -0.04070965200662613,
        0.04276684299111366,
        0.017948823049664497,
        -0.0717647597193718,
        0.09809546172618866,
        -0.1917867213487625,
        0.0118679478764534,
        0.12246339023113251,
        -0.14330720901489258,
        -0.014708319678902626,
        -0.16139191389083862,
        0.20765602588653564,
        -0.005190751049667597,
        -0.02195633389055729,
        0.14371410012245178,
        -0.08769190311431885,
        -0.25506243109703064,
        0.03637976571917534,
        0.10359510779380798,
        0.1034911721944809,
        0.03003036044538021,
        0.11414541304111481,
        0.2411830574274063,
        -0.11488018184900284,
        -0.03413953259587288,
        0.08887652307748795,
        -0.15950310230255127,
        0.012327498756349087,
        -0.03486335650086403,
        0.17480073869228363,
        0.00015789506142027676,
        0.17887623608112335,
        -0.11622978746891022,
        0.1213168203830719,
        -0.1997118890285492,
        -0.05479828640818596,
        -0.005157676059752703,
        0.21701206266880035,
        -0.18958717584609985,
        0.1483851969242096,
        -0.07623547315597534,
        -0.0482826866209507,
        -0.04705512523651123,
        0.26217177510261536,
        -0.16116328537464142,
        -0.05602887645363808,
        0.19937190413475037,
        -0.1499447375535965,
        0.06734588742256165,
        0.2163020819425583,
        0.046138517558574677,
        -0.10435791313648224,
        0.28608444333076477,
        -0.12949714064598083,
        0.13364103436470032,
        -0.004334369208663702,
        -0.17472586035728455,
        0.05069384723901749,
        -0.10740053653717041,
        -0.007705812342464924,
        -0.03654222562909126,
        -0.11345264315605164,
        0.013425000943243504,
        -0.2255105823278427,
        -0.10888265818357468,
        0.17179547250270844,
        -0.06653109937906265,
        -0.016331160441040993,
        0.01655874215066433,
        0.12316939234733582,
        -0.17124038934707642,
        -0.02192709408700466,
        -0.14043067395687103,
        -0.012796027585864067,
        -0.004205475561320782,
        -0.10923822969198227,
        0.2969028055667877,
        -0.34748342633247375,
        0.6602411866188049,
        -0.5613611936569214,
        0.1709526926279068,
        0.9533188939094543,
        0.9381734132766724,
        -0.503050684928894,
        0.18873518705368042,
        0.2365403026342392,
        -0.8447685837745667,
        -0.3681327700614929,
        0.2216244488954544,
        -0.7164183259010315,
        0.28573310375213623,
        0.4717111885547638,
        -0.18366651237010956,
        0.17779842019081116,
        -0.14745964109897614,
        0.29457923769950867,
        0.7466656565666199,
        0.030436811968684196,
        0.18630483746528625,
        0.04310312867164612,
        -0.044911764562129974,
        0.05990751460194588,
        0.3775534927845001,
        -0.07770713418722153,
        0.0009061548043973744,
        0.028656156733632088,
        0.2608701288700104,
        0.029200764372944832,
        0.20711499452590942,
        -0.3471084237098694,
        -0.564241349697113,
        0.3596265912055969,
        0.47763267159461975,
        -0.38328316807746887,
        -0.531157374382019,
        0.41728734970092773,
        -0.3128843605518341,
        -0.12343915551900864,
        -0.6354095935821533,
        0.423746258020401,
        -0.12314150482416153,
        0.1849907785654068,
        -0.2920098602771759,
        0.600085437297821,
        0.12413381785154343,
        -0.03965364396572113,
        -0.17615075409412384,
        0.39492982625961304,
        0.06951704621315002,
        -0.3044638931751251,
        -0.04882782697677612,
        0.05292834714055061,
        -0.18526187539100647,
        -0.29100072383880615,
        0.05367986857891083,
        0.05023413151502609,
        0.017090145498514175,
        0.3855392038822174,
        -0.08317218720912933,
        0.1858554631471634,
        0.11429113149642944,
        -0.0845712423324585,
        -0.014906585216522217,
        -0.11137054115533829,
        -0.07609236240386963,
        -0.017088672146201134,
        0.03809795901179314,
        0.0038617511745542288,
        -0.21564938127994537,
        -0.0036486138124018908,
        0.059487808495759964,
        0.05422021076083183,
        0.16743355989456177,
        0.2217686027288437,
        -0.1370142549276352,
        -0.08441995084285736,
        -0.2729535400867462,
        -0.29788532853126526,
        -0.34060296416282654,
        0.3337244689464569,
        0.44257983565330505,
        0.46208059787750244,
        0.21641604602336884,
        -0.07762186229228973,
        0.09918010234832764,
        0.5030614137649536,
        -0.22437326610088348,
        0.04928969964385033,
        -0.055052805691957474,
        0.10532782226800919,
        0.09367464482784271,
        0.15803773701190948,
        -0.30345627665519714,
        0.14327572286128998,
        0.20563563704490662,
        0.02591884881258011,
        0.1736184060573578,
        0.4987371861934662,
        0.4126046895980835,
        -0.033479370176792145,
        0.26948440074920654,
        0.20246773958206177,
        -0.1735163778066635,
        -0.2490372657775879,
        0.16406118869781494,
        -0.2873039245605469,
        0.3795666992664337,
        0.0313359797000885,
        0.10658225417137146,
        -0.10038211941719055,
        0.02660190872848034,
        0.284340500831604,
        -0.08648966252803802,
        -0.4721203148365021,
        -0.09612777829170227,
        0.2674507796764374,
        -0.17578817903995514,
        -0.49972161650657654,
        -0.0854557603597641,
        0.4350990056991577,
        -0.018168490380048752,
        0.12321103364229202,
        -0.20480477809906006,
        -0.02068004012107849,
        0.15131425857543945,
        0.1694146990776062,
        0.4000891447067261,
        -0.33428817987442017,
        -0.3831883370876312,
        0.3260851800441742,
        0.38396432995796204,
        -0.06319084018468857,
        0.21366780996322632,
        -0.02353193797171116,
        0.22298866510391235,
        -0.34266534447669983,
        0.16791529953479767,
        -0.26350805163383484,
        0.1092325896024704,
        -0.06411636620759964,
        -0.19065698981285095,
        -0.20006048679351807,
        -0.3481089174747467,
        -0.12003534287214279,
        0.1311497539281845,
        -0.2394605129957199,
        -0.25732338428497314,
        0.10661601275205612,
        -0.2874141335487366,
        -0.29577958583831787,
        0.15072892606258392,
        0.23213674128055573,
        -0.11483567208051682,
        0.011626644991338253,
        -0.0645345002412796,
        0.0779874175786972,
        -0.30977699160575867,
        0.3248312473297119,
        0.673501193523407,
        -0.525504469871521,
        -0.8566803932189941,
        0.13485069572925568,
        0.571728527545929,
        -0.5213513970375061,
        0.2738591134548187,
        0.34326082468032837,
        0.3074931502342224,
        -0.19562697410583496,
        0.5326398015022278,
        -0.07567289471626282,
        0.1155063807964325,
        -0.35494616627693176,
        0.3056572675704956,
        0.017747484147548676,
        -0.5290188193321228,
        0.33683228492736816,
        0.11286937445402145,
        -0.45679280161857605,
        -0.2596816122531891,
        0.19323700666427612,
        -0.1428212970495224,
        -0.36882099509239197,
        -0.3495407700538635,
        0.1774774193763733,
        -0.36465510725975037,
        0.3063827455043793,
        -0.20381292700767517,
        0.44129320979118347,
        0.04555932432413101,
        -0.04206790775060654,
        0.283479779958725,
        -0.14387749135494232,
        -0.32309281826019287,
        -0.15894362330436707,
        0.05422396585345268,
        -0.1080743744969368,
        0.004441446624696255,
        -0.2202630490064621,
        0.1489068567752838,
        -0.2035321742296219,
        -0.052697453647851944,
        0.12990227341651917,
        -0.1979794055223465,
        -0.33935803174972534,
        -0.11246375739574432,
        -0.0269119031727314,
        -0.05343330651521683,
        0.11563294380903244,
        0.14530758559703827,
        -0.2693638503551483,
        -0.13308775424957275,
        0.23044733703136444,
        0.17225036025047302,
        -0.09906164556741714,
        -0.15087033808231354,
        0.1116856038570404,
        0.06875879317522049,
        -0.10433093458414078,
        -0.17843446135520935,
        0.1792030781507492,
        -0.10133090615272522,
        -0.2759934067726135,
        -0.281126469373703,
        0.21122874319553375,
        0.03167448192834854,
        0.11207099258899689,
        0.08613680303096771,
        0.16958306729793549,
        -0.05864030867815018,
        -0.12413238734006882,
        0.025499794632196426,
        0.09598304331302643,
        -0.3018609881401062,
        0.023007221519947052,
        -0.24511933326721191,
        0.20644250512123108,
        -0.15141203999519348,
        0.15267886221408844,
        -0.13240650296211243,
        0.014823340810835361,
        0.2247309684753418,
        0.10459987819194794,
        0.18176297843456268,
        0.21364299952983856,
        -0.3063909113407135,
        0.16455024480819702,
        0.1324331909418106,
        -0.052872613072395325,
        0.12918905913829803,
        0.24780362844467163,
        -0.09837986528873444,
        0.0007553768809884787,
        0.182579904794693,
        0.1394565999507904,
        0.10111384093761444,
        0.1525309532880783,
        0.35777461528778076,
        0.2480708360671997,
        0.01998145319521427,
        0.2842245399951935,
        -0.13335585594177246,
        -0.09968912601470947,
        -0.1962157040834427,
        -0.19670027494430542,
        0.11204694956541061,
        0.15221266448497772,
        0.10766700655221939,
        0.25087133049964905,
        0.1261383295059204,
        -0.2004276067018509,
        0.17391616106033325,
        -0.21556386351585388,
        -0.13926878571510315,
        -0.14274854958057404,
        0.1505923867225647,
        -0.008850240148603916,
        0.2243197113275528,
        -0.25242283940315247,
        0.09899574518203735,
        -0.0122469961643219,
        0.06352179497480392,
        0.23428161442279816,
        0.0881338119506836,
        -0.06985007226467133,
        0.000621780869551003,
        0.006752681918442249,
        0.023009082302451134,
        0.09175825864076614,
        -0.223052978515625,
        0.17138788104057312,
        -0.07394896447658539,
        -0.06455748528242111,
        0.12517490983009338,
        -0.14623844623565674,
        -0.024727679789066315,
        0.08309424668550491,
        -0.20370586216449738,
        -0.15975461900234222,
        0.35774463415145874,
        0.09064830094575882,
        -0.07163166254758835,
        -0.03784427046775818,
        -0.0982554629445076,
        -0.22509440779685974,
        0.08051686733961105,
        0.0020796468015760183,
        -0.021662306040525436,
        -0.2934986650943756,
        -0.021199418231844902,
        -0.0003295951755717397,
        -0.012926633469760418,
        -0.1797402948141098,
        0.08097393810749054,
        -0.2764953076839447,
        -0.10814176499843597,
        -0.08904214948415756,
        0.142435222864151,
        -0.09809061884880066,
        0.10166080296039581,
        -0.20079530775547028,
        -0.1194220632314682,
        -0.03911904990673065,
        0.06425437331199646,
        -0.06125815212726593,
        0.012951971031725407,
        0.04934670031070709,
        -0.3302222192287445,
        -0.19131852686405182,
        0.22854237258434296,
        0.09063326567411423,
        -0.08198513835668564,
        0.043512165546417236,
        0.15118809044361115,
        0.2286996841430664,
        0.22322675585746765,
        -0.15989623963832855,
        0.0726640522480011,
        0.04827532544732094,
        -0.01839510351419449,
        -0.17850282788276672,
        0.041477493941783905,
        -0.17440533638000488,
        -0.19967854022979736,
        -0.19387087225914001,
        0.20200440287590027,
        0.033640459179878235,
        -0.038675568997859955,
        -0.21593445539474487,
        -0.04627476632595062,
        -0.001086596748791635,
        0.13764460384845734,
        -0.15126164257526398,
        -0.043677255511283875,
        0.04092682898044586,
        -0.06134601682424545,
        0.11733905971050262,
        -0.059900254011154175,
        -0.044035088270902634,
        -0.0019385572522878647,
        0.059496283531188965,
        -0.04611106589436531,
        -0.10958332568407059,
        0.1176595464348793,
        0.07658948749303818,
        -0.10368810594081879,
        -0.18447424471378326,
        -0.5233550071716309,
        0.0020789513364434242,
        -0.047187723219394684,
        -0.14257405698299408,
        -0.17051976919174194,
        0.060331474989652634,
        0.005976638291031122,
        0.004749898333102465,
        0.20055782794952393,
        -0.22416482865810394,
        -0.041808005422353745,
        0.03595498576760292,
        0.25888192653656006,
        -0.19650298357009888,
        -0.10194509476423264,
        -0.26071226596832275,
        -0.22986571490764618,
        0.07118276506662369,
        0.24791261553764343,
        -0.20532938838005066,
        0.05729908123612404,
        0.15333767235279083,
        0.048924773931503296,
        0.14531934261322021,
        0.03977898135781288,
        -0.12741561233997345,
        0.14307644963264465,
        -0.05268734320998192,
        -0.07194104045629501,
        -0.054206427186727524,
        0.02742585353553295,
        0.20711596310138702,
        0.12700895965099335,
        -0.007246546447277069,
        -0.07612310349941254,
        -0.08551554381847382,
        -0.15407274663448334,
        0.2563340365886688,
        -0.004275545943528414,
        -0.02075648121535778,
        -0.1341002732515335,
        -0.07040156424045563,
        -0.026842311024665833,
        -0.01336616463959217,
        -0.11997608095407486,
        -0.07615330070257187,
        -0.059391170740127563,
        0.19239936769008636,
        -0.1893402487039566,
        0.20712926983833313,
        0.12667818367481232,
        0.07176966965198517,
        -0.12449032068252563,
        0.020531291142106056,
        0.054027751088142395,
        -0.002762179123237729,
        0.10808301717042923,
        0.20962704718112946,
        -0.0028513020370155573,
        -0.07632078230381012,
        0.16527406871318817,
        0.15378333628177643,
        -0.20303480327129364,
        0.22068780660629272,
        0.0821220874786377,
        -0.11003579199314117,
        0.09978650510311127,
        -0.04981236532330513,
        0.0937376618385315,
        -0.11305167526006699,
        -0.05823544040322304,
        0.04203903302550316,
        0.015784699469804764,
        -0.08653129637241364,
        -0.11905445158481598,
        0.09240616858005524,
        -0.13712838292121887,
        -0.09774944186210632,
        0.11835918575525284,
        -0.05636364966630936,
        0.08351033926010132,
        0.08530061691999435,
        0.018122561275959015,
        -0.1678992509841919,
        -0.015880068764090538,
        0.03064834512770176,
        0.134843111038208,
        -0.10964938998222351,
        0.10383191704750061,
        0.0790734514594078,
        -0.2278301864862442,
        0.03182414174079895,
        0.17942966520786285,
        -0.048784561455249786,
        0.041220877319574356,
        -0.023162025958299637,
        -0.24971365928649902,
        0.40557408332824707,
        0.15532100200653076,
        0.1427009552717209,
        -0.015043647959828377,
        0.1361207515001297,
        -0.09362921118736267,
        -0.04680236428976059,
        -0.34855207800865173,
        0.24855823814868927,
        0.23863175511360168,
        0.03432958945631981,
        0.08054201304912567,
        0.02042112872004509,
        -0.2688753306865692,
        -0.20046724379062653,
        -0.09904950857162476,
        0.08233040571212769,
        0.2347794622182846,
        -0.005890976171940565,
        0.023550501093268394,
        0.13325060904026031,
        -0.2801934778690338,
        0.05553002655506134,
        0.3000396192073822,
        0.011041409336030483,
        -0.07042404264211655,
        -0.08294688165187836,
        0.10530009865760803,
        -0.20651617646217346,
        -0.02218157984316349,
        0.16181489825248718,
        0.19469277560710907,
        0.012358514592051506,
        -0.159438818693161,
        -0.06740744411945343,
        -0.015081538818776608,
        0.2438945770263672,
        0.12427529692649841,
        0.13012568652629852,
        -0.2719772160053253,
        -0.10079925507307053,
        -0.1809750646352768,
        0.12296949326992035,
        0.20154181122779846,
        0.051274824887514114,
        -0.1547698974609375,
        0.12798285484313965,
        -0.05399538576602936,
        0.035814426839351654,
        -0.0903814435005188,
        -0.07295798510313034,
        -0.09200028330087662,
        0.03458124399185181,
        -0.012508849613368511,
        -0.20728036761283875,
        0.03139113262295723,
        -0.10828079283237457,
        -0.33056581020355225,
        0.20728042721748352,
        0.07015514373779297,
        0.25323954224586487,
        -0.1271659880876541,
        -0.2771061956882477,
        -0.04692864790558815,
        -0.1063157171010971,
        0.20244744420051575,
        -0.13694754242897034,
        -0.041956182569265366,
        0.02847200259566307,
        -0.008302603848278522,
        0.06529151648283005,
        0.1341981291770935,
        0.05238284170627594,
        -0.13762660324573517,
        0.20354539155960083,
        0.12424541264772415,
        0.06936680525541306,
        -0.175322026014328,
        0.06693337112665176,
        0.12088468670845032,
        -0.13282464444637299,
        -0.20075327157974243,
        0.11544440686702728,
        -0.23001794517040253,
        0.25719720125198364,
        0.15376749634742737,
        0.19960267841815948,
        -0.1917579025030136,
        0.13368387520313263,
        -0.15028074383735657,
        0.12467629462480545,
        0.05697095766663551,
        0.1682807207107544,
        -0.05814275145530701,
        0.21662414073944092,
        -0.13447995483875275,
        0.17080733180046082,
        0.06669797748327255,
        0.17797105014324188,
        -0.012596160173416138,
        -0.02955162152647972,
        -0.06763652712106705,
        0.0025122419465333223,
        0.04484066367149353,
        0.0230959951877594,
        -0.11445694416761398,
        -0.05193155258893967,
        0.04931012541055679,
        0.07549353688955307,
        0.019320214167237282,
        0.22206774353981018,
        0.12483563274145126,
        0.01737251691520214,
        0.25769108533859253,
        -0.02248627133667469,
        0.015603438019752502,
        -0.11810240149497986,
        0.15640853345394135,
        0.15248121321201324,
        -0.07689305394887924,
        -0.0025153644382953644,
        0.04849446564912796,
        0.30891767144203186,
        -0.0073880525305867195,
        0.1291120946407318,
        0.18406209349632263,
        0.13651211559772491,
        0.07793417572975159,
        -0.0928097814321518,
        0.1304960399866104,
        -0.07854551821947098,
        0.07306128740310669,
        -0.004674659576267004,
        0.0006689353613182902,
        -0.15695643424987793,
        -0.11385025829076767,
        0.06626744568347931,
        -0.022724594920873642,
        0.015919942408800125,
        0.11679737269878387,
        -0.05266428366303444,
        0.024620074778795242,
        -0.03700042515993118,
        -0.21011576056480408,
        0.03758973255753517,
        0.10725226253271103,
        0.07914628833532333,
        0.07567628473043442,
        -0.018797818571329117,
        0.019132578745484352,
        -0.1637173891067505,
        -0.14848072826862335,
        0.016334056854248047,
        0.23390570282936096,
        0.07241349667310715,
        0.2597803771495819,
        0.14486683905124664,
        -0.23763132095336914,
        0.06630364805459976,
        -0.006076254416257143,
        0.17426015436649323,
        -0.2568819522857666,
        0.11100439727306366,
        -0.19163458049297333,
        -0.21459504961967468,
        0.202321395277977,
        -0.0859493762254715,
        -0.11424166709184647,
        -0.006508881226181984,
        -0.06601987779140472,
        -0.39236900210380554,
        -0.06579803675413132,
        -0.025233328342437744,
        0.06279408931732178,
        -0.11484599858522415,
        -0.009441032074391842,
        -0.23445186018943787,
        0.16568602621555328,
        -0.1112903356552124,
        0.1869887113571167,
        -0.10363812744617462,
        0.1350523680448532,
        -0.3021632730960846,
        0.2423597276210785,
        0.038237132132053375,
        0.3673405349254608,
        -0.19650210440158844,
        0.2752174735069275,
        -0.3302249014377594,
        0.05701475962996483,
        -0.3096553683280945,
        0.3349663019180298,
        -0.07276960462331772,
        -0.019918331876397133,
        -0.22544614970684052,
        0.03108394145965576,
        -0.11555008590221405,
        -0.19130367040634155,
        -0.0070367190055549145,
        -0.28191232681274414,
        0.029362253844738007,
        0.03998780995607376,
        -0.21588753163814545,
        -0.15112349390983582,
        0.12694327533245087,
        0.25070875883102417,
        0.26470428705215454,
        0.007250162307173014,
        -0.1558498591184616,
        -0.30556216835975647,
        -0.035524364560842514,
        0.08243378251791,
        0.11897595971822739,
        0.2982890009880066,
        0.023958658799529076,
        -0.0019321419531479478,
        -0.024924181401729584,
        0.16611257195472717,
        0.05608581751585007,
        0.21416088938713074,
        0.020347345620393753,
        0.15587382018566132,
        -0.11046955734491348,
        0.059782352298498154,
        -0.015518850646913052,
        0.13238836824893951,
        -0.06599406152963638,
        -0.018082721158862114,
        -0.05812167748808861,
        -0.053011924028396606,
        -0.1319453865289688,
        0.2806731164455414,
        -0.046802110970020294,
        0.13571113348007202,
        -0.30511027574539185,
        0.009191802702844143,
        -0.11301557719707489,
        0.11195924133062363,
        -0.2831343710422516,
        0.19088983535766602,
        -0.06860814243555069,
        -0.035971131175756454,
        0.14765295386314392,
        0.23348870873451233,
        0.0017221815651282668,
        -0.04237813875079155,
        0.06336306780576706,
        -0.1212911605834961,
        -0.06989984959363937,
        0.20314517617225647,
        0.0545651875436306,
        -0.08098839968442917,
        -0.04829762130975723,
        0.4040376842021942,
        -0.08122379332780838,
        0.0887642502784729,
        -0.19282805919647217,
        0.19523371756076813,
        0.12657354772090912,
        -0.14698387682437897,
        0.047571100294589996,
        -0.13763393461704254,
        -0.05628630518913269,
        0.15975363552570343,
        -0.08583662658929825,
        0.14032940566539764,
        0.06504186987876892,
        -0.012174094095826149,
        0.01834294945001602,
        -0.1052953228354454,
        0.11372970044612885,
        -0.04063611477613449,
        0.060294196009635925,
        0.07083027809858322,
        0.03166389837861061,
        -0.015941303223371506,
        0.1826115846633911,
        -0.12237998843193054,
        0.1301736980676651,
        -0.09783278405666351,
        0.0871710553765297,
        -0.13184113800525665,
        0.1255369931459427,
        -0.291602224111557,
        0.08634760230779648,
        0.07321859151124954,
        0.27025601267814636,
        -0.09894368052482605,
        -0.21503211557865143,
        -0.2314646691083908,
        -0.05677112191915512,
        -0.1823592483997345,
        -0.23825611174106598,
        0.0426577664911747,
        -0.12365752458572388,
        0.3868217468261719,
        -0.21907612681388855,
        -0.057401396334171295,
        -0.005861436948180199,
        0.15503567457199097,
        -0.038934238255023956,
        0.06469633430242538,
        0.19763949513435364,
        -0.0891936793923378,
        -0.2822074294090271,
        0.1764352172613144,
        -0.12285982817411423,
        -0.07190199196338654,
        0.07217160612344742,
        0.028810620307922363,
        -0.2064860612154007,
        -0.042180851101875305,
        -0.10803249478340149,
        -0.32537397742271423,
        0.15058107674121857,
        -0.19043898582458496,
        0.18877537548542023,
        -0.020369963720440865,
        0.08572349697351456,
        -0.15102356672286987,
        0.19289003312587738,
        0.15410704910755157,
        0.14064234495162964,
        -0.01853342168033123,
        0.14093336462974548,
        -0.1626899242401123,
        0.0972694382071495,
        0.11044282466173172,
        0.13970915973186493,
        -0.23220525681972504,
        -0.0206082072108984,
        -0.1082165464758873,
        0.06383086740970612,
        -0.09896808117628098,
        0.5154840350151062,
        -0.18064618110656738,
        -0.24828483164310455,
        -0.10619612038135529,
        0.05968237295746803,
        -0.01014953013509512,
        -0.04110785573720932,
        0.02566501870751381,
        0.02072540484368801,
        0.05361068993806839,
        0.23141416907310486,
        -0.19746924936771393,
        -0.2602766752243042,
        -0.21015851199626923,
        -0.08293183147907257,
        0.11941692233085632,
        -0.05976777523756027,
        0.03562957048416138,
        0.04349282756447792,
        0.02188761532306671,
        -0.21695975959300995,
        0.003294606227427721,
        -0.1208859235048294,
        0.19734078645706177,
        0.09151124209165573,
        -0.05515352264046669,
        0.07641252875328064,
        0.031209122389554977,
        0.08250998705625534,
        -0.2746947109699249,
        -0.1354026347398758,
        0.29864978790283203,
        -0.10043559223413467,
        -0.007746892049908638,
        -0.27005836367607117,
        0.17039670050144196,
        0.036322951316833496,
        0.24540787935256958,
        0.051926445215940475,
        0.18656687438488007,
        -0.26208439469337463,
        -0.027147438377141953,
        -0.20879250764846802,
        0.14866942167282104,
        0.06565939635038376,
        -0.0047785076312720776,
        -0.029188036918640137,
        -0.14219921827316284,
        0.038277603685855865,
        -0.26178035140037537,
        0.49670812487602234,
        -0.055403850972652435,
        -0.2789126932621002,
        0.03538903594017029,
        0.18276038765907288,
        -0.10585521906614304,
        -0.027341583743691444,
        0.16593825817108154,
        -0.18929633498191833,
        0.10603148490190506,
        -0.16885316371917725,
        0.017263196408748627,
        -0.08227609843015671,
        -0.18197254836559296,
        0.049297355115413666,
        -0.02966819517314434,
        0.155511736869812,
        0.06319819390773773,
        -0.2695242762565613,
        0.20275288820266724,
        0.11483845114707947,
        -0.19530333578586578,
        0.029772605746984482,
        0.024041401222348213,
        -0.13120819628238678,
        -0.040214795619249344,
        -0.038365624845027924,
        -0.2025069296360016,
        -0.2344389110803604,
        -0.11858462542295456,
        0.4469817280769348,
        0.049310244619846344,
        -0.1036558523774147,
        -0.23450952768325806,
        -0.23353204131126404,
        -0.1058577299118042,
        0.3489505648612976,
        0.0818760097026825,
        0.10426588356494904,
        -0.12725244462490082,
        -0.1313677877187729,
        0.004561007022857666,
        0.12009242922067642,
        0.2685878872871399,
        0.1814536154270172,
        -0.29836156964302063,
        0.04202049970626831,
        -0.2191353291273117,
        0.21682536602020264,
        0.17259447276592255,
        -0.07425650954246521,
        -0.08545954525470734,
        0.09721415489912033,
        0.018577011302113533,
        -0.2391509860754013,
        0.018350189551711082,
        -0.01551014743745327,
        -0.024546610191464424,
        -0.10429161787033081,
        -0.012068099342286587,
        -0.08607181161642075,
        0.08293264359235764,
        -0.09105727821588516,
        0.15661531686782837,
        -0.03638897091150284,
        0.029155826196074486,
        -0.018235700204968452,
        0.07340729981660843,
        0.04024441912770271,
        0.08561725169420242,
        -0.09948209673166275,
        -0.004884230438619852,
        -0.03279132768511772,
        -0.1033121719956398,
        -0.0632794201374054,
        0.3080954849720001,
        -0.025754813104867935,
        -0.047733232378959656,
        -0.06731157749891281,
        -0.049668338149785995,
        0.11342626065015793,
        -0.01155677530914545,
        0.18682709336280823,
        0.02419050596654415,
        -0.024347549304366112,
        6.619055784540251e-05,
        -0.027280276641249657,
        0.0529601089656353,
        0.1204892247915268,
        -0.10068351775407791,
        0.07280398160219193,
        -0.09496237337589264,
        0.011671462096273899,
        -0.0419580414891243,
        0.03501750901341438,
        0.16734275221824646,
        -0.16441644728183746,
        -0.19837422668933868,
        0.023466771468520164,
        0.0189453586935997,
        0.08382207155227661,
        0.1907411515712738,
        -0.07740426808595657,
        0.15953798592090607,
        -0.09541554749011993,
        -0.13108320534229279,
        -0.21935394406318665,
        -0.10053665190935135,
        0.09845102578401566,
        -0.15603846311569214,
        -0.15312612056732178,
        -0.2727217972278595,
        -0.03151800110936165,
        0.23221884667873383,
        -0.12870748341083527,
        0.03187340870499611,
        0.05516476184129715,
        -0.03797085955739021,
        0.010426279157400131,
        -0.06835165619850159,
        -0.1304001808166504,
        -0.03372751921415329,
        0.017703162506222725,
        -0.1288185566663742,
        0.06511777639389038,
        -0.05149928107857704,
        0.03105933591723442,
        0.04839460924267769,
        0.16529816389083862,
        0.11664991825819016,
        -0.01206840481609106,
        0.02175997756421566,
        0.08022388070821762,
        0.10935994982719421,
        -0.07763992249965668,
        -0.1225380152463913,
        -0.1057102233171463,
        -0.14824853837490082,
        0.22593368589878082,
        0.039899829775094986,
        0.11209996044635773,
        -0.007621026132255793,
        0.2545989453792572,
        -0.0405082106590271,
        0.07829461991786957,
        0.10390663146972656,
        0.029925145208835602,
        -0.10511098802089691,
        0.003756933147087693,
        -0.007175263017416,
        -0.14789491891860962,
        0.11176790297031403,
        0.1578303575515747,
        -0.21410204470157623,
        0.07592177391052246,
        0.019446643069386482,
        0.08828511834144592,
        0.03325461968779564,
        -0.07485343515872955,
        -0.05093740299344063,
        0.03857918083667755,
        -0.047221943736076355,
        0.03803402557969093,
        -0.05709148198366165,
        0.23797321319580078,
        0.014406937174499035,
        0.060462575405836105,
        0.33453136682510376,
        -0.061050865799188614,
        0.06798895448446274,
        -0.12467748671770096,
        0.03312297165393829,
        0.05485551431775093,
        -0.31614264845848083,
        -0.030480099841952324,
        -0.04173263907432556,
        0.15154969692230225,
        -0.2619108557701111,
        0.1561560481786728,
        -0.16513781249523163,
        -0.1029626801609993,
        -0.1900251805782318,
        0.0037630123551934958,
        -0.06976889818906784,
        -0.026198754087090492,
        0.21250484883785248,
        0.22867009043693542,
        -0.10990723967552185,
        0.10676106810569763,
        -0.08400087058544159,
        0.006047951988875866,
        0.4095068573951721,
        -0.009658345952630043,
        -0.1987333446741104,
        -0.03898746520280838,
        0.04919292405247688,
        -0.04441065713763237,
        0.157683864235878,
        -0.16720490157604218,
        0.1866215169429779,
        -0.1273442506790161,
        -0.25903528928756714,
        0.1590893715620041,
        0.21673424541950226,
        0.27527308464050293,
        0.13472209870815277,
        0.14122691750526428,
        0.03536247834563255,
        0.18654829263687134,
        -0.22369089722633362,
        0.026274310424923897,
        0.04811592400074005,
        0.11857488751411438,
        -0.023205295205116272,
        -0.10168935358524323,
        0.1341104954481125,
        0.07321615517139435,
        0.1834602952003479,
        0.13634496927261353,
        0.10993926972150803,
        -0.15864098072052002,
        -0.5308588147163391,
        0.5673767328262329,
        0.28355348110198975,
        -0.7335336208343506,
        0.49437832832336426,
        -0.8488510847091675,
        -0.258464515209198,
        -0.413147896528244,
        0.6807731986045837,
        -0.7156757116317749,
        -0.2824791669845581,
        -1.0411819219589233,
        0.3532601296901703,
        -0.8417613506317139,
        0.4707476496696472,
        -0.770401656627655,
        -0.12373461574316025,
        -0.046415988355875015,
        -0.15222758054733276,
        0.16116933524608612,
        0.015751086175441742,
        -0.014570157043635845,
        -0.27464231848716736,
        -0.41547781229019165,
        0.021404335275292397,
        -0.03454989194869995,
        0.19106604158878326,
        0.2792764902114868,
        0.2571033835411072,
        0.03717897832393646,
        -0.3406452238559723,
        0.02465585060417652,
        0.11740822345018387,
        -0.18038536608219147,
        -0.15088880062103271,
        0.11523821204900742,
        -0.29732486605644226,
        0.24213004112243652,
        -0.0853198990225792,
        -0.13953086733818054,
        0.19477097690105438,
        -0.14621523022651672,
        0.03711989149451256,
        0.09618449211120605,
        0.10734070092439651,
        0.2703304588794708,
        0.060420650988817215,
        0.21263255178928375,
        -0.037189189344644547,
        -0.17446191608905792,
        -0.10684360563755035,
        0.2222958505153656,
        -0.003526133019477129,
        0.33719584345817566,
        -0.0466146245598793,
        -0.05232628062367439,
        0.017392849549651146,
        0.09439802169799805,
        -0.3493168354034424,
        -0.565619707107544,
        0.12731420993804932,
        0.19916191697120667,
        0.11440631747245789,
        0.05499858409166336,
        0.15366606414318085,
        0.10842132568359375,
        -0.3205067217350006,
        -0.2002221643924713,
        -0.29472842812538147,
        0.05951318517327309,
        -0.14501871168613434,
        -0.4016021490097046,
        0.018061088398098946,
        0.19842883944511414,
        0.09389039874076843,
        0.32730191946029663,
        0.1043434590101242,
        -0.07753992080688477,
        -0.13460759818553925,
        0.112960085272789,
        0.3344533145427704,
        -0.021476145833730698,
        0.09699644893407822,
        0.2476099580526352,
        0.645313560962677,
        -0.5187406539916992,
        0.21152043342590332,
        0.8900955319404602,
        0.33545172214508057,
        -0.6964040398597717,
        -0.3673548102378845,
        0.12361817806959152,
        -0.26896756887435913,
        -0.7520817518234253,
        0.05542707070708275,
        -0.6026498079299927,
        -0.20878903567790985,
        -0.13636434078216553,
        -0.15329743921756744,
        -0.2922629415988922,
        0.13486449420452118,
        -0.5111969709396362,
        -0.011748109012842178,
        0.1176021546125412,
        0.1442040652036667,
        0.21002145111560822,
        -0.003523456398397684,
        -0.0840512290596962,
        -0.3692989945411682,
        -0.24123385548591614,
        0.023720499128103256,
        -0.003209051676094532,
        0.21523870527744293,
        -0.18380723893642426,
        -0.03527356684207916,
        -0.2770141661167145,
        -0.061724767088890076,
        0.337460458278656,
        -0.4081798493862152,
        -0.2900473177433014,
        0.20520900189876556,
        -0.030749265104532242,
        -0.3193032145500183,
        0.12564800679683685,
        0.11771804094314575,
        0.171279177069664,
        -0.22934266924858093,
        0.35448452830314636,
        0.026586255058646202,
        0.10069937258958817,
        0.12289406359195709,
        0.08209360390901566,
        0.256747305393219,
        -0.2164272964000702,
        -0.06908521801233292,
        0.5173565149307251,
        -0.15031561255455017,
        0.26500409841537476,
        -0.18538115918636322,
        0.012097984552383423,
        -0.1773519068956375,
        0.03610403090715408,
        0.25802847743034363,
        -0.03666461259126663,
        -0.0798555463552475,
        0.20930209755897522,
        -0.23570674657821655,
        -0.2558855414390564,
        -0.28139883279800415,
        -0.1808508187532425,
        -0.030221670866012573,
        -0.25981342792510986,
        -0.032669566571712494,
        0.04131921008229256,
        0.1462162882089615,
        0.21997278928756714,
        -0.03466081619262695,
        0.2131521850824356,
        -0.1141001433134079,
        0.27664583921432495,
        -0.41564512252807617,
        0.09223630279302597,
        0.2957655191421509,
        0.19752086699008942,
        0.4355280101299286,
        0.02578923851251602,
        0.35833752155303955,
        0.21903854608535767,
        -0.31388771533966064,
        -0.0826478898525238,
        0.16278517246246338,
        0.08508394658565521,
        0.18168698251247406,
        -0.08343713730573654,
        0.5195862054824829,
        -0.35537901520729065,
        0.03431130573153496,
        -0.1271195113658905,
        -0.33468523621559143,
        0.12275184690952301,
        -0.1414513736963272,
        0.06992374360561371,
        -0.23896025121212006,
        -0.2576184570789337,
        0.2198692262172699,
        0.2783620357513428,
        -0.23002533614635468,
        -0.10178777575492859,
        0.1337469220161438,
        0.28426986932754517,
        -0.16937310993671417,
        0.2899077236652374,
        0.13691586256027222,
        0.06877489387989044,
        -0.3424014449119568,
        0.08245544135570526,
        -0.27978429198265076,
        -0.06874881684780121,
        -0.006932214833796024,
        0.17523907124996185,
        -0.1245599091053009,
        0.1434866040945053,
        0.1953132301568985,
        -0.14645355939865112,
        -0.012517202645540237,
        -0.031247619539499283,
        -0.027275381609797478,
        -0.06376592814922333,
        -0.08204635977745056,
        -0.34346404671669006,
        -0.25458648800849915,
        0.31079068779945374,
        0.015531128272414207,
        0.1363251656293869,
        -0.11759508401155472,
        -0.08053849637508392,
        -0.14143721759319305,
        -0.16819685697555542,
        -0.368376761674881,
        -0.26478493213653564,
        0.22801771759986877,
        -0.19711069762706757,
        -0.054709821939468384,
        0.1651354283094406,
        0.12278923392295837,
        0.07316207140684128,
        -0.2532637119293213,
        0.2870768904685974,
        -0.24584493041038513,
        0.08604248613119125,
        0.020681027323007584,
        -0.12245767563581467,
        0.13503092527389526,
        0.12551458179950714,
        -0.12294982373714447,
        0.0723433718085289,
        0.22385342419147491,
        0.1326206922531128,
        0.06838133931159973,
        -0.07964961230754852,
        0.18581458926200867,
        0.09166751056909561,
        -0.2846992611885071,
        -0.19608382880687714,
        -0.45018115639686584,
        -0.3035881221294403,
        -0.16045059263706207,
        -0.09099849313497543,
        0.19470849633216858,
        0.23734836280345917,
        -0.21326562762260437,
        -0.0699300542473793,
        -0.2737838327884674,
        0.16419000923633575,
        -0.15082497894763947,
        0.39465340971946716,
        0.3921414911746979,
        -0.26251736283302307,
        -0.5158320665359497,
        -0.18297071754932404,
        -0.6795375943183899,
        -0.1536022573709488,
        -0.39693716168403625,
        0.0266299806535244,
        0.33034735918045044,
        0.0034503350034356117,
        0.24582919478416443,
        0.18046672642230988,
        -0.20971952378749847,
        0.3111935555934906,
        -0.7135122418403625,
        0.004049102775752544,
        -0.09901010245084763,
        -0.028092458844184875,
        -0.030404919758439064,
        -0.07615739852190018,
        -0.17008076608181,
        -0.12749271094799042,
        0.1513117551803589,
        0.1367522031068802,
        0.2733491361141205,
        -0.06713064014911652,
        0.08891583979129791,
        -0.2830837070941925,
        0.05446111783385277,
        -0.08330263197422028,
        -0.0857013389468193,
        -0.11359380930662155,
        0.5241866111755371,
        0.11948785185813904,
        -0.06456215679645538,
        -0.026669764891266823,
        -0.12272822856903076,
        0.04528747871518135,
        -0.07766802608966827,
        -0.050767604261636734,
        0.040840040892362595,
        0.11680009961128235,
        -0.034457020461559296,
        -0.07424294203519821,
        0.06479499489068985,
        0.05040813609957695,
        0.24921047687530518,
        0.21889537572860718,
        0.13147878646850586,
        -0.06143799051642418,
        -0.1469237059354782,
        -0.06400097161531448,
        0.06431428343057632,
        0.04046700894832611,
        0.0834197849035263,
        -0.18377074599266052,
        -0.20200888812541962,
        0.02623298019170761,
        -0.11010417342185974,
        0.09826908260583878,
        0.06117706373333931,
        -0.11288172751665115,
        -0.12159901112318039,
        0.032501038163900375,
        0.03884957358241081,
        -0.06511213630437851,
        0.1324712634086609,
        0.08274086564779282,
        -0.09573903679847717,
        -0.08949265629053116,
        0.06613766402006149,
        -0.11413010209798813,
        0.10827676206827164,
        0.008599413558840752,
        0.17503058910369873,
        0.14595818519592285,
        -0.2247481346130371,
        0.11859466135501862,
        -0.11848635226488113,
        -0.2732197940349579,
        -0.09994658827781677,
        0.26195839047431946,
        0.15780463814735413,
        -0.02718503214418888,
        0.12991438806056976,
        -0.1952935755252838,
        0.22938930988311768,
        0.13301990926265717,
        0.08208009600639343,
        -0.04852176085114479,
        0.015756122767925262,
        0.025730106979608536,
        0.2876562178134918,
        -0.14987459778785706,
        -0.20225800573825836,
        -0.08322859555482864,
        0.010791917331516743,
        -0.04373481869697571,
        0.1660103052854538,
        -0.06161533668637276,
        0.11121255159378052,
        -0.12057366222143173,
        -0.11881089955568314,
        0.023549392819404602,
        0.008442137390375137,
        0.011801477521657944,
        -0.1516777127981186,
        0.09031235426664352,
        0.12932364642620087,
        0.17320677638053894,
        0.19777607917785645,
        0.07588453590869904,
        -0.07461473345756531,
        -0.3030802309513092,
        -0.2653733789920807,
        -0.03671017289161682,
        0.05704903230071068,
        0.10159043222665787,
        -0.1347724199295044,
        0.001285959267988801,
        -0.005047812592238188,
        -0.19581176340579987,
        -0.10149278491735458,
        0.16276834905147552,
        0.3161197900772095,
        -0.10427772253751755,
        -0.06206527724862099,
        0.1758512258529663,
        -0.01250383909791708,
        -0.24534642696380615,
        -0.26256585121154785,
        0.21200135350227356,
        0.03362693637609482,
        -0.237695574760437,
        0.25640031695365906,
        0.06480887532234192,
        -0.03789615258574486,
        -0.12402879446744919,
        -0.02814342826604843,
        -0.08034298568964005,
        0.000595190969761461,
        -0.3166390359401703,
        0.1672695130109787,
        -0.06309087574481964,
        0.021188220009207726,
        0.1567622274160385,
        0.09930454194545746,
        0.12956373393535614,
        -0.10653999447822571,
        -0.21368609368801117,
        0.06069932505488396,
        0.19750291109085083,
        0.22820641100406647,
        0.07227379083633423,
        -0.031522370874881744,
        -0.12453500926494598,
        0.03768588602542877,
        0.041907258331775665,
        -0.0020676886197179556,
        0.08657052367925644,
        -0.20926432311534882,
        -0.15343628823757172,
        -0.008542653173208237,
        0.1728821098804474,
        0.19932472705841064,
        0.021146297454833984,
        -0.10707414895296097,
        0.11592445522546768,
        0.05049024149775505,
        -0.08459794521331787,
        0.012213597074151039,
        -0.30520427227020264,
        -0.004771046340465546,
        -0.07494565099477768,
        -0.06368833780288696,
        0.33214467763900757,
        -0.09837577491998672,
        -0.03438335284590721,
        0.11718142777681351,
        -0.027220498770475388,
        0.1440064013004303,
        -0.08871722966432571,
        0.15824542939662933,
        0.1660803109407425,
        -0.25239279866218567,
        0.1588703989982605,
        0.1400415450334549,
        -0.2009354531764984,
        0.047399893403053284,
        -0.3012588322162628,
        0.016031168401241302,
        -0.10341353714466095,
        -0.07719305157661438,
        0.27726441621780396,
        0.19975943863391876,
        0.04814714193344116,
        -0.22477898001670837,
        -0.09894885122776031,
        -0.0251613762229681,
        0.2566080689430237,
        0.07579760253429413,
        0.09356791526079178,
        -0.1293465495109558,
        -0.14240005612373352,
        -0.10439109802246094,
        0.06900158524513245,
        0.0950612798333168,
        0.08349549770355225,
        -0.17052559554576874,
        0.11997725069522858,
        0.0040540918707847595,
        0.0044853053987026215,
        0.11482156068086624,
        -0.032173048704862595,
        -0.1664499044418335,
        0.2060910165309906,
        0.016521243378520012,
        -0.05232055112719536,
        -0.09077759087085724,
        -0.09053222835063934,
        0.04310297593474388,
        -0.16680818796157837,
        0.05087048187851906,
        -0.1822187900543213,
        0.08211246877908707,
        -0.08529713749885559,
        -0.07672210037708282,
        -0.13300806283950806,
        0.06027616932988167,
        0.2069586217403412,
        -0.0928623154759407,
        0.039830390363931656,
        0.09379802644252777,
        -0.0563003346323967,
        0.08647684752941132,
        0.004576430190354586,
        -0.17789238691329956,
        0.07351700216531754,
        -0.03944125026464462,
        0.1265488862991333,
        0.1286744624376297,
        -0.166331484913826,
        -0.24626123905181885,
        -0.1374533623456955,
        0.23069775104522705,
        0.08893492817878723,
        -0.054143670946359634,
        -0.10750369727611542,
        -0.09056206047534943,
        -0.1764167994260788,
        0.24150823056697845,
        0.18303681910037994,
        0.14467935264110565,
        -0.1274588704109192,
        -0.17497563362121582,
        -0.086392343044281,
        0.22580486536026,
        0.08112223446369171,
        0.07297225296497345,
        -0.2806149125099182,
        -0.19217325747013092,
        0.04821431636810303,
        0.14889204502105713,
        -0.17375744879245758,
        -0.13835030794143677,
        0.2617187201976776,
        0.06293366849422455,
        -0.15236766636371613,
        0.1447937935590744,
        0.07830660790205002,
        -0.2381473183631897,
        0.011521926149725914,
        0.11183444410562515,
        0.06357185542583466,
        -0.01926884986460209,
        0.14191852509975433,
        0.0037645541597157717,
        -0.12542301416397095,
        0.04937678575515747,
        -0.04900220036506653,
        -0.1875673532485962,
        0.03739979490637779,
        -0.043000996112823486,
        0.017741182819008827,
        -0.027449630200862885,
        -0.19009122252464294,
        0.0870429053902626,
        -0.214824840426445,
        -0.11063641309738159,
        0.18743911385536194,
        0.008558643981814384,
        0.17217542231082916,
        -0.05403464287519455,
        -0.1815727800130844,
        -0.16103367507457733,
        0.2111370712518692,
        0.12592561542987823,
        -0.0014545359881594777,
        -0.26672881841659546,
        -0.12029711157083511,
        0.01957726664841175,
        0.17772695422172546,
        0.1053338274359703,
        0.05971653759479523,
        -0.14668042957782745,
        0.049340080469846725,
        0.20861183106899261,
        0.2216292768716812,
        0.2165757715702057,
        -0.02159859426319599,
        -0.18250302970409393,
        0.030367625877261162,
        0.06384433060884476,
        -0.10402286797761917,
        -0.12472185492515564,
        -0.23643764853477478,
        -0.049581266939640045,
        0.13305789232254028,
        -0.07576262950897217,
        -0.01795184053480625,
        -0.25385764241218567,
        -0.22601521015167236,
        0.27348875999450684,
        0.14390644431114197,
        -0.1024947240948677,
        -0.06884264945983887,
        0.19815045595169067,
        -0.15549449622631073,
        -0.18833762407302856,
        -0.09726246446371078,
        -0.08322002738714218,
        0.07098385691642761,
        -0.16110235452651978,
        0.33938610553741455,
        -0.05938019976019859,
        -0.22259734570980072,
        0.15389534831047058,
        0.032964590936899185,
        0.112958624958992,
        -0.05357760563492775,
        -0.04542034864425659,
        0.0142792584374547,
        0.1388484239578247,
        -0.1900407075881958,
        -0.07277673482894897,
        -0.098546601831913,
        0.2228710800409317,
        -0.12411528825759888,
        0.1197887435555458,
        -0.14773352444171906,
        -0.023958047851920128,
        0.02811935544013977,
        -0.05171690136194229,
        -0.3021608889102936,
        -0.33282676339149475,
        -0.2748126983642578,
        0.022288676351308823,
        -0.11330697685480118,
        0.05537739396095276,
        0.1235385537147522,
        -0.11486503481864929,
        0.0629560798406601,
        -0.3859860301017761,
        0.05721428990364075,
        0.05200561508536339,
        0.06194449961185455,
        -0.029528604820370674,
        0.14457671344280243,
        0.007398918271064758,
        0.41936051845550537,
        -0.28181222081184387,
        -0.0061795711517333984,
        -0.02467852644622326,
        0.1547955423593521,
        -0.15480123460292816,
        0.06611573696136475,
        0.03397275134921074,
        -0.19218340516090393,
        -0.09132838249206543,
        0.2515352964401245,
        -0.1437695026397705,
        0.324512243270874,
        -0.26432281732559204,
        0.09118174016475677,
        0.13267596065998077,
        -0.0799008160829544,
        -0.09766381978988647,
        -0.04156690463423729,
        0.1855781376361847,
        -0.018510332331061363,
        0.1140815019607544,
        -0.15334363281726837,
        -0.09041976183652878,
        -0.033969901502132416,
        0.030402470380067825,
        -0.029743939638137817,
        0.12654970586299896,
        -0.295417845249176,
        0.016872800886631012,
        -0.18781916797161102,
        0.10873265564441681,
        0.04450857639312744,
        -0.004562913440167904,
        -0.09102794528007507,
        -0.014795660972595215,
        0.05564960092306137,
        0.2385842651128769,
        -0.1808813512325287,
        -0.13499510288238525,
        0.1431604027748108,
        0.08789511770009995,
        -0.10136400163173676,
        0.08942076563835144,
        -0.08629727363586426,
        -0.2187671959400177,
        0.405426561832428,
        0.05948944389820099,
        0.07208410650491714,
        0.6912239193916321,
        0.04742472618818283,
        -0.12092716991901398,
        0.24283666908740997,
        -0.1177963986992836,
        -0.051601115614175797,
        0.04196259379386902,
        -0.06348912417888641,
        -0.06458428502082825,
        0.3858618140220642,
        0.016660727560520172,
        0.10005288571119308,
        -0.1971307247877121,
        -0.003509445348754525,
        0.007602132856845856,
        -0.29047396779060364,
        0.018954340368509293,
        -0.15400633215904236,
        0.16092278063297272,
        0.11082771420478821,
        -0.018887342885136604,
        -0.2294393628835678,
        0.0024294424802064896,
        -0.2021695077419281,
        0.350193053483963,
        0.0673285573720932,
        0.1167021244764328,
        -0.19319330155849457,
        -0.04254082590341568,
        -0.0855540856719017,
        0.12085485458374023,
        0.12748856842517853,
        -0.02411399781703949,
        -0.1645435094833374,
        -0.2103496491909027,
        0.03554637357592583,
        0.13823062181472778,
        -0.008708496578037739,
        -0.1249198317527771,
        0.3496790826320648,
        0.1271885633468628,
        0.33197665214538574,
        0.13750773668289185,
        0.02434428595006466,
        0.11530778557062149,
        0.641142725944519,
        0.03482459858059883,
        -0.16795381903648376,
        0.013780537992715836,
        -0.05974913761019707,
        0.18177714943885803,
        0.15885843336582184,
        -0.16035817563533783,
        6.569845572812483e-05,
        0.23274075984954834,
        -0.10096080601215363,
        0.19011248648166656,
        -0.18627209961414337,
        -0.0667765662074089,
        -0.7158406376838684,
        0.26983797550201416,
        0.08077026903629303,
        -0.008648417890071869,
        -0.20953574776649475,
        -0.31858110427856445,
        0.049265455454587936,
        -0.1555296927690506,
        0.20299462974071503,
        -0.18822795152664185,
        -0.15454548597335815,
        -0.15223877131938934,
        0.07359577715396881,
        -0.07438124716281891,
        0.24717476963996887,
        -0.18464413285255432,
        -0.018253155052661896,
        -0.09566758573055267,
        0.07296282798051834,
        0.047020554542541504,
        0.14742136001586914,
        0.3575611412525177,
        -0.17856228351593018,
        -0.20728681981563568,
        -0.030008867383003235,
        0.08510082960128784,
        -0.1876881867647171,
        -0.06979454308748245,
        0.1208169236779213,
        0.0012772248592227697,
        0.2629089653491974,
        -0.39736208319664,
        -0.027935635298490524,
        0.37806621193885803,
        -0.44434553384780884,
        0.006530645303428173,
        0.0749092623591423,
        -0.012384060770273209,
        0.06335961818695068,
        0.10796350240707397,
        -0.0021756747737526894,
        0.13666461408138275,
        0.11227033287286758,
        -0.02993086725473404,
        0.15813693404197693,
        0.1776411235332489,
        0.0034918426536023617,
        0.108268141746521,
        -0.2571723461151123,
        0.1523892879486084,
        -0.0712948590517044,
        -0.030129926279187202,
        0.11165498197078705,
        0.14180126786231995,
        0.18288716673851013,
        -0.22416308522224426,
        -0.030947396531701088,
        0.03950829058885574,
        0.18541878461837769,
        0.043665096163749695,
        0.13120770454406738,
        -0.18555958569049835,
        -0.0932542160153389,
        -0.030910206958651543,
        0.24881143867969513,
        0.1306590884923935,
        0.04291587322950363,
        -0.11167627573013306,
        0.0651075690984726,
        -0.09645234048366547,
        0.1697394698858261,
        0.16669532656669617,
        0.03207003325223923,
        -0.16609624028205872,
        0.17993327975273132,
        -0.09866967797279358,
        -0.24780330061912537,
        -0.09683798998594284,
        0.08267910033464432,
        -0.13877439498901367,
        0.01628311164677143,
        -0.07505010813474655,
        -0.16103334724903107,
        0.04604674130678177,
        0.051687389612197876,
        0.9539441466331482,
        -0.011617573909461498,
        -0.09514393657445908,
        0.11066779494285583,
        -0.0660674199461937,
        -0.12699371576309204,
        0.0716104581952095,
        -0.08768434822559357,
        0.002343646017834544,
        0.14805777370929718,
        -0.15395236015319824,
        0.07131411135196686,
        0.1060144230723381,
        -0.056915439665317535,
        -0.003939943853765726,
        -0.0441819466650486,
        -0.04362132400274277,
        0.0812595784664154,
        0.1734723150730133,
        0.16766507923603058,
        -0.007087775506079197,
        -0.20369073748588562,
        -0.15735778212547302,
        -0.0817202553153038,
        -0.15767376124858856,
        -0.06157359853386879,
        -0.027262190356850624,
        -0.1163855493068695,
        -0.07849246263504028,
        -0.11781761795282364,
        -0.02707546204328537,
        0.20711545646190643,
        -0.06551365554332733,
        -0.18745340406894684,
        -0.015172066166996956,
        -0.007281285710632801,
        0.04853103682398796,
        -0.09042426943778992,
        -0.15450483560562134,
        0.1995328813791275,
        0.04710448533296585,
        0.03811970725655556,
        -0.00033931832876987755,
        0.15615864098072052,
        0.02663044072687626,
        -0.2669738829135895,
        -0.3188479542732239,
        -0.4218086302280426,
        -0.7245288491249084,
        0.06757846474647522,
        0.050483547151088715,
        -0.17627452313899994,
        -0.015279999934136868,
        -0.10630463808774948,
        0.007733839564025402,
        -0.1348656564950943,
        -0.014535127207636833,
        -0.27062004804611206,
        0.18183539807796478,
        0.1562354564666748,
        0.2591809034347534,
        -0.028550585731863976,
        -0.08140294253826141,
        0.05946356803178787,
        -0.11886696517467499,
        0.13031242787837982,
        -0.21588081121444702,
        0.07463683187961578,
        -0.14255943894386292,
        0.07480093836784363,
        0.04134882614016533,
        -0.03884928300976753,
        -0.049329422414302826,
        -0.09929025173187256,
        0.014809763990342617,
        0.09648115932941437,
        0.12576201558113098,
        0.19543476402759552,
        -0.05125448480248451,
        -0.20728327333927155,
        -0.06331199407577515,
        0.16616831719875336,
        -0.05114949867129326,
        0.07842940092086792,
        -0.15286070108413696,
        0.06346698105335236,
        0.16258779168128967,
        -0.0049804034642875195,
        -0.1791333556175232,
        -0.10518497973680496,
        -0.287079393863678,
        -0.19777309894561768,
        -0.1582363098859787,
        -0.1729273945093155,
        -0.13919873535633087,
        0.08987361937761307,
        0.05078652873635292,
        0.16109129786491394,
        -0.040554292500019073,
        -0.1160503700375557,
        0.18603922426700592,
        0.06499248743057251,
        -0.21365518867969513,
        -0.12110649794340134,
        0.010396876372396946,
        0.057099126279354095,
        0.21825920045375824,
        0.11669708043336868,
        0.34191787242889404,
        -0.1521247774362564,
        -0.11273518204689026,
        0.012309176847338676,
        0.06808488816022873,
        0.0011389842256903648,
        -0.096305251121521,
        -0.039840176701545715,
        -0.0028351014479994774,
        0.034308258444070816,
        0.043385133147239685,
        0.07909025996923447,
        -0.10936832427978516,
        -0.0391547828912735,
        -0.06378617882728577,
        0.27244192361831665,
        0.09070947766304016,
        0.03137338161468506,
        -0.23730196058750153,
        -0.19283916056156158,
        -0.01519740466028452,
        0.002360515994951129,
        0.02510855160653591,
        0.10311544686555862,
        -0.13108062744140625,
        0.1229860931634903,
        0.16541601717472076,
        -0.18613392114639282,
        -0.15188831090927124,
        -0.2467418909072876,
        -0.03858654573559761,
        -0.18623128533363342,
        -0.20752009749412537,
        -0.0947980135679245,
        0.04348461329936981,
        -0.34516119956970215,
        0.028737308457493782,
        0.046767544001340866,
        0.06224548816680908,
        -0.18864805996418,
        0.0726599246263504,
        0.08834709972143173,
        -0.05426730588078499,
        -0.2847333550453186,
        -0.3429397642612457,
        -0.6229721903800964,
        -0.1365886777639389,
        -0.051507703959941864,
        -0.30819594860076904,
        -0.16582387685775757,
        -0.3381918668746948,
        -0.20143507421016693,
        0.01904679648578167,
        0.07497789710760117,
        -0.3468995988368988,
        -0.10622027516365051,
        -0.13366390764713287,
        0.23613089323043823,
        0.41608795523643494,
        0.3198084533214569,
        0.03724278509616852,
        0.03592965006828308,
        -0.13482172787189484,
        0.421513170003891,
        0.005752463825047016,
        0.13374458253383636,
        -0.23882590234279633,
        -0.38969799876213074,
        0.07979214936494827,
        -0.24217155575752258,
        -0.03328487277030945,
        -0.02382110059261322,
        -0.2207719385623932,
        0.15436416864395142,
        0.1889568269252777,
        -0.026011427864432335,
        -0.4146445095539093,
        -0.53928142786026,
        -0.8908814191818237,
        0.23495152592658997,
        0.30662453174591064,
        -0.5327932238578796,
        -0.046268168836832047,
        -0.04970520734786987,
        -0.058064162731170654,
        -0.11374283581972122,
        -0.04065561667084694,
        0.26813048124313354,
        -0.22013744711875916,
        0.009950469247996807,
        0.22146648168563843,
        -0.23800140619277954,
        -0.04406803846359253,
        0.185463085770607,
        0.02429531142115593,
        0.3116551637649536,
        -0.10309908539056778,
        0.24821819365024567,
        0.040363915264606476,
        -0.22425727546215057,
        -0.012872539460659027,
        -0.05614407733082771,
        0.21443231403827667,
        0.18305370211601257,
        0.15025073289871216,
        -0.05591541901230812,
        -0.09582491964101791,
        -0.10602432489395142,
        0.15913750231266022,
        0.022338343784213066,
        0.05754733085632324,
        -0.20692962408065796,
        -0.14429022371768951,
        -0.1961243450641632,
        0.21272805333137512,
        -0.07166309654712677,
        0.11668664216995239,
        0.0075356983579695225,
        -0.2680540978908539,
        0.09240004420280457,
        0.021899722516536713,
        -0.15887649357318878,
        0.0166133064776659,
        0.09591349959373474,
        0.21390408277511597,
        -0.01261118147522211,
        0.005087398458272219,
        -0.09048690646886826,
        -0.14027966558933258,
        0.2875358462333679,
        -0.015904488041996956,
        -0.03144867718219757,
        0.19019903242588043,
        -0.12591364979743958,
        0.04617343097925186,
        0.012768630869686604,
        0.0353715717792511,
        -0.13800550997257233,
        0.14219705760478973,
        0.013492714613676071,
        0.041454508900642395,
        0.011076982133090496,
        -0.061048150062561035,
        0.04165748879313469,
        0.4011843502521515,
        0.03129468485713005,
        -0.19679605960845947,
        -0.5551120638847351,
        0.9157865643501282,
        0.43505117297172546,
        -0.5150482058525085,
        0.20492851734161377,
        0.16693542897701263,
        -0.13346567749977112,
        0.5193014144897461,
        -0.9239941239356995,
        1.0257691144943237,
        0.9830190539360046,
        -0.07003757357597351,
        -0.3790556490421295,
        0.5209196209907532,
        -0.7425031661987305,
        0.1275610625743866,
        -0.1829034388065338,
        -0.10153589397668839,
        -0.4341905415058136,
        0.6979273557662964,
        -0.0046472386457026005,
        0.0068789091892540455,
        0.014454055577516556,
        0.3386942744255066,
        0.23374547064304352,
        0.0004083932435605675,
        0.1807282418012619,
        -0.33302757143974304,
        -0.16309130191802979,
        0.033692020922899246,
        0.37054821848869324,
        0.40751901268959045,
        -0.08706402033567429,
        0.09089167416095734,
        0.2548788785934448,
        0.00801770854741335,
        0.15227670967578888,
        0.2488020360469818,
        -0.3576129078865051,
        -0.46303606033325195,
        0.07590850442647934,
        0.1509101390838623,
        -0.13719046115875244,
        0.2362358421087265,
        0.46305739879608154,
        0.12713834643363953,
        -0.1035454049706459,
        0.19381791353225708,
        -0.38279005885124207,
        0.02218567207455635,
        -0.429060161113739,
        0.6106768846511841,
        -0.3881968557834625,
        -0.025779619812965393,
        -0.3329060971736908,
        -0.14177188277244568,
        -0.06624365597963333,
        -0.16242358088493347,
        0.0616297721862793,
        0.3231504559516907,
        -0.29237106442451477,
        0.2941591739654541,
        0.5729296207427979,
        0.315814346075058,
        -0.08830835670232773,
        0.08139605820178986,
        -0.24296355247497559,
        0.24538400769233704,
        0.023468492552638054,
        -0.026532433927059174,
        0.2985635995864868,
        0.2768338620662689,
        -0.4739774167537689,
        -0.08467470854520798,
        0.29175546765327454,
        0.029299605637788773,
        0.1304011344909668,
        0.23952613770961761,
        0.3519684672355652,
        0.09976668655872345,
        -0.11234782636165619,
        0.26497745513916016,
        0.03894740715622902,
        -0.42887812852859497,
        -0.08343680948019028,
        0.15713904798030853,
        -0.25496965646743774,
        0.2689191699028015,
        0.35074594616889954,
        -0.03537478297948837,
        0.2620696723461151,
        -0.11201385408639908,
        -0.2628839910030365,
        0.08991145342588425,
        -0.47563987970352173,
        -0.12469068914651871,
        -0.10553111881017685,
        0.23337379097938538,
        0.15592364966869354,
        -0.3057030141353607,
        0.14086537063121796,
        0.6584129929542542,
        -0.030722539871931076,
        0.0017435221234336495,
        -0.5293470025062561,
        0.109237901866436,
        0.34775882959365845,
        -0.03893762081861496,
        0.09819592535495758,
        0.31317758560180664,
        -0.1353318691253662,
        0.14004091918468475,
        0.06889651715755463,
        -0.23097442090511322,
        -0.07215973734855652,
        0.6027704477310181,
        -0.23329298198223114,
        -0.08624843508005142,
        -0.16124723851680756,
        -0.16525694727897644,
        0.126982644200325,
        0.03844559192657471,
        -0.242766872048378,
        0.0049966201186180115,
        -0.07936402410268784,
        0.16371281445026398,
        0.45009636878967285,
        0.09430143982172012,
        0.19498564302921295,
        0.07402318716049194,
        0.03449395298957825,
        -0.06100679188966751,
        -0.012666292488574982,
        0.4211953580379486,
        -0.09819269180297852,
        -0.08245434612035751,
        -0.3295464515686035,
        0.2974732518196106,
        0.4135396480560303,
        0.10729715973138809,
        0.34201234579086304,
        -0.037437766790390015,
        -0.29705074429512024,
        -0.1339787393808365,
        0.1978529542684555,
        -0.2659227252006531,
        -0.01927867718040943,
        0.46766993403434753,
        -0.1796078234910965,
        -0.37097373604774475,
        0.20199419558048248,
        -0.08897190541028976,
        0.14970587193965912,
        -0.30584973096847534,
        0.1253250241279602,
        -0.26966363191604614,
        -0.13842983543872833,
        -0.10903145372867584,
        0.4264518916606903,
        0.19373819231987,
        -0.1527448296546936,
        -0.1127425879240036,
        0.25881773233413696,
        0.015359925106167793,
        0.1788303703069687,
        -0.24885450303554535,
        -0.45200008153915405,
        -0.25783827900886536,
        0.07514754682779312,
        0.20076440274715424,
        -0.18796736001968384,
        0.03718454763293266,
        -0.044042523950338364,
        0.44650062918663025,
        -0.28271475434303284,
        0.2573753595352173,
        -0.17260406911373138,
        -0.24312852323055267,
        -0.38546568155288696,
        0.5918362736701965,
        -0.38739439845085144,
        0.08683304488658905,
        -0.01728907786309719,
        0.38700070977211,
        0.1544976532459259,
        -0.40030109882354736,
        -0.0034420944284647703,
        -0.08313098549842834,
        -0.3241558074951172,
        0.052945807576179504,
        0.735220193862915,
        0.01830400712788105,
        0.04549776390194893,
        0.03947438672184944,
        -0.09204817563295364,
        0.22631728649139404,
        0.11895870417356491,
        0.3578277826309204,
        0.16616471111774445,
        -0.011577405966818333,
        -0.4642939567565918,
        -0.23545539379119873,
        0.21286478638648987,
        -0.22150658071041107,
        -0.19243721663951874,
        0.04955461621284485,
        0.374616414308548,
        -0.1648956537246704,
        -0.24725516140460968,
        -0.1499141901731491,
        -0.02785239927470684,
        0.2063651829957962,
        0.031216531991958618,
        -0.170938178896904,
        -0.1401403844356537,
        -0.007491572760045528,
        0.45469504594802856,
        -0.2246483862400055,
        -0.06614407896995544,
        0.1444391906261444,
        0.13204112648963928,
        -0.10264722257852554,
        0.012051167897880077,
        -0.15395355224609375,
        0.1523974984884262,
        -0.3489069640636444,
        -0.24920280277729034,
        0.26929137110710144,
        -0.34096354246139526,
        0.14597900211811066,
        0.1520305722951889,
        0.002340046688914299,
        0.04593619704246521,
        -0.09301618486642838,
        -0.06427266448736191,
        0.05797910690307617,
        0.07779116183519363,
        -0.4409502446651459,
        0.42652973532676697,
        0.00269668223336339,
        0.18725454807281494,
        0.06674068421125412,
        0.4416482150554657,
        -0.7563830018043518,
        0.18376177549362183,
        0.0730474442243576,
        -0.24189066886901855,
        0.10147988051176071,
        0.16797319054603577,
        0.3842698633670807,
        0.24650849401950836,
        -0.22135688364505768,
        -0.03815872594714165,
        -0.013437732122838497,
        -0.9707502126693726,
        0.008318428881466389,
        -0.22942067682743073,
        -0.3260039985179901,
        -0.5017110705375671,
        0.2477111667394638,
        -0.4452420771121979,
        0.11979711800813675,
        -0.19830340147018433,
        0.11496453732252121,
        0.48655393719673157,
        -0.00464659184217453,
        0.648619532585144,
        -0.1091955155134201,
        -0.2367735356092453,
        -0.0733707919716835,
        0.6652444005012512,
        0.004356234800070524,
        -0.01172421220690012,
        0.0037457526195794344,
        0.07622665911912918,
        -0.10352011024951935,
        -0.039639439433813095,
        0.08874279260635376,
        0.004777760710567236,
        -0.028300520032644272,
        -0.18865475058555603,
        0.06900033354759216,
        0.03422217443585396,
        0.112169548869133,
        0.19633349776268005,
        0.0924236997961998,
        -0.06312165409326553,
        0.03908006101846695,
        -0.135486900806427,
        0.02078838273882866,
        0.13096505403518677,
        0.14826451241970062,
        0.06612548232078552,
        0.1426602005958557,
        0.08760404586791992,
        -0.049664538353681564,
        0.016568481922149658,
        0.11610809713602066,
        0.06407029926776886,
        0.03572235628962517,
        -0.12286197394132614,
        0.3492162227630615,
        0.0024064057506620884,
        -0.135925754904747,
        0.16977889835834503,
        0.14280900359153748,
        -0.013993311673402786,
        -0.22097434103488922,
        -0.1723005175590515,
        -0.04222230613231659,
        0.15538212656974792,
        0.03286338970065117,
        -0.005871825385838747,
        -0.2095262110233307,
        -0.057060785591602325,
        -0.03573961928486824,
        0.09352430701255798,
        -0.08690901845693588,
        -0.07878249138593674,
        -0.1998721957206726,
        -0.03177903965115547,
        -0.12436024844646454,
        -0.09224977344274521,
        -0.0381740964949131,
        0.11787085235118866,
        -0.10534901916980743,
        0.08720730990171432,
        0.10798811167478561,
        -0.19848966598510742,
        -0.028940459713339806,
        -0.09140296280384064,
        0.1279272586107254,
        0.08800847828388214,
        -0.007270829752087593,
        0.042524829506874084,
        0.07424137741327286,
        0.39480456709861755,
        -0.03706694766879082,
        0.0663645789027214,
        -0.16840940713882446,
        -0.20426663756370544,
        -0.017350994050502777,
        0.02741914987564087,
        -0.06063352897763252,
        -0.07353676110506058,
        0.27822840213775635,
        -0.15422312915325165,
        -0.1748131513595581,
        -0.25350335240364075,
        0.4606224596500397,
        0.06639879941940308,
        -0.2534095346927643,
        0.02361123263835907,
        -0.1325656920671463,
        0.20669429004192352,
        -0.07701859623193741,
        -0.013112245127558708,
        -0.1782057136297226,
        -0.07799066603183746,
        0.08680491894483566,
        0.36358097195625305,
        -0.10713180899620056,
        -0.03569676727056503,
        0.03518596291542053,
        0.2340913563966751,
        0.0339711457490921,
        0.45263686776161194,
        -0.0637134537100792,
        0.1857634335756302,
        0.10634496808052063,
        -0.2205491065979004,
        -0.09974754601716995,
        0.06056787446141243,
        0.0019179786322638392,
        -0.08393297344446182,
        0.2423436939716339,
        -0.18574963510036469,
        -0.01085792388767004,
        -0.20725460350513458,
        0.13252589106559753,
        0.04903758689761162,
        0.43226340413093567,
        0.0026677052956074476,
        -0.11000411957502365,
        -0.2781686782836914,
        0.08378509432077408,
        0.14934195578098297,
        0.1417900025844574,
        -0.23192644119262695,
        -0.0712001845240593,
        0.004285293165594339,
        -0.06440762430429459,
        0.0541083998978138,
        0.03390752524137497,
        -0.15142562985420227,
        -0.003921599127352238,
        0.043051984161138535,
        0.23616436123847961,
        -0.19741453230381012,
        -0.2268403172492981,
        0.13654737174510956,
        0.09295914322137833,
        0.11605518311262131,
        -0.20330873131752014,
        -0.047574516385793686,
        -0.09096639603376389,
        0.18298232555389404,
        0.02757440134882927,
