{"version":"0.5.4","metadata":{"date":{"year":2025,"month":11,"day":23,"hour":21,"minute":32,"second":26},"loudness":-30.28775978088379,"gain":0.8199418922575862,"name":"[AMP] JCM800-2203-MODIFIED TEST - SM57","modeled_by":"2dor","gear_type":"amp","gear_make":"tz-make","gear_model":"tz-model","tone_type":"overdrive","input_level_dbu":18.995,"output_level_dbu":13.195,"training":{"settings":{"ignore_checks":true},"data":{"latency":{"manual":0,"calibration":{"algorithm_version":1,"delays":[1],"safety_factor":1,"recommended":0,"warnings":{"matches_lookahead":false,"disagreement_too_high":false}}},"checks":{"version":4,"passed":false}},"validation_esr":0.009388925167035595}},"architecture":"WaveNet","config":{"layers":[{"input_size":1,"condition_size":1,"head_size":8,"channels":16,"kernel_size":3,"dilations":[1,2,4,8,16,32,64,128,256,512],"activation":"Tanh","gated":false,"head_bias":false},{"input_size":16,"condition_size":1,"head_size":1,"channels":8,"kernel_size":3,"dilations":[1,2,4,8,16,32,64,128,256,512],"activation":"Tanh","gated":false,"head_bias":true}],"head":null,"head_scale":0.02},"weights":[0.07968543469905853,0.49068936705589294,-0.342474102973938,-0.9268836379051208,-0.38681209087371826,-0.006681377533823252,0.05947710946202278,0.8209468126296997,-0.010914224199950695,0.3107321262359619,-0.01969095878303051,-0.054820675402879715,-0.9970501661300659,-0.5501977801322937,-0.26244884729385376,-0.012166938744485378,-0.25900980830192566,0.20043198764324188,0.05694277212023735,-0.34663790464401245,0.18020707368850708,0.16199210286140442,0.2510634958744049,-0.02180962637066841,-0.08238235861063004,0.31916046142578125,0.019966891035437584,-0.17177581787109375,0.21558094024658203,-0.16555538773536682,-0.10066023468971252,0.0760917216539383,0.1723812222480774,0.383110910654068,-0.22885924577713013,-0.18141251802444458,-0.14229834079742432,-0.17989005148410797,0.18539075553417206,0.11046583205461502,0.23073914647102356,-0.26563742756843567,-0.20698271691799164,-0.4015008509159088,0.032815009355545044,-0.008075453341007233,0.2380659133195877,-0.143642857670784,-0.280160129070282,0.2297113835811615,-0.04498133808374405,0.028309345245361328,0.35752072930336,-0.0986672043800354,0.057094596326351166,0.20746752619743347,-0.1028183251619339,-0.15553858876228333,0.171567901968956,-0.21878686547279358,-0.011086640879511833,0.32416319847106934,-0.076247438788414,0.13127616047859192,0.14057700335979462,-0.06645722687244415,-0.2534447908401489,0.02586061879992485,-0.09299997985363007,-0.11902672797441483,-0.11334465444087982,0.11755262315273285,0.2901575267314911,0.12541382014751434,0.3213777244091034,0.3922439515590668,0.009891766123473644,0.04974415898323059,0.24204371869564056,0.005542426370084286,-0.23346267640590668,0.15039891004562378,0.2247937172651291,0.06655380874872208,0.03370928391814232,-0.027132609859108925,-0.22480736672878265,-0.3206840753555298,-0.020259741693735123,-0.019033163785934448,0.06729701161384583,0.07858878374099731,-0.043808501213788986,-0.19052839279174805,-0.26835137605667114,-0.025681104511022568,0.14731521904468536,-0.01760682463645935,0.0009454655810259283,0.1258181482553482,0.14271406829357147,0.2954444885253906,0.19743800163269043,-0.039284203201532364,0.05187026411294937,0.24451789259910583,-0.13228055834770203,0.051239337772130966,0.20362988114356995,-0.08438961952924728,-0.1294040083885193,0.05741606280207634,-0.2410580813884735,0.5063619017601013,0.10890675336122513,-0.2605065107345581,0.42159560322761536,0.12293490767478943,0.1604321300983429,-0.42578527331352234,-0.03257880359888077,0.14933188259601593,-0.5546255111694336,-0.03926802799105644,0.029925744980573654,-0.5537155270576477,-0.10462883859872818,-0.07464484125375748,-0.028956346213817596,-0.040672920644283295,-0.19586917757987976,0.06309296190738678,0.0080014169216156,-0.14819186925888062,0.5894331932067871,0.08345397561788559,0.2515312135219574,-0.02534784935414791,0.06941203773021698,-0.06099051982164383,0.553589403629303,0.19461843371391296,0.3257594108581543,-0.32549306750297546,-0.05953305959701538,0.10938151925802231,-0.2593701481819153,-0.09180336445569992,0.06548407673835754,-0.5968928337097168,-0.2391640841960907,0.030415160581469536,-0.5031661987304688,-0.01606661267578602,0.23950254917144775,-0.5735804438591003,0.030651187524199486,0.012147820554673672,-0.14031094312667847,-0.060424454510211945,-0.37537387013435364,-0.018877238035202026,-0.16919706761837006,-0.5444337129592896,-0.12425969541072845,-0.08018296957015991,0.3313789367675781,0.15799450874328613,-0.07559264451265335,0.41363754868507385,0.2502261698246002,0.019418327137827873,0.5197349786758423,0.1637747883796692,-0.09297924488782883,-0.08771110326051712,0.014604661613702774,-0.024319365620613098,-0.04309753328561783,-0.020699139684438705,-0.11303706467151642,-0.44799482822418213,-0.02530507929623127,-0.02572046034038067,0.41866937279701233,-0.1040724590420723,-0.10672660171985626,-0.43688109517097473,-0.18629713356494904,0.009325106628239155,0.4123477041721344,0.09937164187431335,-0.17020785808563232,0.40379267930984497,-0.07352477312088013,-0.038073256611824036,0.3367404341697693,0.17728547751903534,-0.01107029803097248,0.39993005990982056,0.12800009548664093,0.15779851377010345,0.27497485280036926,-0.008167190477252007,-0.04934068024158478,0.2212405949831009,-0.17637516558170319,0.17013408243656158,0.22881059348583221,0.3507321774959564,-0.22058458626270294,0.23418204486370087,0.48471948504447937,-0.1074686348438263,-0.23533202707767487,-0.4480748474597931,-0.005719813518226147,-0.3359803557395935,-0.3817676305770874,-0.023700837045907974,-0.24045217037200928,-0.34301304817199707,0.17976631224155426,-0.02020782232284546,0.03352184593677521,-0.010715309530496597,-0.03502971678972244,0.10159073770046234,-0.1995924711227417,0.23415297269821167,0.5034843683242798,0.021061738952994347,-0.12175560742616653,-0.1166980117559433,0.10381550341844559,0.1667182296514511,0.5038765072822571,-0.18315626680850983,-0.21070915460586548,-0.3202732801437378,0.2543694078922272,-0.1206081435084343,-0.4325694739818573,0.1233147531747818,-0.18527215719223022,-0.6384923458099365,0.1951737105846405,-0.36329665780067444,-0.4850276708602905,0.07406585663557053,-0.29587358236312866,-0.4394533336162567,0.24263663589954376,-0.062095414847135544,-0.17149309813976288,0.060263242572546005,-0.6145779490470886,0.19195500016212463,0.2857196629047394,-0.4926207959651947,0.14336605370044708,0.4255320727825165,0.46365877985954285,-0.11229503154754639,-0.26249954104423523,0.3558093011379242,-0.2841961085796356,-0.30714675784111023,0.5431022047996521,-0.19093815982341766,-0.37116509675979614,-0.11621446162462234,-0.012389210984110832,0.1360456943511963,-0.22684741020202637,-0.214023619890213,0.060768160969018936,-0.4956612288951874,0.23236052691936493,0.3752892315387726,0.5310990214347839,-0.09158613532781601,-0.0769868791103363,-0.2941192090511322,0.21050259470939636,0.4402371048927307,0.44967907667160034,-0.04972473159432411,-0.20050765573978424,0.42164549231529236,-0.20919905602931976,-0.26861587166786194,0.4408833086490631,-0.2527060806751251,-0.37214651703834534,0.3165435194969177,-0.14611060917377472,-0.4267127811908722,0.4821164309978485,-0.24728171527385712,-0.36077001690864563,0.2593153417110443,0.13494406640529633,-0.08648984134197235,0.025898640975356102,-0.05510929226875305,-0.10284804552793503,0.027502527460455894,0.02490355633199215,-0.132791206240654,-0.08450742065906525,0.008278057910501957,0.1569059044122696,-0.019255245104432106,0.08601147681474686,0.21975712478160858,-0.04176228493452072,0.03111720085144043,0.1700633317232132,-0.021836809813976288,-0.004898908548057079,-0.06635042279958725,-0.07426431030035019,0.016042964532971382,0.1461130827665329,0.09929457306861877,0.05144568160176277,-0.10549549758434296,0.10002918541431427,-0.05500531196594238,-0.021499022841453552,-0.16217508912086487,0.10963709652423859,-0.013702345080673695,-0.06807362288236618,0.08811568468809128,0.19746093451976776,0.18222671747207642,0.15982921421527863,0.20050035417079926,-0.00021429134358186275,-0.01829754188656807,0.24387328326702118,0.11453081667423248,-0.05636213719844818,0.250664085149765,0.09834281355142593,0.11330568045377731,0.009689982049167156,0.06555178761482239,-0.010577233508229256,0.03821280226111412,-0.07490522414445877,0.22749879956245422,0.16778163611888885,0.08726176619529724,0.18024349212646484,0.22348639369010925,-0.12075252830982208,-0.18409138917922974,-0.2411683052778244,-0.1765991747379303,-0.35654109716415405,-0.04940012842416763,0.06182396411895752,-0.09645426273345947,-0.03977944701910019,-0.023751404136419296,-0.009213021025061607,-0.07221534848213196,-0.009508416056632996,0.18766836822032928,-0.23142662644386292,-0.03905094787478447,0.10692135244607925,0.08575617522001266,0.07600412517786026,-0.08098775893449783,-0.034217461943626404,0.12039975076913834,0.33815798163414,0.11770864576101303,0.09773300588130951,-0.04807785153388977,-0.05764181911945343,0.1627211719751358,-0.09356456995010376,0.029998186975717545,-0.08638535439968109,-0.1762218475341797,-0.15448206663131714,-0.0634935200214386,-0.31679052114486694,-0.24381831288337708,-0.11899995058774948,-0.1273103952407837,-0.058677349239587784,-0.006897314451634884,-0.02408289536833763,-0.07743409276008606,-0.0005100093549117446,0.4983260929584503,-0.4448133707046509,0.08101586997509003,0.6778843998908997,-0.5114524960517883,0.19042840600013733,-0.5186276435852051,0.35172057151794434,0.1420484036207199,-0.7248605489730835,0.4068308472633362,0.20630283653736115,-0.626682460308075,0.3424402177333832,0.027035469189286232,0.0032435620669275522,-0.07613731920719147,-0.14406085014343262,0.36713874340057373,-0.4989071190357208,-0.1494239717721939,0.6562933921813965,-0.3570097088813782,0.3512599468231201,-0.2686402201652527,0.2608456313610077,-0.16451449692249298,0.5287267565727234,-0.34902819991111755,-0.038124579936265945,-0.4691268801689148,0.5063698887825012,0.07530376315116882,-0.6276254653930664,0.3273055851459503,0.08873306214809418,-0.7564887404441833,0.49522843956947327,-0.06279164552688599,-0.7734946608543396,0.28727006912231445,0.04871639609336853,-0.5016406774520874,0.2842192053794861,0.2911296784877777,-0.2830808162689209,0.24804925918579102,-0.22160156071186066,-0.573864758014679,0.5807586908340454,-0.22700530290603638,-0.36906835436820984,0.5176293849945068,0.1878330409526825,0.636898398399353,-0.43357759714126587,0.35825735330581665,0.4168047308921814,-0.5213993787765503,0.1234678253531456,0.4788236916065216,-0.4505538046360016,0.003481209045276046,0.0031352031510323286,0.05442030727863312,-0.03847727179527283,-0.2755180895328522,0.4221370816230774,-0.3294486403465271,-0.4755420982837677,0.6123806238174438,0.2481410950422287,0.292381227016449,-0.04759557545185089,-0.4494245946407318,-0.6208633780479431,0.49968692660331726,0.21153806149959564,0.5427207350730896,-0.47858303785324097,0.23007959127426147,0.3551841080188751,-0.3358963131904602,0.2731397747993469,0.6416469216346741,-0.38341376185417175,0.3583911061286926,0.5274644494056702,-0.5140833258628845,0.24189312756061554,0.5359359383583069,-0.3713073432445526,0.1264474093914032,0.31955668330192566,-0.21246592700481415,-0.18332484364509583,-0.25829413533210754,0.32529038190841675,0.01624322310090065,-0.3460818827152252,0.3427075743675232,0.1804535835981369,0.29411524534225464,-0.12202093005180359,0.04181578755378723,0.2682289779186249,-0.18322978913784027,0.07014824450016022,0.27293649315834045,-0.26903408765792847,-0.17740581929683685,-0.21667733788490295,-0.04094427824020386,0.0326443649828434,-0.13075298070907593,0.036199215799570084,-0.10634041577577591,-0.13728055357933044,0.22967621684074402,0.2747455835342407,0.1854163408279419,-0.2296862155199051,-0.21396347880363464,-0.2891116738319397,0.15446537733078003,0.25553345680236816,0.13597038388252258,-0.17578847706317902,0.0607859343290329,0.32631856203079224,-0.09657711535692215,0.011231197975575924,0.10505333542823792,-0.3506616950035095,0.11581957340240479,0.18563121557235718,-0.32971447706222534,0.06822892278432846,0.23876848816871643,-0.2920489013195038,0.14352408051490784,0.0984458401799202,-0.12150454521179199,0.31810492277145386,-0.22302761673927307,-0.3124624788761139,0.23158396780490875,-0.49271294474601746,-0.19586491584777832,-0.35369816422462463,0.3031086325645447,0.45173782110214233,-0.32199838757514954,0.49034765362739563,0.3261210322380066,-0.2855619192123413,0.4142724275588989,0.38725072145462036,-0.01667494885623455,-0.15082897245883942,-0.07414241880178452,0.12831875681877136,-0.08826599270105362,-0.2591915726661682,0.3628111481666565,-0.49529385566711426,-0.3535495102405548,-0.20967727899551392,0.13873735070228577,0.16728350520133972,0.3187640607357025,-0.4540282189846039,-0.41643205285072327,-0.30248400568962097,0.3724750578403473,0.16515018045902252,-0.3908693492412567,0.41025760769844055,0.4489995837211609,-0.2643549144268036,0.3453470766544342,0.20289166271686554,-0.19766153395175934,0.4437491297721863,0.2462020367383957,-0.22073793411254883,0.4616386890411377,0.39955005049705505,-0.159146249294281,0.12739507853984833,0.05735062435269356,-0.42606213688850403,0.09509994089603424,0.2756616771221161,-0.31943973898887634,-0.31009641289711,0.28154227137565613,0.48671954870224,0.3149650990962982,-0.30723753571510315,0.32836294174194336,0.11190705746412277,-0.025540852919220924,0.2927786111831665,0.13538047671318054,-0.12225441634654999,-0.10524484515190125,-0.1965489685535431,0.12092383950948715,-0.11468403041362762,-0.09343338757753372,0.30379757285118103,-0.4412385821342468,-0.16685469448566437,0.2938566207885742,0.42950040102005005,0.21217817068099976,0.05591936036944389,-0.3529863655567169,-0.21851523220539093,0.2933773100376129,0.2885437607765198,-0.03934064507484436,-0.30598902702331543,0.23508648574352264,0.21980683505535126,-0.22102057933807373,0.25299307703971863,0.20501485466957092,-0.0709124356508255,0.4083090126514435,0.2508660554885864,-0.15610376000404358,0.3921981751918793,0.14226895570755005,-0.254863440990448,0.01936270482838154,-0.0510697104036808,-0.14326970279216766,-0.030269619077444077,0.08448775857686996,-0.08881557732820511,-0.0034968953114002943,-0.11981865018606186,0.04290695860981941,-0.08466394990682602,0.1582866758108139,-0.028197748586535454,-0.03086084872484207,0.11753898859024048,0.030529320240020752,0.09415824711322784,-0.05061854422092438,-0.04233958199620247,-0.14909306168556213,0.0011312804417684674,-0.015580456703901291,0.05632955580949783,0.07524313032627106,0.019506024196743965,-0.03266094997525215,0.053852494806051254,-0.20152056217193604,-0.08605346828699112,-0.04520478844642639,0.27220049500465393,0.10670887678861618,-0.05009579658508301,0.014456682838499546,-0.14686784148216248,0.01044535730034113,0.09039639681577682,0.03653952479362488,0.007813362404704094,0.1909826248884201,-0.012868942692875862,0.044814322143793106,0.18912014365196228,-0.0388784296810627,0.17649494111537933,-0.012555435299873352,-0.031021852046251297,0.03467465192079544,0.15965957939624786,-0.015169462189078331,-0.14466270804405212,-0.09255445748567581,0.44325247406959534,0.1496642529964447,-0.43934166431427,0.29627758264541626,0.22814485430717468,-0.4008232355117798,-0.3512458801269531,-0.27871623635292053,0.62801194190979,-0.4804994761943817,-0.10531226545572281,0.5918262004852295,-0.4248858392238617,-0.11058386415243149,0.4354287087917328,0.017728634178638458,0.04434219002723694,-0.11653220653533936,0.06549838185310364,0.0761231929063797,-0.4983464181423187,0.4590643048286438,0.13271792232990265,-0.6305468082427979,-0.544911801815033,-0.19978971779346466,0.2154463529586792,0.3578350841999054,0.14123256504535675,-0.47759810090065,-0.3566317856311798,-0.07384185492992401,0.5122122764587402,-0.5234581232070923,-0.1404389590024948,0.3996288478374481,-0.4509250521659851,-0.10970500856637955,0.6991702914237976,-0.4772624373435974,-0.06271867454051971,0.47995415329933167,-0.4032887816429138,-0.05328185483813286,0.4796215295791626,-0.2007293999195099,-0.1413697749376297,0.4125399887561798,-0.013030539266765118,-0.37509268522262573,-0.021722035482525826,-0.18117086589336395,-0.5353325009346008,-0.18140077590942383,0.18628251552581787,0.3842772841453552,0.22305168211460114,0.2037964165210724,0.5472223162651062,0.09987988322973251,0.042194489389657974,0.3870675563812256,0.01304800808429718,0.029790271073579788,0.049118053168058395,-0.023425083607435226,-0.010521511547267437,-0.016228992491960526,-0.05695335194468498,0.03087335266172886,-0.5129433274269104,-0.26601946353912354,-0.09485115855932236,0.09742232412099838,-0.015448089689016342,0.05971721559762955,-0.3324359655380249,-0.27600014209747314,-0.012713720090687275,0.39939621090888977,-0.12255336344242096,-0.0037095092702656984,0.3750799298286438,0.03854936733841896,0.1610901951789856,0.5270334482192993,0.2621243894100189,-0.020611243322491646,0.5801347494125366,0.07439873367547989,0.1979203224182129,0.2651236653327942,-0.00301069812849164,-0.17144912481307983,0.19304484128952026,0.10695736855268478,0.026076387614011765,-0.2564454674720764,0.049902819097042084,-0.08611586689949036,0.0737956315279007,0.044510435312986374,0.0000054204674597713165,0.027812721207737923,-0.00021882985311094671,0.027378113940358162,-0.015063472092151642,-0.03613037243485451,0.03620006889104843,-0.013081645593047142,-0.04469569772481918,-0.024344805628061295,0.4705098867416382,-0.6940791010856628,0.9069401025772095,-0.7841920256614685,-0.07987230271100998,1.2424079179763794,0.8695883750915527,-0.4009634554386139,-0.24644431471824646,0.5955756306648254,-0.22996129095554352,-0.6841516494750977,0.4243304133415222,-0.7829698324203491,-0.4076082110404968,0.2518627345561981,-0.0746978148818016,0.1758866012096405,-0.01246389839798212,0.1757231056690216,0.3344234824180603,-0.06501846760511398,0.00026561811682768166,-0.20088401436805725,0.14157594740390778,-0.2792481780052185,0.015402908436954021,-0.010203104466199875,-0.01564157009124756,0.33267125487327576,0.1059689149260521,-0.16800786554813385,-0.296054869890213,0.012107037007808685,-0.054650116711854935,0.15487146377563477,-0.07480314373970032,-0.01140199787914753,0.00018955912673845887,0.23621688783168793,-0.21159851551055908,0.1789020150899887,-0.2499534785747528,0.001150030642747879,-0.15035594999790192,-0.03339564427733421,-0.02938937582075596,0.226183220744133,0.24776387214660645,0.004644033499062061,0.09925801306962967,-0.036987580358982086,-0.11348515748977661,-0.0013470224803313613,0.0002910456096287817,-0.4125722646713257,0.2835117280483246,-0.349530428647995,0.3393830955028534,-0.028305301442742348,0.3773373067378998,-0.12927696108818054,0.15974578261375427,-0.029832497239112854,-0.17382358014583588,-0.21101529896259308,0.1714985966682434,-0.2900698781013489,-0.053533364087343216,-0.014947217889130116,-0.00006636088801315054,-0.5026696920394897,-0.27575528621673584,-0.03355156257748604,-0.2244664430618286,-0.07552795857191086,0.24116413295269012,0.18513581156730652,0.011100598610937595,-0.12495165318250656,-0.11778395622968674,-0.1852378100156784,-0.0500793419778347,-0.018224846571683884,-0.09491033852100372,0.00037329041515477,-0.0008756396709941328,-0.10364675521850586,-0.13773086667060852,0.34742334485054016,-0.4269483685493469,0.07224276661872864,-0.03755081444978714,0.1898214966058731,-0.1590297520160675,-0.009637689217925072,-0.5622730255126953,-0.038215555250644684,0.01862432435154915,0.13257861137390137,-0.021849390119314194,0.15409278869628906,0.0007461751229129732,-0.2076343148946762,0.1552874743938446,-0.04944577440619469,0.1624113768339157,-0.09461841732263565,-0.08181340247392654,0.26083624362945557,-0.21432659029960632,-0.031454309821128845,0.09539847820997238,0.053259700536727905,0.1991673856973648,0.12046195566654205,-0.261658251285553,-0.2104238122701645,0.00034447203506715596,0.29157525300979614,0.343453586101532,-0.4191794693470001,0.16914942860603333,-0.020670492202043533,0.3559384346008301,-0.4536639153957367,0.4407041072845459,0.045780617743730545,-0.25879552960395813,0.1909928023815155,0.1425011157989502,-0.058091532438993454,-0.21674197912216187,0.12187044322490692,0.0014932791236788034,0.3429622948169708,-0.05621648579835892,0.096763014793396,-0.32640448212623596,-0.11582066863775253,-0.1104157343506813,-0.09017162770032883,-0.16282671689987183,0.04143283888697624,0.30361154675483704,-0.030095398426055908,-0.26983240246772766,-0.15432780981063843,0.36674031615257263,-0.36411428451538086,0.00007594616181449965,-0.02086685225367546,-0.04833528771996498,-0.2259928435087204,0.4105813205242157,0.3969402611255646,-0.07552843540906906,-0.16853544116020203,0.23532024025917053,-0.015479772351682186,0.12618392705917358,-0.1808161437511444,0.07124510407447815,-0.3462734818458557,-0.3627276122570038,-0.16330885887145996,0.0006508916849270463,-0.4594227075576782,-0.02166992612183094,0.00593223562464118,0.05553014203906059,0.02437116950750351,0.20504190027713776,0.1042730063199997,0.20928208529949188,0.009776229038834572,0.16976729035377502,0.2684333026409149,-0.2576262652873993,0.2765544354915619,-0.3009360432624817,-0.2606361508369446,-0.00013815627607982606,-0.0007802463369444013,0.10317330062389374,-0.051643043756484985,-0.09314466267824173,0.18917818367481232,0.17069987952709198,-0.015983063727617264,0.10963871330022812,0.4351220428943634,0.2025279849767685,-0.0349532850086689,0.19714465737342834,0.023890743032097816,0.0362052395939827,-0.11754167079925537,0.0008234652923420072,-0.6323970556259155,0.12460926920175552,0.026574570685625076,0.06340751051902771,0.0003696865460369736,0.12636452913284302,0.2354767918586731,0.12572461366653442,-0.3863869905471802,0.05701518803834915,-0.13655699789524078,0.10654947906732559,-0.1251833438873291,-0.049359437078237534,0.015738321468234062,0.00037257224903441966,-0.12970642745494843,0.049812961369752884,-0.08462021499872208,0.3799186944961548,0.031200798228383064,-0.13753654062747955,-0.25612881779670715,0.15409916639328003,0.06423395127058029,-0.09179522097110748,-0.3514033555984497,-0.21635907888412476,0.020353475585579872,-0.21953561902046204,-0.13849970698356628,-0.0008906615548767149,0.7467801570892334,-0.045467179268598557,0.22245188057422638,-0.426448792219162,0.05621471256017685,-0.1650678515434265,-0.6334670186042786,-0.04736080393195152,0.34541091322898865,0.010049032978713512,0.17388252913951874,-0.17308203876018524,0.012052210979163647,-0.19233229756355286,-0.12241311371326447,0.000443369266577065,0.2709096670150757,-0.24029776453971863,0.0024081780575215816,-0.21944868564605713,0.21673639118671417,-0.022373033687472343,-0.17999933660030365,0.1462872177362442,0.28204065561294556,-0.6033306121826172,-0.09406884014606476,-0.018589384853839874,-0.20883296430110931,-0.14282195270061493,0.18157154321670532,-0.00013274300727061927,0.41555291414260864,-0.17914600670337677,0.07287470996379852,-0.45983049273490906,-0.22802229225635529,-0.24422244727611542,0.28244253993034363,-0.0416623018682003,0.34946778416633606,0.05921901762485504,0.024772508069872856,0.014311011880636215,-0.08725552260875702,-0.0729912593960762,0.005469857715070248,0.06637202948331833,0.05692857503890991,0.012735366821289062,-0.02732304111123085,0.12076021730899811,-0.007337052840739489,-0.021370388567447662,-0.07226578891277313,0.12961946427822113,-0.03562743589282036,0.00036369365989230573,0.015308900736272335,0.14551942050457,0.039442338049411774,-0.15707136690616608,0.6212806105613708,-0.3544037342071533,-0.11428070068359375,-0.1327275037765503,0.3020258843898773,0.3275977373123169,0.36269450187683105,-0.1002245619893074,-0.27783098816871643,0.36442774534225464,0.19177541136741638,-0.5955697298049927,-0.5206048488616943,-0.1606428474187851,-0.004802101757377386,0.23066285252571106,0.23330457508563995,0.02225087583065033,-0.31803634762763977,-0.12281709164381027,-0.26897791028022766,0.01002986915409565,0.056001391261816025,0.08941825479269028,0.9423147439956665,-0.4747208058834076,-0.3961230218410492,0.6435989737510681,0.20358479022979736,-0.1475968062877655,0.09472537040710449,-0.24553437530994415,0.20013375580310822,-0.005179207772016525,-0.25324463844299316,-0.07453149557113647,0.010282986797392368,-0.29287195205688477,-0.15621261298656464,0.7193845510482788,0.1394350379705429,0.04690041020512581,-0.198401540517807,0.20043011009693146,-0.17726317048072815,-0.4166414737701416,-0.5612459182739258,0.5377628803253174,0.14788711071014404,-0.058897972106933594,0.07276950031518936,-0.11335527151823044,-0.0721343532204628,-0.01986456662416458,0.22056983411312103,-0.18210963904857635,0.3228224515914917,0.11911986768245697,-0.0996532216668129,-0.3008332848548889,-0.12350217998027802,0.5299032330513,-0.039738308638334274,-0.28968697786331177,-0.0526115708053112,-0.05068696662783623,0.09318120777606964,0.009855075739324093,-0.24097833037376404,-0.44315555691719055,-0.44396060705184937,0.2368752807378769,-0.21279847621917725,0.008049137890338898,0.4911855459213257,-0.36028993129730225,0.3262551724910736,-0.4507918953895569,-0.16297736763954163,-0.27052170038223267,-0.22404791414737701,-0.06021241471171379,-0.20524300634860992,0.1470719426870346,-0.10274799913167953,-0.2781970798969269,0.38326936960220337,-0.31336045265197754,-0.24514855444431305,-0.32065683603286743,0.036948319524526596,-0.09707073122262955,-0.32258883118629456,-0.05012165755033493,0.277073472738266,-0.23957933485507965,-0.0638202354311943,0.00764207448810339,0.15737727284431458,0.12038055062294006,0.22920715808868408,0.20534174144268036,0.20322340726852417,0.11239995807409286,-0.18003466725349426,-0.1198824793100357,-0.4328143298625946,-0.9195863604545593,0.2107614427804947,-0.1213889867067337,-0.27253279089927673,-0.19894616305828094,-0.018801791593432426,-0.22527022659778595,-0.021215688437223434,0.2207673341035843,-0.14465229213237762,0.19502656161785126,0.2726064622402191,0.046841513365507126,0.17524099349975586,0.25167351961135864,-0.25973981618881226,0.028258761391043663,0.02046707086265087,0.4599963128566742,0.04383421689271927,-0.19490160048007965,-0.014467449858784676,0.18493756651878357,0.114909827709198,-0.17543277144432068,0.183307945728302,0.20987214148044586,0.010151633992791176,0.038251325488090515,-0.7520017623901367,-0.12693865597248077,0.6269820332527161,-0.1828063428401947,-0.6217092871665955,0.2852184474468231,0.01907605305314064,0.4621830880641937,-0.4925841689109802,0.2556632161140442,-0.06685519963502884,-0.09505259245634079,0.12418842315673828,0.6100726127624512,0.04747721925377846,0.13214410841464996,0.09191767126321793,-0.4628162980079651,-0.7736606597900391,-0.024821698665618896,0.07323148846626282,0.35133615136146545,-0.03974251449108124,0.7044228315353394,-0.34988829493522644,0.4086693823337555,0.24445952475070953,0.8630325198173523,-2.041746139526367,0.6683899164199829,-0.11966782808303833,0.4443928897380829,-0.168574720621109,0.38498616218566895,-0.1872122585773468,-0.2952001392841339,-0.36285844445228577,0.496936559677124,0.8495781421661377,0.4075149893760681,-0.0710812360048294,-0.02210259437561035,0.40083447098731995,-0.05050359666347504,-0.5112048983573914,0.13771353662014008,-0.03429756313562393,-0.3085988163948059,-0.1538769155740738,0.5818998217582703,-0.0878981426358223,-0.285482257604599,-0.31107988953590393,0.09462927281856537,0.0921592190861702,0.14966794848442078,-0.10595245659351349,-0.0996738150715828,-0.0966566950082779,-0.2416587471961975,-0.3496657609939575,0.018922727555036545,-0.07273609191179276,0.042103834450244904,0.07200857251882553,-0.18637487292289734,-0.06396745145320892,-0.5662421584129333,-0.30460384488105774,0.4663182199001312,0.1644214689731598,-0.02072804979979992,0.16865363717079163,0.31477823853492737,0.13125202059745789,0.007979508489370346,-0.8476498126983643,0.368892103433609,-0.26882725954055786,0.21647624671459198,-0.3560790419578552,0.33981654047966003,-0.22734998166561127,-0.03365740925073624,-0.11505942046642303,1.6943687200546265,0.23418566584587097,-0.012490970082581043,-0.5192962884902954,0.17253202199935913,0.3121083676815033,0.05645810812711716,0.09995362162590027,0.1914665251970291,-0.32053157687187195,-0.060167018324136734,-0.06230107694864273,-0.6179021596908569,-0.05255171284079552,-0.2290748953819275,0.3788377344608307,0.04797091335058212,-0.13647323846817017,-0.26587218046188354,0.38624307513237,-0.6480975151062012,-0.7345535159111023,0.18044966459274292,0.030502647161483765,0.17422713339328766,-0.32877641916275024,-0.34029853343963623,-0.10995256155729294,0.4129122495651245,0.5914034247398376,-0.8538256883621216,-0.004799745045602322,-0.2070852667093277,-0.16433307528495789,0.29105010628700256,0.2549663186073303,-0.536596417427063,-0.10267265141010284,0.2620221674442291,1.1816548109054565,0.15970809757709503,0.3194899559020996,-0.30350202322006226,0.25386354327201843,-0.5053061246871948,-0.20856145024299622,0.6760192513465881,0.3942875862121582,0.45381805300712585,-0.11490868777036667,0.013011314906179905,0.3228031396865845,0.01138949953019619,-0.34684523940086365,-0.2805396020412445,0.39787617325782776,-0.6097871661186218,-0.03625623881816864,0.45533499121665955,0.17188511788845062,-0.3526696264743805,-0.312669038772583,0.33852440118789673,0.05929601565003395,-0.10740756243467331,-0.10179637372493744,0.04908350110054016,-0.11317263543605804,-0.6529043912887573,-0.011870358139276505,0.035046592354774475,0.1394238919019699,-0.5368469953536987,-0.017802195623517036,-0.17252101004123688,0.4470764100551605,-0.018447699025273323,-0.3180444538593292,0.31169915199279785,-0.44402647018432617,-0.040341366082429886,-0.9419443011283875,0.2742156386375427,0.08525309711694717,-0.029809219762682915,0.23709416389465332,0.38403430581092834,0.16966652870178223,-0.3545023500919342,0.1638515442609787,0.20168644189834595,-0.49799802899360657,0.008403710089623928,0.40484145283699036,-0.28602761030197144,-0.048277001827955246,-0.2970196306705475,-0.2938632071018219,-0.06671585142612457,0.0019908754620701075,0.2251017987728119,-0.07444384694099426,0.03599171340465546,-0.17649048566818237,-0.12789420783519745,0.34424710273742676,-0.3839535117149353,0.14199985563755035,-0.5566725730895996,0.4739128053188324,-0.12828806042671204,0.030424809083342552,0.07207673043012619,0.10465577244758606,-0.5971672534942627,-0.013151212595403194,-0.002824191004037857,-0.12854498624801636,0.0460779070854187,-0.06196526065468788,-0.05348001420497894,-0.17018529772758484,0.20604227483272552,-0.40521901845932007,0.0008535025990568101,-0.14146801829338074,-0.22140726447105408,0.27938684821128845,-0.0469389334321022,-0.5005176067352295,0.09674543142318726,-0.1762733906507492,-0.017324447631835938,-0.03592902421951294,0.04238732531666756,-0.30183181166648865,0.2666100561618805,0.008195951581001282,-0.5122193694114685,0.10238058120012283,0.2246633619070053,-0.6330593228340149,0.15975137054920197,-0.36153092980384827,0.3098357617855072,0.22238634526729584,0.24170830845832825,-0.19125236570835114,-0.10971532016992569,0.03338734805583954,-0.22695499658584595,0.06820806860923767,0.2378452718257904,-0.34909841418266296,0.3042376935482025,0.1821485012769699,-0.027842918410897255,-0.13894261419773102,0.3579135537147522,0.3010186553001404,0.014380160719156265,-0.22124740481376648,-0.017327608540654182,0.10299136489629745,0.3657357394695282,0.07928267866373062,0.5464317202568054,0.13506826758384705,-0.22737140953540802,0.2401697337627411,-0.03227607533335686,0.14628088474273682,0.16978828608989716,-0.4316607415676117,0.015577621757984161,-0.20455478131771088,0.4910935163497925,0.22752127051353455,0.04505091533064842,-0.2849300801753998,-0.12948109209537506,-0.08789707720279694,0.17147968709468842,0.32405582070350647,0.4829053282737732,0.3131861686706543,0.418082594871521,-0.30965444445610046,0.14784803986549377,0.17260204255580902,0.24398164451122284,0.07583408802747726,-0.6562126278877258,-0.37846219539642334,0.3058973550796509,0.4887159764766693,0.236901193857193,-0.21008539199829102,0.21595808863639832,-0.057005010545253754,0.07538734376430511,0.10991412401199341,0.3149392902851105,-0.06517206132411957,0.21695928275585175,-0.4145585596561432,-0.004668666981160641,-0.06834451109170914,-0.03414727374911308,-0.12553323805332184,0.015056781470775604,-0.004734131507575512,0.1743195652961731,0.19883568584918976,-0.1469075083732605,-0.06696003675460815,-0.015448221005499363,-0.19748036563396454,0.10564809292554855,-0.05974164977669716,-0.2413674294948578,-0.2342984825372696,0.05274893715977669,0.0791110172867775,0.24455532431602478,-0.14750993251800537,0.3543109595775604,-0.3214671015739441,-0.03506866842508316,0.14792759716510773,0.20599836111068726,-0.2560074031352997,0.33559316396713257,-0.19305136799812317,-0.13068413734436035,-0.023717055097222328,0.12648563086986542,0.20600111782550812,-0.14255061745643616,-0.10205142199993134,-0.0014617383712902665,-0.16861476004123688,0.1545918583869934,0.12040860205888748,-0.21567444503307343,0.18579928576946259,-0.002298680366948247,-0.06323107331991196,0.13804568350315094,0.0191962793469429,-0.1702728122472763,-0.15407446026802063,0.10621930658817291,0.2634741961956024,-0.08560460805892944,-0.47136983275413513,-0.47592228651046753,-0.23208971321582794,0.09399376064538956,-0.11268939822912216,0.465591162443161,0.27616554498672485,-0.035878803580999374,0.02014072611927986,0.234348863363266,0.13320289552211761,0.15592455863952637,0.05522770434617996,-0.2637733221054077,0.15046989917755127,0.4379618763923645,0.04946045204997063,-0.11712408810853958,0.24146530032157898,-0.038450937718153,-0.03332836925983429,0.23837225139141083,0.25238481163978577,-0.1619165539741516,-0.65118807554245,-0.15387198328971863,0.15020465850830078,0.10909883677959442,-0.11460508406162262,0.2911137044429779,-0.18854597210884094,-0.3982030749320984,0.10999134927988052,0.4671858251094818,-0.31495970487594604,0.23412728309631348,-0.05173494666814804,0.02291860803961754,0.18974386155605316,-0.05250351503491402,-0.21088460087776184,0.24200981855392456,-0.1646004617214203,-0.2336442619562149,-0.1994938999414444,-0.09851830452680588,0.26611000299453735,0.22355306148529053,0.22833803296089172,0.06125057116150856,0.22816714644432068,-0.05329151451587677,-0.2213641256093979,-0.2890627384185791,0.04549333453178406,-0.0013309856876730919,-0.18038424849510193,-0.3380616307258606,-0.8988938331604004,0.008036266081035137,0.08537652343511581,-0.5060471296310425,0.2813258171081543,0.41246312856674194,-0.22955960035324097,0.48111990094184875,0.19313345849514008,0.40472865104675293,-0.014602849259972572,-0.3307516276836395,0.07567018270492554,0.5864725708961487,0.24346725642681122,0.022019755095243454,-0.1699824035167694,0.31244567036628723,-0.5144944787025452,-0.1458994746208191,-0.11291691660881042,-0.0888511911034584,-0.5478374361991882,0.4538496136665344,-0.2402762472629547,0.050973668694496155,0.12072659283876419,-0.3701171278953552,0.13689862191677094,0.18858321011066437,0.05194324254989624,-0.028335629031062126,-0.2657743990421295,-0.22322823107242584,-0.25000855326652527,-0.04183720052242279,0.4326205253601074,0.05745595693588257,0.3344741463661194,-0.4119451344013214,-0.03611314296722412,-0.28869548439979553,0.26649102568626404,0.012268850579857826,0.18325366079807281,-0.16168896853923798,-0.007861606776714325,0.33300918340682983,0.18431100249290466,0.11697513610124588,-0.060460880398750305,-0.020953504368662834,0.22034324705600739,0.13064876198768616,0.6210319995880127,-0.0875149667263031,-0.2300952672958374,0.3887101411819458,-0.20708957314491272,-0.3855656385421753,0.30133089423179626,0.056397438049316406,0.2159714251756668,-0.35281088948249817,0.09748722612857819,0.08022895455360413,0.16249583661556244,0.11296897381544113,0.2342086136341095,-0.06267965584993362,0.4880708158016205,0.21055853366851807,-0.14559343457221985,-0.04456034675240517,0.09893887490034103,0.10447422415018082,-0.23921117186546326,-0.10182434320449829,-0.07088851928710938,-0.03865357115864754,0.013712278567254543,-0.10594213008880615,-0.08445708453655243,0.13193999230861664,0.20166701078414917,0.5460273027420044,-0.806210458278656,0.6274112462997437,-0.23049989342689514,0.562656044960022,-0.10007287561893463,-0.1914554387331009,-0.3758126497268677,0.4358674883842468,0.6476437449455261,-0.2876623570919037,-0.45624983310699463,-0.15750791132450104,0.44868072867393494,-0.050455112010240555,0.013729878701269627,0.16080935299396515,0.6340563893318176,-0.3239518702030182,-1.1015781164169312,0.9717592000961304,0.18157760798931122,0.37207430601119995,0.06769753247499466,0.49679872393608093,-0.0006666785338893533,0.5000412464141846,-0.13962353765964508,0.12438250333070755,0.13498753309249878,-0.14156387746334076,0.22257092595100403,0.009973243810236454,-0.10737190395593643,-0.8715978264808655,-0.11451058834791183,-0.09930422902107239,-0.1375741809606552,-0.0030202011112123728,-0.0519205741584301,0.5658847689628601,-0.36354494094848633,-0.07561905682086945,0.2692055404186249,-0.24953772127628326,0.2715012729167938,0.032353177666664124,-0.4434472322463989,-0.1463501751422882,-0.08287739008665085,-0.19573809206485748,-0.15351459383964539,-0.039498742669820786,-0.18232202529907227,0.21661832928657532,0.11128461360931396,-0.08481451123952866,0.06075750291347504,0.11875327676534653,0.8725392818450928,0.15825483202934265,0.221568763256073,0.31369832158088684,-0.31260019540786743,-0.1596384197473526,0.2895142734050751,0.06153027340769768,-0.1073245108127594,-0.33595478534698486,-0.3975537121295929,-0.31830400228500366,-0.3095461130142212,0.18106169998645782,0.2004426270723343,-0.2121884971857071,0.03242321312427521,-0.03823576495051384,-0.06364794075489044,0.2654199004173279,0.27319228649139404,0.07836457341909409,-0.1036391481757164,-0.10550949722528458,-0.10774889588356018,0.30217990279197693,0.19162382185459137,0.041999246925115585,-0.13139508664608002,-0.19619083404541016,-0.04093867167830467,-0.13948173820972443,-0.03730370104312897,-0.358478307723999,-0.22944623231887817,-0.08018854260444641,0.38270214200019836,-0.1221238449215889,-0.12510500848293304,0.18433381617069244,-0.13471738994121552,0.3279373049736023,0.29288774728775024,0.34427034854888916,0.5676349401473999,-0.006745900027453899,0.30200380086898804,0.22485223412513733,-0.4920050799846649,-0.05206533521413803,0.8076211214065552,0.184202641248703,-0.15335613489151,-0.5965480208396912,0.7975723743438721,-0.07300356775522232,-0.20803357660770416,0.010571644641458988,-0.2658763825893402,-1.0913065671920776,-0.3487096130847931,-0.5279101133346558,-0.35057899355888367,-0.4010295569896698,0.07078853994607925,0.19112062454223633,-0.00007487191032851115,0.08228551596403122,1.145018219947815,0.2646946609020233,0.51408851146698,0.3847297430038452,0.7251675128936768,-0.12935510277748108,0.24670423567295074,0.3003019094467163,-0.1393095999956131,0.7433695197105408,-0.10834570229053497,0.09319648146629333,0.7150832414627075,0.20989346504211426,0.20796126127243042,-1.0357351303100586,0.11047203093767166,0.08001238107681274,-0.02290688082575798,0.007553885690867901,-0.008253445848822594,-0.08229365944862366,0.09762443602085114,-0.02137204073369503,0.019545668736100197,0.11669594049453735,-0.03712902218103409,0.2764539122581482,-0.09814401715993881,-0.02402014657855034,0.037910059094429016,-0.889872670173645,-0.009477583691477776,-0.2148091048002243,0.21679389476776123,0.36914175748825073,-0.33261966705322266,0.12018678337335587,-1.04094398021698,-0.3238723874092102,-0.3548620641231537,0.5849683284759521,-1.0135952234268188,-0.2971671223640442,-1.0234571695327759,0.22856484353542328,-0.22931437194347382,-0.022349730134010315,-1.2402853965759277,-0.28790420293807983,0.09461073577404022,0.12013797461986542,-0.11713478714227676,0.2369801104068756,-0.2219936102628708,0.005248063709586859,0.06425095349550247,0.025631466880440712,-0.2947290539741516,0.15544869005680084,-0.07852499932050705,0.17085407674312592,-0.3020896315574646,0.14626121520996094,0.019956260919570923,-0.05129091441631317,0.015553977340459824,-0.22094185650348663,-0.11852376908063889,0.06201298162341118,0.028105156496167183,-0.22297252714633942,0.04928771033883095,-0.06730269640684128,-0.077241912484169,0.09346996247768402,0.2951001226902008,0.040791306644678116,-0.2566489577293396,0.17734885215759277,0.14228756725788116,0.19952908158302307,-0.16308088600635529,-0.1060531884431839,-0.04918094351887703,-0.10679342597723007,0.10988160222768784,-0.024219578132033348,0.05307171866297722,-0.25561630725860596,0.22512254118919373,-0.15087230503559113,0.03901544585824013,-0.26687613129615784,0.27307504415512085,0.23655526340007782,-0.03504098206758499,-0.14846518635749817,-0.014922518283128738,-0.3645229935646057,-0.12940536439418793,-0.06830926984548569,-0.07619277387857437,-0.07947637885808945,0.07883267849683762,0.29077816009521484,-0.042749982327222824,-0.08209928870201111,0.4026215970516205,0.3155677318572998,-0.5671670436859131,-0.49030137062072754,0.023447515442967415,0.3317817449569702,-0.13755370676517487,0.15364329516887665,-0.007940582931041718,0.013081316836178303,0.17102815210819244,-0.33904972672462463,0.30349108576774597,0.1038968414068222,0.5570278763771057,0.07771360129117966,0.26490017771720886,0.11985396593809128,0.04666583985090256,-0.24539680778980255,-0.19324539601802826,-0.04407043755054474,0.24932192265987396,-0.3292042315006256,0.06349315494298935,0.15892137587070465,-0.05760403722524643,0.17352914810180664,0.02765480987727642,-0.03650989755988121,-0.17560184001922607,-0.23894141614437103,-0.015271888114511967,-0.2028404176235199,-0.011415922082960606,0.2076258659362793,0.06261229515075684,0.10780304670333862,0.2924855053424835,0.03168458119034767,-0.1682622730731964,0.2769874632358551,-0.01584610715508461,-0.06898116320371628,-0.31924885511398315,0.047304075211286545,0.448133647441864,-0.2519686818122864,0.0535450279712677,-0.3338817358016968,-0.19462057948112488,-0.09494362026453018,-0.13406413793563843,0.18073724210262299,0.06850851327180862,0.022754641249775887,-0.3585321605205536,-0.058787573128938675,0.18535037338733673,-0.07937488704919815,0.00014021812239661813,-0.07187359035015106,0.2106385976076126,-0.05616474896669388,0.008211529813706875,-0.2360156923532486,-0.36776652932167053,0.2815819978713989,0.057168275117874146,-0.20013439655303955,0.16925020515918732,0.0005646132049150765,-0.18184387683868408,-0.3762848377227783,-0.15370920300483704,0.11814789474010468,-0.19924914836883545,-0.355106920003891,-0.23518601059913635,-0.0004991846508346498,-0.1447225660085678,0.34797242283821106,-0.35993093252182007,-0.008543606847524643,0.025558946654200554,-0.39502865076065063,0.19571830332279205,0.19735221564769745,-0.08029226958751678,0.16240620613098145,-0.18689829111099243,0.2583858072757721,-0.19560132920742035,0.06716229021549225,0.13381801545619965,-0.06422434002161026,0.3055284023284912,0.3086340129375458,-0.2816791236400604,0.14285880327224731,-0.2392723709344864,-0.07417776435613632,-0.1545577496290207,-0.04266812279820442,0.19204556941986084,0.1690014898777008,-0.0036113308742642403,-0.02160397358238697,0.26067134737968445,-0.006527821533381939,0.30878812074661255,-0.3443841338157654,0.11780913919210434,0.35724174976348877,0.21532757580280304,0.03858179226517677,0.05422230437397957,0.2311941534280777,0.11827760189771652,-0.11148353666067123,-0.11976954340934753,-0.2516087293624878,0.15567754209041595,-0.020884310826659203,-0.17997245490550995,0.18218430876731873,0.21221695840358734,0.30544593930244446,0.07226942479610443,0.10278700292110443,-0.02061714231967926,-0.0801449790596962,-0.1105337142944336,0.053920190781354904,-0.016436394304037094,0.0258993711322546,0.25313636660575867,0.3046795427799225,-0.15641207993030548,-0.2662619948387146,0.1398339718580246,0.17853005230426788,-0.6195744276046753,-0.46542420983314514,-0.16393260657787323,0.40897318720817566,-0.06776656955480576,-0.05947266146540642,-0.07004392147064209,-0.020742686465382576,0.21946105360984802,0.1557454615831375,-0.12213675677776337,-0.06310168653726578,0.14650027453899384,0.06555645167827606,-0.15231579542160034,0.23577424883842468,0.4569537043571472,-0.08973827213048935,-0.5026311874389648,0.37747275829315186,-0.08847916126251221,-0.1693977415561676,0.03470330685377121,-0.07692845165729523,0.03751862049102783,0.09356289356946945,-0.004150779917836189,-0.0021598117891699076,-0.15907393395900726,0.051385547965765,-0.11553437262773514,-0.23479948937892914,0.2695983648300171,-0.2618451416492462,0.01885264553129673,0.05074824392795563,-0.0073989988304674625,0.26694294810295105,0.1984599530696869,0.11691438406705856,-0.2011130005121231,-0.5670677423477173,0.005617850925773382,0.15491822361946106,-0.006308780051767826,-0.310278981924057,0.2555869221687317,0.004689873196184635,-0.7938856482505798,-0.18954403698444366,0.13528119027614594,-0.35284048318862915,0.06085209548473358,-0.4958294928073883,0.047619737684726715,0.1444500833749771,0.15021364390850067,0.18338842689990997,-0.28568413853645325,-0.24352028965950012,0.2514309883117676,-0.009092680178582668,0.1869121640920639,0.03384137526154518,0.22325140237808228,0.3280758559703827,-0.20380428433418274,0.047230351716279984,-0.09695412963628769,0.23882657289505005,-0.33817169070243835,0.040113091468811035,0.4733549952507019,-0.02655775472521782,0.040509648621082306,-0.19204097986221313,-0.62002032995224,0.38768407702445984,-0.3929852545261383,-0.33888810873031616,0.2070799022912979,0.1946599781513214,-0.25687360763549805,0.2764546871185303,-0.043911341577768326,-0.2911577820777893,-0.20664142072200775,0.38183435797691345,-0.14927707612514496,-0.4105472266674042,-0.2641420364379883,0.12970466911792755,0.05062556266784668,-0.32802456617355347,0.04571964964270592,0.010600840672850609,0.3945010006427765,0.03119676746428013,0.1167839989066124,0.6527512669563293,-0.28516659140586853,0.12233871966600418,-0.23833782970905304,-0.35984426736831665,0.06420305371284485,0.3188191056251526,-0.4035272002220154,0.5764981508255005,0.1397550404071808,-0.5399037003517151,0.15309792757034302,0.006438495125621557,-0.20493368804454803,0.42301103472709656,-0.024853628128767014,-0.3829665184020996,-0.3649243414402008,-0.39010709524154663,0.006639675237238407,0.23094016313552856,-0.3791852593421936,0.2638554573059082,0.21503029763698578,0.21346549689769745,0.11855342984199524,0.13641241192817688,-0.02480977587401867,-0.11083707213401794,-0.2991463840007782,-0.3797444701194763,0.5802310705184937,-0.22780030965805054,0.34443268179893494,0.004796713124960661,0.035336948931217194,0.032775238156318665,-0.32281050086021423,-0.09084149450063705,-0.035834990441799164,-0.16960306465625763,0.43524080514907837,-0.21917694807052612,-0.6063089370727539,-0.17406706511974335,-0.27572914958000183,-0.43062520027160645,-0.3227997124195099,-0.07968243211507797,0.7136016488075256,0.3292057514190674,0.20812435448169708,0.07748672366142273,0.12741877138614655,0.04743392765522003,-0.13470886647701263,-0.04983808472752571,-0.11656753718852997,-0.2972419261932373,0.01789793372154236,0.01765335723757744,-0.1162010133266449,-0.03355216607451439,0.12575335800647736,0.07935740798711777,0.18203043937683105,0.06845157593488693,-0.0910182073712349,0.1785789579153061,0.2295738309621811,-0.011150198057293892,0.11387888342142105,-0.04228828474879265,-0.2834765613079071,0.007567682769149542,-0.4367825388908386,0.0744275152683258,-0.2979470491409302,0.4465150535106659,0.5993120670318604,0.0024023191072046757,0.00506637804210186,-0.3212459981441498,-0.001563610159792006,0.03286132588982582,0.4737379252910614,-0.03186650201678276,0.21477307379245758,0.21123579144477844,0.08375957608222961,0.1985255479812622,0.31161028146743774,0.04959399253129959,-0.08567364513874054,-0.21170057356357574,0.08113979548215866,-0.2152232527732849,-0.4127984046936035,-0.022083260118961334,-0.06857573240995407,0.09016814827919006,0.16345593333244324,0.16445119678974152,-0.0902344360947609,-0.11501620709896088,0.020385771989822388,0.19741085171699524,0.09849029034376144,-0.06742677092552185,0.1643095463514328,0.10285234451293945,-0.2894756495952606,0.001859329640865326,-0.21903596818447113,-0.05891811475157738,0.04892319068312645,-0.14925333857536316,-0.43403875827789307,0.2957296073436737,-0.3229329288005829,-0.06939021497964859,0.11074036359786987,-0.1975645273923874,0.4179533123970032,-0.18452638387680054,0.10378435254096985,0.5128837823867798,-0.38510334491729736,0.16430456936359406,0.3079506456851959,-0.05596211925148964,-0.12618429958820343,-0.435528039932251,0.3257913887500763,-0.14671368896961212,0.18815730512142181,-0.5098095536231995,-0.1397232860326767,-0.2503456175327301,0.18958203494548798,-0.05062233656644821,-0.3942016661167145,-0.2572619915008545,0.2876531481742859,-0.2926532030105591,0.07989515364170074,-0.15098346769809723,0.31510451436042786,0.1149558499455452,0.43793588876724243,-0.2671075463294983,-0.20922818779945374,-0.1962995082139969,0.28858858346939087,0.2170376479625702,-0.02802981063723564,0.044490668922662735,0.19312866032123566,-0.20112772285938263,0.03495261073112488,0.3083764910697937,0.22119112312793732,0.34087780117988586,-0.06323157250881195,0.5066699385643005,-0.5265305042266846,-0.46737590432167053,-0.523766815662384,0.06060577556490898,0.2726452052593231,-0.2869058847427368,0.13894927501678467,0.13623547554016113,-0.16484200954437256,0.26078957319259644,-0.1455240547657013,-0.26006487011909485,0.8993631601333618,-0.17791052162647247,0.2031896561384201,-0.3413330912590027,0.1432356983423233,-0.23612061142921448,0.30473053455352783,0.2101907581090927,-0.7545782327651978,0.777320384979248,-0.5662195682525635,0.3347043991088867,-0.31419312953948975,0.4542451798915863,0.8023555874824524,-0.21315538883209229,-0.11867705732584,-0.4978715777397156,-0.1814681589603424,0.3092292845249176,0.4180701673030853,0.3290438652038574,-0.4162447452545166,0.37455910444259644,-0.05380168929696083,-0.014480042271316051,-0.491239994764328,-0.26586708426475525,0.4627262055873871,-0.31629160046577454,-0.1939695030450821,0.7055506706237793,0.24410389363765717,0.28432729840278625,-0.3716750144958496,-0.12896035611629486,-0.027011647820472717,-0.5322765111923218,0.050771456211805344,0.0976206585764885,-0.30565983057022095,0.10982737690210342,-0.11105427891016006,-0.011287092231214046,-0.02078769914805889,-0.5335217714309692,0.2677142918109894,-0.05422288179397583,0.09175607562065125,-0.21150431036949158,-0.1405455321073532,-0.021144390106201172,0.19187168776988983,0.00929520558565855,0.08912036567926407,-0.0981256291270256,0.1946631669998169,0.06385839730501175,0.5299004912376404,-0.08952336758375168,0.19956544041633606,0.02665049582719803,0.005414856597781181,-0.052690211683511734,-0.29758721590042114,0.09517764300107956,-0.039537228643894196,-0.020330632105469704,-0.26466694474220276,-0.09369764477014542,-0.19412930309772491,-0.15500415861606598,0.13057927787303925,-0.019427001476287842,0.010614701546728611,-0.024026520550251007,-0.025168199092149734,0.1716334968805313,-0.05229969322681427,-0.2058897316455841,-0.1371656358242035,-0.11234667897224426,-0.05318761616945267,0.005002818536013365,0.6337586641311646,-0.8118741512298584,0.2845603823661804,-0.3910248577594757,-0.325955331325531,-0.06668947637081146,-0.2672193646430969,0.24089033901691437,-0.01087738573551178,0.1226547360420227,0.649983286857605,-0.18634603917598724,0.3682076334953308,0.9203892946243286,0.48519760370254517,-0.3830125629901886,-0.7217562794685364,-0.5571189522743225,-0.09318774193525314,0.6306823492050171,-0.07323680818080902,-0.5989058613777161,-0.378370076417923,-0.055340033024549484,-0.20827911794185638,0.1678811013698578,0.3918639123439789,0.6262174844741821,0.20021308958530426,-0.4186507761478424,-0.4016815721988678,-0.5114570260047913,-0.4398365318775177,-0.42776769399642944,0.30820226669311523,-0.008671199902892113,0.11667374521493912,-0.07440166175365448,0.050879623740911484,-0.2682734727859497,-0.10243025422096252,0.07998780161142349,-0.1427834928035736,-0.157484769821167,-0.19315245747566223,-0.19756045937538147,0.06162717565894127,0.12363213300704956,-0.17272576689720154,0.29341039061546326,-0.07737172394990921,-0.36334478855133057,0.3138098418712616,-0.2718404531478882,-0.5187201499938965,0.07802917063236237,0.0021911626681685448,0.18507732450962067,-0.0712701603770256,-0.09078994393348694,-0.13331538438796997,-0.2338533103466034,-0.1449299156665802,-0.22242297232151031,0.0849560797214508,-0.008972272276878357,0.17276521027088165,-0.10545114427804947,-0.10654114931821823,-0.2697073817253113,-0.3624909222126007,-0.25890836119651794,0.38065600395202637,0.4866417348384857,-0.07965396344661713,-0.1350899487733841,0.06461800634860992,-0.017986798658967018,-0.34090861678123474,0.2982798218727112,0.199931800365448,-0.12696805596351624,0.15079785883426666,-0.08866921812295914,-0.05761435627937317,0.35067588090896606,0.02991202473640442,-0.10513971745967865,0.356083482503891,-0.20057882368564606,-0.45411360263824463,0.06183255463838577,0.23136480152606964,0.019928041845560074,0.03418304771184921,-0.47396886348724365,0.1319718211889267,-0.3843470513820648,0.16052941977977753,0.23825979232788086,0.153514564037323,0.42755067348480225,-0.09535510838031769,-0.21265096962451935,0.13042205572128296,0.18071605265140533,0.3831406235694885,0.07628185302019119,0.16927187144756317,-0.06540528684854507,-0.10331827402114868,0.18028581142425537,0.08636026829481125,0.0377066545188427,0.08907687664031982,0.00512739410623908,-0.024938873946666718,0.3419124484062195,0.03670031204819679,0.1432504802942276,-0.006923642009496689,0.46165943145751953,-0.03846745938062668,0.7771925330162048,-0.10044275224208832,0.17733007669448853,-0.2888590097427368,-0.4041299819946289,0.3144148290157318,0.46742504835128784,0.32964763045310974,0.4404188096523285,-0.031665753573179245,-0.09076973795890808,0.20198974013328552,-0.1783776730298996,-0.03351171687245369,0.4493856728076935,0.03892983868718147,-0.19841893017292023,-0.27322325110435486,-0.21794071793556213,0.0689089372754097,0.22732853889465332,0.3404356837272644,-1.116852045059204,-0.6188012361526489,-0.34035569429397583,-0.3595198392868042,0.009654474444687366,-0.6984326839447021,0.4173993766307831,-0.46837562322616577,-0.00025334913516417146,-1.089713215827942,0.40147334337234497,0.2064114660024643,-0.06178602576255798,-0.23880936205387115,0.10069911926984787,0.07789276540279388,-0.47625085711479187,0.1033308133482933,0.11314190179109573,0.15682414174079895,0.39258384704589844,-1.1594702005386353,0.9506158232688904,0.622410774230957,-1.2724896669387817,0.5491839647293091,-0.0629206970334053,-0.7431873679161072,0.03264574334025383,0.003793605137616396,0.30867210030555725,-0.09824877977371216,0.4571043848991394,-1.3809750080108643,0.34556257724761963,0.20396530628204346,0.3322346806526184,0.2062414586544037,0.18691298365592957,-0.1816311478614807,-0.06231318414211273,0.26087597012519836,-0.13892169296741486,0.209554061293602,-0.0815088227391243,0.35101252794265747,-0.5569638609886169,-0.6121100783348083,-0.08084668964147568,-0.06634079664945602,0.33588075637817383,-0.3565167188644409,-0.14207039773464203,0.3698917329311371,0.07213437557220459,0.5615112781524658,-0.10890346020460129,-0.1619972288608551,0.7905942797660828,-0.5238633155822754,-0.5230666995048523,-0.004020086955279112,0.5982409715652466,0.30426082015037537,0.7539558410644531,0.21995903551578522,-0.6072642207145691,0.2584083378314972,0.965458333492279,-0.32349297404289246,-0.21767392754554749,0.3763500452041626,0.2773614227771759,-0.631166934967041,-0.6368237137794495,0.3314841389656067,-0.15506047010421753,0.23584766685962677,0.15284670889377594,0.4587073028087616,0.2745416760444641,0.044052086770534515,-0.0630054622888565,-0.4392625391483307,0.47368332743644714,-0.26375749707221985,0.244256854057312,0.09550712257623672,-0.3685547709465027,0.413980633020401,-0.06125660985708237,0.4480532109737396,-0.361099511384964,-0.2026536613702774,-0.280195027589798,-0.046692196279764175,-0.008299020119011402,0.010793771594762802,-0.04343561828136444,-0.07658323645591736,-0.06678652763366699,-0.3948337137699127,-0.006665373686701059,0.2729156017303467,0.06047738343477249,0.027440590783953667,-0.25535452365875244,0.3265841007232666,-0.15072515606880188,-0.2732875943183899,0.0035944818519055843,-0.4993281066417694,0.06386037915945053,0.1598300188779831,-0.035774849355220795,0.010071802884340286,0.07341277599334717,0.5384569764137268,-0.23093260824680328,-0.0186874121427536,-0.44216039776802063,0.008552798070013523,-0.3737999498844147,-0.2525617778301239,-0.00313938339240849,-0.12257684767246246,0.007753179408609867,0.07745411247015,-0.3450075089931488,-0.18434922397136688,-0.18820610642433167,-0.02036028727889061,0.5086446404457092,0.04558854550123215,-0.14994710683822632,0.5057923793792725,-0.08981425315141678,-0.2007591873407364,0.030671076849102974,0.009272194467484951,0.042601313441991806,-0.08062876015901566,-0.0001900618226500228,-0.4534596800804138,0.19503352046012878,-0.049973342567682266,0.11947202682495117,-0.19768354296684265,0.018843481317162514,0.08359839022159576,0.06578134000301361,0.15122418105602264,0.0018412856152281165,0.15876325964927673,-0.13669781386852264,0.2622719705104828,-0.0426553376019001,0.04558566212654114,-0.014593294821679592,-0.36466625332832336,-0.028378421440720558,-0.08959642052650452,-0.14355264604091644,0.01942640170454979,0.36107560992240906,0.3868757486343384,-0.26134467124938965,0.07563196122646332,-0.3943665325641632,-0.06810630112886429,-0.15040433406829834,0.08089353889226913,0.034418996423482895,0.35567545890808105,-0.026427265256643295,0.12005017697811127,0.27080902457237244,0.5009064078330994,-0.09656523168087006,0.2359604835510254,0.1246328353881836,-0.03204278647899628,0.1505412608385086,-0.1412951946258545,-0.0664091482758522,0.18891899287700653,-0.16274060308933258,0.26568126678466797,0.07615640759468079,0.01098547875881195,-0.06096122786402702,-0.1607016772031784,0.12358822673559189,-0.0472121424973011,0.055163849145174026,0.02798822708427906,0.11799845099449158,0.17855164408683777,-0.03252333402633667,-0.06341423839330673,-0.07501009106636047,0.3490345776081085,-0.08407443761825562,0.1045445129275322,0.2010069042444229,-0.07537713646888733,-0.1864132136106491,-0.010502614080905914,0.028761163353919983,-0.0964030846953392,-0.3300652503967285,-0.11816035211086273,0.12121182680130005,0.2892785370349884,0.2293260544538498,0.3627417981624603,-0.39368385076522827,0.12617722153663635,-0.24100303649902344,-0.03628223389387131,0.09759791195392609,-0.04519246146082878,0.07467719167470932,-0.16818715631961823,-0.41391611099243164,-0.32935822010040283,0.11625461280345917,0.1702391505241394,0.5087146759033203,0.05016165226697922,0.0702880248427391,-0.32081592082977295,-0.17383384704589844,0.08876539021730423,-0.08036448806524277,-0.1886225789785385,-0.11052845418453217,0.18491032719612122,-0.1145167425274849,0.2486150711774826,0.02991911768913269,-0.027232438325881958,-0.3165372610092163,-0.15417449176311493,0.30948391556739807,-0.21529032289981842,0.08251669257879257,-0.16986940801143646,-0.2881160378456116,0.07056287676095963,-0.21559463441371918,0.07656256854534149,-0.5081124305725098,0.20416736602783203,-0.27706602215766907,0.48207658529281616,-0.4395749270915985,0.025985559448599815,0.2102775275707245,0.3270082473754883,-0.5702123641967773,-0.6403440237045288,-0.2201203554868698,-0.34693607687950134,0.2848479449748993,0.11994020640850067,-0.19199277460575104,-0.3657893240451813,-0.1701529622077942,-0.24276141822338104,0.1912897229194641,0.14661461114883423,0.11097756773233414,-0.09076934307813644,0.09774161875247955,0.41961055994033813,-0.32421454787254333,-0.11751289665699005,-0.3773675858974457,0.3778216540813446,0.029057994484901428,-0.2754352390766144,0.3846433162689209,-0.07687636464834213,0.35723620653152466,-0.22823704779148102,-0.3798312246799469,0.029425982385873795,0.14201891422271729,-0.08213429152965546,0.4775356650352478,-0.2058226764202118,-0.04077834263443947,-0.01065019890666008,0.10531661659479141,0.3018684685230255,0.13153769075870514,0.33509117364883423,0.09481000900268555,0.30314967036247253,-0.11357776820659637,-0.2815890908241272,-0.027150198817253113,0.021093381568789482,-0.0684700533747673,-0.1269066035747528,-0.12710942327976227,-0.33103689551353455,-0.1870233714580536,0.0020558040123432875,0.14858770370483398,-0.41529199481010437,0.5668754577636719,-0.07201743870973587,0.06470463424921036,0.08033255487680435,0.03540445864200592,-0.08654669672250748,0.10998983681201935,-0.17665591835975647,-0.17333722114562988,0.4667847156524658,-0.019496075809001923,0.4141349196434021,0.345368355512619,0.05241502448916435,0.12410387396812439,0.28761643171310425,0.18891189992427826,-0.028463149443268776,0.1480685919523239,-0.04128352552652359,-0.046951811760663986,-0.05297927185893059,-0.09266002476215363,0.25791770219802856,0.041745737195014954,-0.009690620936453342,0.0370432585477829,0.015311618335545063,-0.4437647759914398,0.03992535546422005,-0.08774352818727493,0.0038244095630943775,0.07115986943244934,-0.06796007603406906,-0.08068300783634186,-0.09607052803039551,0.06015286222100258,0.017710387706756592,-0.17197073996067047,-0.17159759998321533,0.6103046536445618,0.2773406207561493,-0.7636855244636536,1.001544713973999,-0.04986044391989708,0.21457606554031372,0.42692282795906067,-0.4215146005153656,0.5568819642066956,0.305630624294281,0.09965205192565918,-0.1988755166530609,-0.07662153244018555,-0.6464756727218628,0.007452747784554958,-0.11064694821834564,-0.04658784344792366,-0.015579505823552608,0.34323233366012573,-0.03904007375240326,0.04946412146091461,-0.35145053267478943,0.10918412357568741,-0.15924367308616638,0.3172752559185028,0.18855202198028564,-0.19623319804668427,0.17437659204006195,-0.3730909824371338,-0.04870123043656349,0.06722106784582138,-0.3046768605709076,0.15952274203300476,0.02029642090201378,0.3096497356891632,0.15102462470531464,0.07353184372186661,-0.3290461599826813,-0.03130858764052391,0.25875094532966614,0.2409820258617401,0.0017977849347516894,-0.11949918419122696,0.22582484781742096,0.263542115688324,0.03689989075064659,0.03400621563196182,-0.060520511120557785,0.298694372177124,0.039165347814559937,0.0028761751018464565,-0.03160925209522247,0.2020057588815689,0.06789878755807877,0.11458640545606613,-0.030201679095625877,-0.015044872649013996,0.12193060666322708,0.20979739725589752,-0.4195593595504761,-0.12989188730716705,0.12739311158657074,0.0637383684515953,-0.42251288890838623,-0.31584054231643677,0.033731620758771896,0.3081938624382019,-0.15562376379966736,-0.5030305981636047,-0.023354357108473778,0.2561097741127014,-0.18596744537353516,0.05680609494447708,0.25137829780578613,-0.48710721731185913,-0.144973024725914,0.0002632103569339961,-0.13249976933002472,0.07631979137659073,0.15692411363124847,0.19013994932174683,-0.06929250061511993,-0.13496528565883636,-0.05525023117661476,0.032639842480421066,0.08967471867799759,-0.02383081242442131,-0.09313290566205978,-0.05209273844957352,0.3082497715950012,-0.05486920848488808,0.31364351511001587,0.09354041516780853,-0.08276781439781189,-0.03939589485526085,-0.04683494195342064,-0.3991142213344574,0.1248391792178154,0.06596911698579788,-0.17156478762626648,0.10969282686710358,-0.23922890424728394,0.0671675056219101,-0.26419827342033386,-0.1330506056547165,0.189810112118721,0.14285896718502045,0.13354086875915527,0.4295622706413269,-0.10529564321041107,0.0005666397046297789,-0.2790359556674957,-0.2889866828918457,0.1058393344283104,-0.07100403308868408,0.19798609614372253,-0.1350497156381607,-0.21798081696033478,0.17415979504585266,-0.03920573741197586,0.27100870013237,-0.15861696004867554,0.19571298360824585,0.5497425198554993,0.06710666418075562,-0.012170393951237202,-0.13771861791610718,0.07793951034545898,-0.2814827561378479,-0.042841050773859024,-0.465145081281662,-0.17517946660518646,-0.0013785074697807431,0.3831195533275604,0.057382047176361084,-0.3835005760192871,0.2950341999530792,-0.1621302217245102,0.12777602672576904,-0.31424182653427124,0.10634635388851166,-0.1450320929288864,-0.3101245164871216,0.19093331694602966,-0.03674813732504845,0.2912103235721588,0.1487470418214798,0.08979988843202591,-0.08105982840061188,-0.14045530557632446,-0.3268624246120453,-0.07261525094509125,-0.041258107870817184,0.2611069679260254,-0.21959520876407623,-0.20387513935565948,0.28103306889533997,-0.09494155645370483,0.05510418489575386,-0.37065643072128296,0.08122073858976364,0.048529431223869324,0.1863703727722168,0.3189471662044525,-0.41076400876045227,-0.3228372633457184,0.057295698672533035,-0.16264007985591888,-0.35739901661872864,0.1844191551208496,-0.12982402741909027,0.32085633277893066,0.20258069038391113,0.12593461573123932,0.2779393792152405,-0.27267181873321533,-0.24855045974254608,-0.26109954714775085,-0.12131310254335403,-0.03395581990480423,0.08743230998516083,0.07458668947219849,0.2806720435619354,-0.06535706669092178,-0.3163392245769501,0.24136437475681305,0.1473294347524643,-0.3058316707611084,0.043640077114105225,-0.1715485155582428,0.03466804325580597,0.17228266596794128,0.19829902052879333,-0.047394249588251114,0.012757622636854649,0.44837456941604614,0.1045122966170311,0.04006929695606232,-0.09117548912763596,-0.19849102199077606,0.07520173490047455,0.07248128205537796,-0.511602520942688,0.08680249005556107,0.11946821957826614,0.15057237446308136,0.1939641386270523,0.31375056505203247,-0.2664845883846283,0.0508837029337883,-0.017238415777683258,0.09967272728681564,0.010142815299332142,-0.2493094950914383,0.16999377310276031,-0.0013914640294387937,-0.23672382533550262,-0.17585420608520508,-0.28964611887931824,-0.2589798867702484,0.2869766354560852,0.04433881863951683,0.061476171016693115,0.0741565078496933,-0.05511387065052986,0.04088615998625755,-0.08899831026792526,0.06022504344582558,-0.08100181072950363,-0.3553588390350342,-0.08669707179069519,0.07568240165710449,0.2300620675086975,-0.44354763627052307,0.14885349571704865,0.38880684971809387,-0.14090818166732788,-0.12334463000297546,0.02583193965256214,0.1115938127040863,-0.04623144492506981,-0.15403886139392853,-0.1466115266084671,0.1619790494441986,0.02619868703186512,-0.14573462307453156,0.14745227992534637,0.13278020918369293,0.04086972400546074,0.06629475951194763,-0.04611516371369362,0.18997924029827118,0.06576717644929886,0.06559323519468307,0.2719648480415344,-0.076225645840168,0.04498796537518501,-0.294600248336792,-0.3481431007385254,0.15197962522506714,-0.004407316446304321,-0.27190786600112915,0.2087913453578949,0.07773079723119736,0.04062638804316521,0.12002743780612946,-0.22432100772857666,0.07769230753183365,-0.15959693491458893,0.1187167689204216,0.13726764917373657,0.11325379461050034,0.1386130452156067,0.05314544588327408,-0.0026299813762307167,0.25102514028549194,0.4065217077732086,-0.0916547179222107,-0.2678920328617096,0.05862706899642944,0.14642208814620972,-0.017447708174586296,0.006111246068030596,-0.07004751265048981,0.0707520842552185,0.09323281049728394,0.1570960134267807,-0.06146761402487755,-0.03411378338932991,0.08737439662218094,0.053924523293972015,0.07654138654470444,-0.11058734357357025,0.10411911457777023,0.23078739643096924,-0.012015542946755886,0.028353361412882805,0.41459816694259644,0.10227125138044357,0.12030885368585587,-0.1607106626033783,-0.03187907114624977,-0.1541346311569214,0.3633471429347992,0.06680647283792496,0.042358268052339554,-0.1827576756477356,-0.13524650037288666,0.06335373967885971,0.22360168397426605,0.0943177118897438,0.23349912464618683,0.12063076347112656,0.10533057898283005,-0.0777343362569809,-0.21160714328289032,0.12477833777666092,0.29147544503211975,0.05895575135946274,0.2784464955329895,-0.0602816604077816,-0.4979765713214874,0.14512239396572113,-0.17212729156017303,-0.12927673757076263,0.11281754076480865,0.23844200372695923,-0.35096362233161926,0.19344519078731537,0.15653863549232483,-0.2844117283821106,0.07035411894321442,-0.2345975637435913,-0.013650022447109222,0.331632137298584,0.3883519470691681,0.04159499332308769,0.33151596784591675,0.5243237614631653,0.11599612981081009,0.07432183623313904,0.4843038022518158,0.2515568137168884,-0.31872016191482544,-0.5008475184440613,0.5420464277267456,-0.286798357963562,-0.03576566278934479,0.17369475960731506,0.07425468415021896,-0.10724510252475739,-0.18545027077198029,-0.07715164124965668,-0.01769877038896084,-0.16009975969791412,0.048371147364377975,0.2564869523048401,-0.7222306132316589,0.0774519294500351,0.29227328300476074,0.2745656669139862,-0.23127123713493347,-0.2820764183998108,0.1470775455236435,-0.18909808993339539,0.2180858850479126,-0.32723018527030945,0.07662101835012436,-0.08313986659049988,0.10262776166200638,0.08834800124168396,0.10254652798175812,-0.37999776005744934,-0.24743503332138062,0.11656524986028671,0.08778619021177292,0.060456130653619766,0.08006741851568222,-0.1024465411901474,0.02304534986615181,-0.22379447519779205,-0.16431240737438202,-0.4605243504047394,-0.10466466844081879,-0.17912426590919495,-0.1395849883556366,0.19056616723537445,-0.4816608428955078,-0.16129697859287262,0.1182081326842308,-0.08302607387304306,0.03107059746980667,-0.11605831235647202,0.03646775707602501,0.15942969918251038,0.0006380384438671172,0.14038453996181488,-0.15453995764255524,-0.021671703085303307,-0.08674696087837219,0.14003007113933563,-0.01525077410042286,-0.11799220740795135,-0.08638262003660202,0.0521811917424202,-0.18609124422073364,0.3178550601005554,-0.009720086120069027,0.13824228942394257,-0.25742435455322266,-0.05363590270280838,0.12323960661888123,-0.23832695186138153,-0.041371122002601624,0.0897231474518776,0.0005853395559825003,-0.04160117730498314,0.10391388088464737,-0.2848774194717407,0.03307325392961502,-0.5591585040092468,-0.36088621616363525,0.0017307288944721222,0.02328347973525524,-0.22027072310447693,-0.12204518914222717,0.042869679629802704,0.02168975956737995,-0.12239579111337662,0.12827296555042267,0.26029232144355774,0.44454437494277954,0.1589268296957016,-0.3669920265674591,-0.257580429315567,0.1919974982738495,-0.020291797816753387,0.04417325183749199,0.05643976852297783,-0.15185029804706573,-0.006417956203222275,-0.47295910120010376,-0.021372484043240547,-0.18388207256793976,-0.4793834090232849,0.1667845994234085,0.02632112428545952,0.0628996416926384,0.21357247233390808,-0.1437489539384842,0.04116390645503998,0.40586480498313904,-0.06449864059686661,0.229547381401062,-0.23362794518470764,-0.1702999770641327,-0.10074827075004578,0.030514603480696678,0.26216280460357666,0.2061070054769516,-0.37615466117858887,0.1846684366464615,-0.004809945821762085,-0.12366504967212677,0.24790683388710022,0.02656874991953373,0.043025869876146317,0.2866964340209961,-0.1937381625175476,0.13336904346942902,0.021102819591760635,-0.0992855578660965,-0.16069045662879944,-0.042085252702236176,-0.11839717626571655,0.1804276406764984,0.36225640773773193,0.10925129055976868,0.6259147524833679,0.09301823377609253,-0.06863532215356827,0.5433441996574402,-0.0006505333003588021,0.10595997422933578,-0.15746016800403595,0.09721221774816513,-0.14286170899868011,-0.07850713282823563,-0.28725454211235046,-0.3971866965293884,-0.10495930910110474,-0.20660467445850372,-0.08978064358234406,-0.37070533633232117,-0.16836503148078918,0.035595379769802094,-0.004467626102268696,-0.32223451137542725,0.05991024523973465,-0.3486652970314026,-0.027005037292838097,0.04819892346858978,-0.16089041531085968,0.001889228355139494,-0.15278398990631104,0.12274181097745895,0.09952238202095032,0.20796367526054382,-0.433522492647171,0.13454531133174896,-0.011903021484613419,-0.08829371631145477,-0.14048214256763458,0.09732454270124435,-0.10815276205539703,-0.09911750257015228,-0.08859501779079437,0.046950917690992355,-0.15892226994037628,-0.05537174642086029,-0.041462402790784836,0.09070349484682083,0.2791219651699066,0.48783567547798157,0.16525951027870178,0.043441370129585266,0.006614489480853081,0.10781347006559372,0.07101607322692871,0.03588870167732239,0.3957655131816864,0.1193804144859314,0.10989532619714737,0.340330570936203,0.35576745867729187,0.32153618335723877,0.412874311208725,-0.29747894406318665,0.17696060240268707,0.6022502779960632,-0.3716031312942505,0.31616735458374023,-0.03574825078248978,0.08833777159452438,-0.10566495358943939,0.09332194179296494,0.2511754631996155,-0.14689740538597107,-0.4176311194896698,-0.1291503608226776,-0.3099762797355652,0.5020274519920349,0.6636543869972229,-0.3079640865325928,-0.4166984260082245,0.19515033066272736,-0.2212638258934021,0.03370261564850807,0.1986476331949234,-0.0445166751742363,0.20468471944332123,-0.014101127162575722,0.17121699452400208,0.20200298726558685,-0.5086455941200256,-0.2957741618156433,-0.1619948446750641,0.3321486711502075,-0.32609719038009644,-0.009115045890212059,0.30041536688804626,0.07107098400592804,0.30813780426979065,-0.8432108163833618,0.2080082893371582,-0.1497851461172104,-0.09509507566690445,0.25891995429992676,0.6645927429199219,-0.3569173812866211,0.1793273538351059,0.10234393924474716,0.3630484342575073,-0.4055492579936981,-0.43369361758232117,-0.1302647739648819,-0.35382193326950073,-0.17392753064632416,0.3284680247306824,-0.35556507110595703,-0.23417703807353973,0.37612101435661316,-0.19209414720535278,-0.09568562358617783,-0.43682998418807983,-0.14426292479038239,-0.24945293366909027,0.461051881313324,0.12076058983802795,0.34997063875198364,-0.005816025193780661,-0.0512438602745533,-0.40086233615875244,0.07388856261968613,0.34392380714416504,0.20103435218334198,-0.21134524047374725,-0.15208978950977325,-0.4372311532497406,-0.06693103164434433,0.2005372941493988,0.16317318379878998,-0.21344654262065887,0.003970683552324772,0.06240605562925339,-0.5466667413711548,0.17667299509048462,0.26024988293647766,-0.20768937468528748,-0.15566767752170563,-0.022270940244197845,-0.11176203936338425,-0.09305151551961899,0.06995916366577148,-0.46412861347198486,0.5007897019386292,0.43465641140937805,0.2713238596916199,-0.2745712399482727,0.10188260674476624,-0.02921205200254917,-0.1178922951221466,0.2675851881504059,-0.4041511118412018,0.11983445286750793,-0.4226762652397156,0.23084427416324615,-0.1655285507440567,-0.20690977573394775,0.05955866724252701,0.10960616916418076,-0.24310915172100067,0.018854837864637375,-0.2814566493034363,-0.4544089734554291,-0.42075198888778687,0.11459524184465408,0.09020281583070755,0.04503869265317917,-0.10909568518400192,0.19503965973854065,-0.597995936870575,0.1666233092546463,0.5557621121406555,-0.2743033766746521,0.03467835485935211,-0.37303927540779114,-0.02207646705210209,-0.28407102823257446,0.04835853353142738,-0.023481901735067368,0.29003894329071045,-0.07005652040243149,0.035320840775966644,-0.040683772414922714,-0.24283993244171143,-0.2595038414001465,-0.1167701929807663,0.3107360601425171,0.04083700105547905,-0.006909993942826986,0.9878578186035156,0.512627363204956,-0.0981270894408226,-0.9245855808258057,0.8657662868499756,-0.412362277507782,-0.7263157367706299,0.5415786504745483,-0.08817829936742783,-0.48565492033958435,0.09794836491346359,-0.030423389747738838,-0.41238731145858765,-0.21264499425888062,-0.2798461318016052,-0.22093039751052856,-0.07277905941009521,-0.17554789781570435,-0.34335461258888245,-0.5205616354942322,0.06639095395803452,0.2522642910480499,-0.6531882286071777,-0.025547735393047333,-0.6685569286346436,0.8733069896697998,0.03602484613656998,-0.2822733521461487,0.5676707029342651,-0.017704905942082405,-0.03849280998110771,-0.44159865379333496,0.3914557993412018,-0.25702616572380066,0.22393974661827087,-0.1281859427690506,0.49913841485977173,0.025270361453294754,0.09440965205430984,0.08727925270795822,-0.36511608958244324,0.31619393825531006,0.24878132343292236,-0.12774425745010376,0.08979003876447678,0.3549116551876068,-0.24829888343811035,0.5145084261894226,-0.02073030173778534,0.5084685683250427,0.1052560955286026,0.17043155431747437,-0.390865683555603,0.07371614128351212,-0.34769341349601746,0.36704400181770325,-0.07789609581232071,-0.09382185339927673,0.24197018146514893,-0.21781037747859955,-0.3064097762107849,0.22439752519130707,-0.022954557090997696,-0.058172933757305145,0.11298965662717819,-0.12946484982967377,0.05148322135210037,0.07253029197454453,0.03251602128148079,-0.062981016933918,0.3061157763004303,-0.282266765832901,0.1731695681810379,0.13613493740558624,0.04633137583732605,-0.4738641381263733,0.21002797782421112,0.0884735956788063,0.15838173031806946,0.045429594814777374,0.6132487058639526,-0.13126277923583984,0.15202543139457703,-0.02556387335062027,-0.015528898686170578,-0.4434705376625061,-0.19122911989688873,0.16353201866149902,-0.18738676607608795,0.13475610315799713,0.12882941961288452,-0.20153236389160156,0.46213340759277344,0.019964884966611862,0.3229769170284271,0.06474113464355469,-0.29259565472602844,-0.030767247080802917,-0.5018284320831299,-0.2142743468284607,-0.04866190627217293,0.3360266387462616,-0.008433205075562,0.11298570781946182,0.37300461530685425,0.03735731169581413,-0.15822307765483856,-0.0037414568942040205,0.09538013488054276,-0.5177780389785767,-0.08821084350347519,-0.2502754330635071,0.11626584082841873,-0.15307369828224182,0.017810119315981865,0.09445919096469879,-0.031448908150196075,0.030552508309483528,-0.14205338060855865,-0.11000949144363403,0.045528244227170944,0.1898789405822754,-0.02832162380218506,-0.10991170257329941,-0.19254586100578308,-0.03912399336695671,-0.19155381619930267,0.02758965827524662,-0.22529438138008118,-0.004412186332046986,-0.3259941637516022,-0.114273801445961,-0.4634770154953003,0.1559983342885971,0.37394702434539795,-0.09066777676343918,-0.2177862823009491,0.15152212977409363,-0.016613833606243134,-0.09499166905879974,0.24187743663787842,-0.22786977887153625,-0.00016092303849291056,0.19301936030387878,0.17164191603660583,0.05273335799574852,0.13251060247421265,0.26174458861351013,-0.20650312304496765,0.11376004666090012,0.1629115343093872,0.508949339389801,-0.06157808005809784,-0.22289933264255524,-0.20745868980884552,-0.07513020932674408,-0.13311776518821716,-0.4307590126991272,0.0019413067493587732,-0.0599014088511467,0.1918439418077469,0.05565332621335983,-0.02350503019988537,-0.13258738815784454,-0.18915002048015594,0.03244321793317795,0.17517051100730896,-0.003169384552165866,0.09293337911367416,-0.018840918317437172,0.10180535912513733,0.00396269466727972,0.24637457728385925,0.29047349095344543,0.14164060354232788,-0.3901231586933136,0.21100416779518127,-0.020373322069644928,-0.0412624217569828,0.20490258932113647,0.09540394693613052,-0.40548402070999146,0.23632493615150452,0.15350842475891113,-0.14326895773410797,0.14384245872497559,-0.04400191456079483,-0.3405400514602661,-0.09915127605199814,-0.12607425451278687,0.4052940905094147,0.025747263804078102,0.14235369861125946,-0.4513891041278839,-0.06891001760959625,-0.7252742648124695,0.04879095405340195,-0.2108764350414276,-0.41031551361083984,0.3103993237018585,-0.05697464197874069,0.23504266142845154,-0.06617917120456696,-0.32819390296936035,-0.2726186513900757,0.22764495015144348,0.060355283319950104,0.032593946903944016,0.46369633078575134,0.131509467959404,0.6146942973136902,-0.27473926544189453,-0.08650775998830795,0.5849167704582214,-0.5485305786132812,0.06787122786045074,-0.3037930428981781,-0.2936282157897949,0.009688850492238998,-0.20752866566181183,1.3944125175476074,0.33683639764785767,-0.5150996446609497,0.25513458251953125,0.0770866796374321,-0.8072993755340576,0.3535582721233368,0.0211570356041193,-0.30649012327194214,0.9341189861297607,0.40245142579078674,0.2604418992996216,-0.40967386960983276,0.32042163610458374,-0.239308699965477,-0.27416378259658813,-0.057334620505571365,0.17677642405033112,0.30985507369041443,-0.02133050002157688,-0.6154612898826599,-0.5464600920677185,-0.26614680886268616,0.4852198362350464,-0.02758844941854477,0.39121243357658386,-0.1145838052034378,0.05310353636741638,0.04603814706206322,0.24479471147060394,-0.3984433710575104,0.1933058649301529,-0.24870502948760986,-0.3938089907169342,0.4361511170864105,-0.2500177323818207,0.11135344952344894,0.177887424826622,0.05890743434429169,0.4425942003726959,0.1588558703660965,-0.6020399928092957,-0.35705405473709106,-0.04529368132352829,0.11971215158700943,0.016202446073293686,-0.09553132951259613,-0.46991172432899475,0.8307812809944153,-0.24744024872779846,-0.2676839530467987,0.9536167979240417,0.13199426233768463,-0.4275342524051666,-0.6171582937240601,0.13237658143043518,-0.2374207228422165,-0.04948476329445839,-0.34409648180007935,-0.17015591263771057,0.2170516848564148,-0.37138059735298157,-0.22489194571971893,0.5029716491699219,0.041634928435087204,0.46254462003707886,-0.11256066709756851,-0.3460463285446167,-0.2484523057937622,0.21563664078712463,-0.038773272186517715,0.11142051219940186,-0.008712699636816978,0.12198953330516815,0.14874063432216644,0.0708077996969223,-0.03549331799149513,0.09671351313591003,-0.014246650971472263,0.16131862998008728,-0.051016926765441895,0.06155061349272728,-0.37920528650283813,-0.10790982842445374,0.17253856360912323,0.2116447389125824,-0.2783099114894867,0.1540186107158661,0.07287021726369858,-0.043821368366479874,-0.002394262235611677,-0.1154327467083931,-0.0650540366768837,-0.18473725020885468,-0.09905924648046494,-0.029269041493535042,-0.1551613062620163,0.006683070678263903,-0.051058024168014526,-0.014753573574125767,-0.13849365711212158,-0.06777161359786987,0.22610320150852203,-0.08528182655572891,0.1843702793121338,-0.07292517274618149,0.12969717383384705,0.11056852340698242,-0.09698158502578735,0.10278279334306717,-0.11918506026268005,-0.42263683676719666,-0.5272564888000488,-0.1414615958929062,-0.115435391664505,-0.4660973846912384,0.23030616343021393,-0.015575488097965717,-0.4822557270526886,-0.1788918375968933,0.0067863850854337215,-0.3297651410102844,0.0211198590695858,0.006539368070662022,-0.08164146542549133,-0.29279834032058716,-0.2641509771347046,0.02624831162393093,-0.24928656220436096,0.004847531672567129,-0.3564068377017975,-0.09957239776849747,0.06582088768482208,0.34682318568229675,0.09575147181749344,0.03833958879113197,0.16700121760368347,0.08466683328151703,0.017956208437681198,0.23880456387996674,0.028603799641132355,-0.014619844034314156,-0.1062556579709053,-0.20102517306804657,-0.047276079654693604,-0.29607242345809937,0.01838335394859314,0.08948180079460144,0.5215895175933838,-0.2199070155620575,0.047075070440769196,-0.3384621739387512,-0.03330573812127113,0.00017842030501924455,-0.11355019360780716,-0.013240964151918888,0.1758013367652893,0.02220189943909645,-0.18541322648525238,-0.23220016062259674,-0.5439537763595581,0.19883278012275696,0.07570447772741318,0.0006242640083655715,-0.1628662496805191,-0.03880634158849716,-0.10801666975021362,0.3415970802307129,0.2400713711977005,-0.3210894465446472,-0.3010929524898529,-0.21535159647464752,0.07557904720306396,-0.026398591697216034,0.028009086847305298,0.30153992772102356,0.44471409916877747,0.018338734284043312,-0.10011007636785507,0.3472394347190857,0.511218786239624,0.03495122119784355,-0.5725931525230408,-0.3612363040447235,-0.3762475550174713,0.3887869715690613,-0.09902992099523544,0.5088318586349487,0.010802322998642921,-0.1871875673532486,0.5663347244262695,-0.054895635694265366,-0.7910682559013367,-0.31623783707618713,0.054446928203105927,-0.11137602478265762,-0.469768762588501,0.23952320218086243,-0.07589855790138245,0.034410469233989716,0.16270729899406433,0.027766453102231026,0.1576693058013916,-0.2620077133178711,-0.0768299400806427,-0.2696802616119385,-0.08812412619590759,0.3798423111438751,0.0534757599234581,-0.34269341826438904,0.035909198224544525,-0.0632413849234581,-0.28842243552207947,0.3052912950515747,-0.021840661764144897,0.08384506404399872,0.24460943043231964,0.33844900131225586,0.1027379110455513,-0.20121142268180847,0.13503055274486542,0.01666628010571003,0.16100534796714783,0.16876287758350372,-0.2544289231300354,0.07335338741540909,0.07976293563842773,-0.015500776469707489,-0.005657708737999201,0.17564459145069122,-0.4060075283050537,-0.03007255494594574,0.07062917202711105,0.09052056074142456,-0.21174772083759308,-0.08042404055595398,0.017268775030970573,-0.04037151485681534,-0.3145749270915985,0.1241178885102272,0.050907813012599945,-0.41123396158218384,-0.05835919827222824,-0.09273655712604523,-0.431368350982666,-0.2471846640110016,0.40246909856796265,0.024458320811390877,0.21300630271434784,0.17082463204860687,0.30804240703582764,0.06671273708343506,-0.16669271886348724,0.11653745174407959,0.08233198523521423,0.0755995661020279,-0.11813917011022568,0.07141318172216415,-0.024910179898142815,0.33207353949546814,0.10423130542039871,-0.12473137676715851,0.07774113863706589,0.36424800753593445,-0.1133546233177185,-0.08863701671361923,-0.07844224572181702,0.08019950985908508,0.035101037472486496,0.40462973713874817,0.12283315509557724,-0.056748390197753906,0.11848189681768417,-0.02667826972901821,-0.24380901455879211,-0.5350049138069153,0.21728819608688354,0.29129156470298767,0.22981774806976318,-0.08737898617982864,-0.0938270166516304,-0.011248850263655186,0.07736077904701233,0.26504772901535034,-0.09482764452695847,-0.10377071052789688,0.16878686845302582,-0.16462580859661102,-0.031447675079107285,-0.3232958912849426,0.012720683589577675,0.41414880752563477,0.13224086165428162,0.12227591127157211,0.07707627862691879,-0.025069938972592354,-0.14197221398353577,0.3087206482887268,0.20649610459804535,-0.008549817837774754,-0.008867708034813404,-0.021237773820757866,-0.24232135713100433,0.07944266498088837,-0.2502686083316803,-0.3819790780544281,0.1023414209485054,-0.3436875343322754,0.6061069369316101,-0.07012787461280823,0.1091536357998848,0.11610818654298782,0.008928694762289524,-0.16980808973312378,0.10206713527441025,-0.027654796838760376,-0.2030434012413025,0.360345721244812,-0.3645399808883667,0.02923746593296528,0.1653262823820114,0.1853955090045929,-0.08245354145765305,-0.1690332591533661,-0.12104976922273636,-0.15100529789924622,0.1566665917634964,-0.14102087914943695,0.17797064781188965,-0.25361594557762146,0.10453204065561295,-0.011699466966092587,-0.26275956630706787,-0.21948786079883575,-0.04232945293188095,0.12635202705860138,0.14585086703300476,0.39075687527656555,0.2057253122329712,-0.2591154873371124,-0.25221097469329834,-0.12923496961593628,-0.13787128031253815,-0.30799373984336853,0.0047671920619904995,0.2245996743440628,0.26935213804244995,-0.07220803201198578,-0.18798866868019104,0.469807505607605,-0.3831835985183716,-0.0579141303896904,-0.28243741393089294,0.32256239652633667,0.06513412296772003,-0.10832235217094421,0.23496073484420776,-0.37114524841308594,-0.283755362033844,-0.17885911464691162,0.1609618365764618,0.1349361687898636,0.03737390786409378,0.11201216280460358,0.12065672129392624,-0.17916367948055267,-0.012830019928514957,-0.16770264506340027,-0.08093675971031189,-0.33198368549346924,-0.3879082500934601,0.2960872948169708,-0.07975957542657852,0.030169012024998665,-0.03858737275004387,0.3059547245502472,-0.19905497133731842,-0.012551096267998219,-0.015145224519073963,-0.0571439303457737,-0.022405579686164856,0.3643842041492462,0.14104337990283966,0.1705881804227829,0.04824334383010864,-0.548514187335968,-0.1600305438041687,0.26532942056655884,0.21156109869480133,0.7592728734016418,0.13396666944026947,-0.042815279215574265,-0.23918533325195312,-0.28157418966293335,-0.07363726198673248,0.287727952003479,-0.14705704152584076,-0.30554085969924927,0.014037784188985825,-0.29735755920410156,0.18806259334087372,0.6809242963790894,0.17758992314338684,0.053517766296863556,0.04667716100811958,0.0409453921020031,0.326180100440979,0.4342769682407379,0.012579568661749363,0.03975443169474602,-0.031184475868940353,-0.061554521322250366,0.14925439655780792,0.4142427146434784,-0.15205617249011993,0.1409410834312439,-0.05314422771334648,0.021130185574293137,-0.2049962431192398,0.47971782088279724,0.050802480429410934,0.05689481273293495,0.24920055270195007,-0.40898630023002625,-0.03146519511938095,0.08516784757375717,0.11463800072669983,0.06220388785004616,-0.14265091717243195,-0.5694246888160706,0.1949523240327835,0.019133038818836212,0.005922727752476931,0.6556223630905151,0.5317468643188477,0.057435374706983566,0.18964573740959167,-0.2260100245475769,-0.06850240379571915,-0.19364440441131592,-0.2034604549407959,0.22689083218574524,0.09518180042505264,-0.1977819800376892,0.12351571023464203,-0.08726872503757477,-0.03560464829206467,0.23643170297145844,-0.08893987536430359,0.3290083110332489,0.10357234627008438,-0.41208407282829285,0.07054823637008667,-0.20371997356414795,0.04991066828370094,-0.07906178385019302,0.1782025694847107,0.18194185197353363,-0.026935219764709473,-0.2865894138813019,0.24732203781604767,0.37044069170951843,-0.12782639265060425,0.10603470355272293,-0.10659641027450562,-0.008930763229727745,0.12339071184396744,0.011796142905950546,-0.14122159779071808,-0.3397003412246704,-0.00017358982586301863,0.13349787890911102,-0.08048947155475616,0.06610071659088135,-0.02556178718805313,-0.26479336619377136,0.020933620631694794,0.24050278961658478,0.007124411873519421,0.1380460262298584,0.06049675866961479,0.08656550198793411,-0.13346035778522491,0.16085666418075562,-0.2664172351360321,0.16484642028808594,-0.046775396913290024,0.05147521570324898,-0.007445150054991245,0.04388943687081337,0.06005005165934563,0.03269403055310249,0.1461208313703537,0.11422716826200485,0.03328919783234596,-0.20543238520622253,0.29335325956344604,0.04896080493927002,-0.2708374261856079,-0.010708857327699661,0.0006859507993794978,0.15866436064243317,-0.14606976509094238,-0.011396224610507488,0.07223136723041534,-0.14776989817619324,-0.001972462050616741,-0.4337664842605591,-0.16885368525981903,0.14627060294151306,-0.32984957098960876,0.7317128777503967,-0.012537289410829544,0.5691810250282288,0.08156032115221024,-0.18704427778720856,-0.16237381100654602,-0.29506397247314453,-0.015157172456383705,-1.0281703472137451,0.26396891474723816,-0.132523775100708,-0.581885039806366,0.13971805572509766,-0.16358813643455505,-0.28232133388519287,0.007579632569104433,0.14594875276088715,0.22787907719612122,0.1509512960910797,-0.1324741393327713,0.0618349052965641,0.10717400163412094,0.17036382853984833,0.08883243799209595,0.09942997992038727,-0.2790086269378662,-0.34694385528564453,-0.03384995087981224,0.11381172388792038,-0.9157357811927795,-0.03285105526447296,-0.03587745875120163,0.12256613373756409,-0.0178671982139349,-0.09363442659378052,-0.6684823632240295,-0.3183707296848297,0.17466701567173004,-0.24616451561450958,-0.1431294083595276,-0.21153073012828827,0.19236807525157928,0.464029997587204,0.16213347017765045,-0.2637995481491089,0.15172508358955383,0.3803858458995819,-0.09762881696224213,0.2550903558731079,-0.012148506939411163,0.6471871137619019,-0.016737842932343483,-0.16235041618347168,0.14653511345386505,0.240350604057312,0.003608322236686945,0.15651370584964752,-0.026052232831716537,0.20074352622032166,-0.09752542525529861,-0.18612846732139587,-0.16888852417469025,0.18411611020565033,-0.20009379088878632,-0.00505481194704771,0.12686796486377716,-0.12214656919240952,-0.030604097992181778,0.20661494135856628,0.1326114535331726,0.180339977145195,0.18332728743553162,-0.018642067909240723,0.26921650767326355,-0.021171582862734795,0.02338261529803276,0.2755885124206543,-0.43749427795410156,0.2692631483078003,0.1862446814775467,0.35542482137680054,0.3588288128376007,0.3427199423313141,0.1485096514225006,-0.2203679084777832,-0.24191467463970184,0.18166139721870422,0.13367749750614166,0.0985608920454979,-0.09366440773010254,0.15577538311481476,0.2020389586687088,-0.20498795807361603,0.06597395986318588,0.0018097852589562535,-0.242768794298172,0.30269449949264526,-0.1048797070980072,0.14715462923049927,-0.024529779329895973,0.00037607838748954237,0.49458256363868713,-0.2398948222398758,0.13132642209529877,0.03428533673286438,-0.3502565324306488,-0.019813140854239464,0.01474953442811966,-0.023277388885617256,0.16677069664001465,-0.11279676109552383,0.08626288920640945,-0.2352094203233719,-0.33765456080436707,0.07882466912269592,0.07055936753749847,-0.06847585737705231,0.12380984425544739,0.0840778797864914,0.23179972171783447,0.30595049262046814,0.2779712975025177,-0.0353081040084362,-0.41713589429855347,-0.031063856557011604,-0.05024613067507744,-0.00478036655113101,-0.16578638553619385,0.20433898270130157,-0.015724677592515945,-0.21846647560596466,0.465033620595932,0.10326416790485382,0.02056107670068741,-0.2577769458293915,-0.010122590698301792,0.008010496385395527,0.0662766695022583,-0.22959312796592712,-0.19704684615135193,0.41080644726753235,0.1050705686211586,-0.31509149074554443,-0.013882780447602272,-0.01841200888156891,0.14938202500343323,-0.3716697096824646,0.08629518747329712,0.13227799534797668,-0.09827491641044617,-0.020234141498804092,-0.08549421280622482,0.21966208517551422,-0.18712519109249115,-0.08573979884386063,0.2607109844684601,0.09388671070337296,0.07024778425693512,0.5670300126075745,-0.1665782779455185,0.02794172614812851,0.22643603384494781,-0.15330274403095245,0.01424383744597435,0.1581478863954544,0.08132261037826538,-0.08258625864982605,-0.04375969246029854,-0.36068195104599,-0.16455872356891632,-0.06528475880622864,0.1135607585310936,0.004866846837103367,-0.0006343296845443547,0.1736353039741516,0.1348090022802353,-0.2528388500213623,0.3070678412914276,0.08641748875379562,-0.21678318083286285,0.0219428613781929,0.19966080784797668,-0.6128920316696167,-0.24691127240657806,0.03061518259346485,-0.16960911452770233,-0.19141918420791626,0.04819019138813019,-0.2725409269332886,0.053097717463970184,0.06672593951225281,-0.31812214851379395,0.490543931722641,-0.03126458078622818,0.03935754671692848,0.29731670022010803,-0.13585738837718964,1.9125876426696777,-0.1452583372592926,0.22808054089546204,-0.3442981243133545,0.3038332760334015,0.10201181471347809,-0.15996277332305908,-0.08029499650001526,0.20306803286075592,-0.5225236415863037,-0.07040590047836304,0.038942690938711166,-0.5495796203613281,-0.1451558768749237,-0.4703163802623749,-0.7181370258331299,-0.06821852177381516,0.3955928683280945,-0.33522093296051025,0.06589295715093613,0.1759578138589859,-0.1889728605747223,-0.4734209179878235,0.24090054631233215,-0.260982483625412,-0.12280064821243286,-0.3452470898628235,0.1560155153274536,-0.04970865696668625,0.24566650390625,-0.6267355680465698,-0.020903557538986206,-0.4878276586532593,0.45445117354393005,-0.052986834198236465,0.11423559486865997,-0.7724363803863525,0.0007623126730322838,0.045090705156326294,0.09694452583789825,0.1290206015110016,-0.09998489916324615,-0.10991057753562927,-0.1019381657242775,0.019591929391026497,1.2407249212265015,-0.17917485535144806,0.05158577114343643,0.33456066250801086,-0.05407898873090744,0.06693842262029648,-0.022046826779842377,-0.2386760115623474,-0.1626678705215454,-0.1855146288871765,0.009041535668075085,0.010172639973461628,0.22688603401184082,0.06447572261095047,-0.0005081756389699876,0.11545440554618835,-0.08392993360757828,-0.037466783076524734,0.11152934283018112,0.12106359750032425,0.08321543037891388,-0.06824362277984619,0.262346088886261,-0.21857476234436035,-0.5653973817825317,-0.11592554301023483,0.04895392432808876,0.011628563515841961,0.15368451178073883,0.06157000735402107,-0.014667811803519726,-0.12134940922260284,0.008793232031166553,0.029189396649599075,-0.051452599465847015,0.03286053240299225,0.015963276848196983,-0.07430101186037064,-0.18725913763046265,0.3370010256767273,0.00639559468254447,0.15543419122695923,-0.012422019615769386,0.007977946661412716,0.13112758100032806,-0.3552960455417633,0.12586498260498047,-0.01725049503147602,0.5705992579460144,0.08900909125804901,0.0754808634519577,0.15218409895896912,0.19176620244979858,0.039609719067811966,0.21952448785305023,0.19388069212436676,-0.10756600648164749,-0.39300522208213806,-0.24940502643585205,0.06870584189891815,0.17596276104450226,0.07947038114070892,0.004110144916921854,-0.22944413125514984,0.07018166780471802,-0.15506696701049805,0.1202157661318779,-0.031515177339315414,0.3415587842464447,0.15408171713352203,-0.14666250348091125,-0.12417731434106827,-0.16881267726421356,-0.21457737684249878,0.03880289942026138,-0.5304856300354004,-0.018671924248337746,0.023592248558998108,-0.29636669158935547,0.14188088476657867,0.21278928220272064,-0.312212735414505,0.26525938510894775,-0.12558788061141968,-0.30441728234291077,0.08863679319620132,-0.09989561140537262,-0.13548892736434937,-0.22329479455947876,0.1708492636680603,-0.5851916670799255,0.13362924754619598,0.13081298768520355,-0.3305400609970093,0.24231049418449402,0.06128688156604767,0.4657762050628662,0.0496252104640007,-0.09284227341413498,-0.19750185310840607,0.09324769675731659,0.10368286073207855,0.12749268114566803,-0.22267688810825348,-0.10657886415719986,-0.06388497352600098,0.02346932888031006,-0.3906346261501312,0.0018606262747198343,-0.5388093590736389,-0.14620506763458252,0.07690761238336563,-0.294671893119812,0.23015497624874115,-0.1321364790201187,-0.3770814538002014,-0.13929973542690277,0.2787255346775055,0.2823268473148346,0.4712565243244171,0.2329421043395996,0.3020468056201935,0.07247378677129745,0.3697337806224823,0.3540091812610626,-0.21165719628334045,-0.34630733728408813,0.3610706925392151,-0.19244877994060516,0.340410441160202,0.6622275710105896,-0.11054394394159317,0.11445075273513794,-0.182878777384758,0.060878027230501175,0.263974666595459,0.25217655301094055,-0.2178502082824707,-0.21376541256904602,0.5970098376274109,-0.3012043535709381,-0.14204615354537964,-0.2016623318195343,0.20551225543022156,0.053597159683704376,0.011399841867387295,0.019477885216474533,-0.20791636407375336,0.13708193600177765,0.02279587648808956,-0.03397434577345848,-0.3253827393054962,-0.10522454231977463,0.16925875842571259,0.07416693866252899,-0.022191094234585762,-0.20339949429035187,-0.04480598866939545,-0.09259523451328278,-0.10219503939151764,-0.0404006652534008,0.055258531123399734,0.014069980010390282,0.250191867351532,0.08815473318099976,0.305228590965271,-0.1674700826406479,-0.13715049624443054,-0.04052025452256203,0.35671401023864746,-0.09356522560119629,0.29327741265296936,0.27078777551651,-0.029910827055573463,0.011620575562119484,-0.0745667964220047,0.09460410475730896,0.2950724959373474,-0.016077758744359016,-0.04866848886013031,-0.06094112619757652,0.03364262357354164,-0.08918584883213043,0.09272053092718124,0.26914867758750916,0.14130499958992004,0.3026522099971771,-0.057642679661512375,0.11688224971294403,0.0956786721944809,-0.5419238209724426,0.03254081308841705,0.055825717747211456,0.04097435623407364,-0.10839038342237473,-0.4057716429233551,0.2320013791322708,0.069740429520607,-0.19648389518260956,-0.03174799680709839,-0.20155009627342224,-0.1076185405254364,0.2641444802284241,-0.2583938539028168,-0.19127130508422852,0.06960298866033554,-0.012117537669837475,0.2259843498468399,-0.11161598563194275,-0.21767888963222504,0.27486923336982727,0.00007029277185210958,0.04391299933195114,-0.134481281042099,-0.07288993895053864,-0.14389389753341675,0.0894644632935524,0.03509287163615227,0.21172326803207397,-0.1631145477294922,0.024718401953577995,-0.05005496367812157,-0.023457400500774384,0.04712257534265518,0.22835107147693634,-0.4623507857322693,0.0856681764125824,0.13623206317424774,0.11822034418582916,-0.1593964844942093,-0.05742744728922844,0.24526380002498627,0.2695414125919342,0.24683760106563568,-0.384710431098938,0.06867963075637817,0.32768529653549194,-0.16657081246376038,-0.03522610291838646,-0.008328172378242016,0.43071112036705017,0.13721434772014618,-0.02665688283741474,0.29561856389045715,0.3457013964653015,-0.01702691800892353,-0.38579028844833374,-0.009990218095481396,0.07512376457452774,-0.08569355309009552,0.34445518255233765,-0.07005768269300461,-0.22684597969055176,0.06097942963242531,-0.0003950739628635347,-0.0890888124704361,-0.13233454525470734,-0.0652351826429367,-0.3524089455604553,-0.005608216859400272,-0.04646071419119835,-0.3249075412750244,0.08924708515405655,0.12726473808288574,0.38686811923980713,0.14586344361305237,0.0540841743350029,-0.5414754748344421,0.11510775238275528,-0.08612457662820816,-0.1815638393163681,-0.07833739370107651,0.08426544070243835,0.10330361127853394,-0.17386454343795776,-0.08295193314552307,-0.03155709430575371,-0.00655156746506691,0.11845339834690094,0.28554001450538635,0.3065042197704315,